#pragma once
// Auto-generated by tools/nnue_train.cpp. Do not edit.
// games trained: 3000, hidden: 32, samples: 97755
namespace nnue_data {
constexpr int   NUM_FEATURES = 360;
constexpr int   HIDDEN       = 32;
constexpr float OUT_SCALE    = 600.0f;
inline const float W1[11520] = {
-8.2574505e-38f,-5.9474815e-37f,3.2972775e-37f,5.5953063e-38f,1.6201219e-38f,-1.1885209e-37f,1.4265111e-37f,7.9782536e-38f,
-2.8524415e-37f,6.2628748e-38f,1.3941895e-37f,3.2708389e-37f,-4.5713863e-37f,4.80899e-37f,-1.5105213e-39f,3.5265761e-37f,
2.0829185e-37f,1.1417893e-37f,-4.6742093e-38f,2.601818e-37f,2.2243064e-37f,-2.4726983e-37f,-9.7176887e-38f,-1.1115769e-37f,
6.7672671e-37f,7.056227e-37f,2.3139245e-37f,-3.6320136e-37f,-3.3827222e-38f,6.2309272e-37f,6.8965207e-38f,-3.2149896e-37f,
-6.0494342e-37f,-2.3233887e-37f,-5.1051222e-37f,-5.9171319e-37f,6.1718583e-37f,4.0235364e-37f,3.8236816e-37f,1.7481937e-37f,
6.516463e-37f,-2.9359299e-37f,6.0488557e-37f,9.6750735e-38f,-1.2607985e-37f,7.6938797e-39f,-1.834475e-37f,5.5675857e-37f,
-6.6448259e-37f,-4.1498613e-37f,-3.5744505e-37f,-1.383547e-37f,-6.5093027e-37f,-5.2536343e-37f,4.3246375e-37f,4.9177505e-37f,
2.4007142e-37f,-2.2192285e-38f,8.0144312e-38f,1.1205398e-37f,1.5333187e-38f,-2.4663355e-37f,5.1165133e-37f,5.215189e-38f,
-2.9346764e-37f,1.9423077e-37f,-5.8688469e-37f,-1.3236703e-37f,4.4524866e-37f,1.398438e-37f,2.3671367e-38f,5.9433449e-37f,
5.267954e-38f,1.521628e-38f,-6.7996257e-37f,-4.1254935e-37f,-1.7088319e-37f,3.0265798e-37f,1.4579386e-37f,-3.2543152e-37f,
9.2038948e-38f,8.0448433e-39f,2.389019e-37f,-5.8183822e-37f,6.9855138e-38f,4.7036711e-37f,-2.633273e-37f,-6.5084632e-37f,
2.8881557e-37f,3.7350747e-37f,-3.2089064e-37f,-2.7312457e-37f,-6.79841e-37f,-3.0602511e-37f,3.4174927e-37f,5.2781308e-37f,
6.110099e-37f,1.6867496e-37f,-3.1809726e-37f,5.2321615e-37f,-3.1676838e-37f,1.8547671e-37f,-2.6551933e-37f,5.0036292e-37f,
-1.0164772e-37f,1.0818578e-37f,-5.9644114e-37f,4.5227206e-37f,-1.1575132e-37f,3.4650389e-37f,5.850013e-37f,4.4411532e-38f,
-2.1610347e-37f,1.6004365e-37f,4.4227213e-37f,6.6876554e-38f,4.6128396e-37f,-4.1429517e-37f,2.770207e-37f,2.2482655e-37f,
-3.6814604e-37f,-2.7096651e-38f,2.0033465e-37f,6.1060457e-37f,3.5294902e-38f,-1.772827e-37f,4.1372949e-37f,-3.1957026e-38f,
6.7804779e-37f,-3.8226077e-37f,-5.0201905e-37f,-1.686398e-37f,-6.1301943e-37f,9.9100096e-38f,3.9926872e-37f,3.6413868e-37f,
-6.9744468e-37f,2.6699072e-37f,4.300998e-37f,6.5193416e-38f,3.090616e-37f,6.2620338e-37f,2.6975699e-37f,-5.9898846e-37f,
-5.5221697e-37f,1.0850496e-37f,-3.0318458e-37f,-2.7877019e-37f,-3.2027997e-37f,1.5211561e-37f,1.9968624e-37f,2.8795195e-37f,
6.1587323e-37f,1.0072185e-37f,1.352202e-37f,-5.7083513e-38f,-4.1994032e-37f,1.3081686e-37f,3.3194007e-37f,-1.3445268e-37f,
0.38397175f,-0.017311715f,0.033444781f,0.37682524f,0.20726447f,0.12833278f,-0.37517121f,0.14995836f,
0.1484987f,-0.30540466f,0.036392853f,0.6746245f,-0.091050237f,0.15191947f,-0.19313996f,0.27696922f,
-0.040166322f,-0.14751957f,-0.12572467f,0.19407387f,0.088336222f,-0.067896798f,0.24070612f,-0.69002438f,
0.30822557f,0.0068849456f,0.68303448f,0.16104209f,0.28370333f,0.016225711f,0.14358823f,0.38794369f,
-0.10584848f,-0.34412393f,-0.43707645f,0.34668696f,0.26205054f,0.050080437f,-0.02626521f,0.33492339f,
0.0085658245f,-0.041583784f,0.13083158f,0.20334853f,0.046449829f,0.040357746f,0.65496135f,-0.078667045f,
-0.029531287f,0.57774228f,0.51375812f,0.40225002f,0.014670209f,0.59258622f,0.15035294f,-0.65217501f,
0.88909793f,0.19239067f,-0.42258623f,0.069644473f,0.26900253f,0.043390337f,0.11874563f,0.28826401f,
-0.60249007f,0.054120373f,-0.33926854f,0.3107776f,0.41325635f,0.28926569f,0.33862439f,-0.072668068f,
0.72191006f,-0.11935136f,-0.13659f,-0.51750082f,0.29708657f,-0.65016288f,-0.31166974f,-0.36520514f,
0.23877338f,0.081992783f,-0.86864644f,-0.1036569f,0.43595472f,0.25458348f,-0.12714635f,-0.84725398f,
-0.10379119f,-0.40317479f,0.15480223f,-0.070326f,0.016417231f,0.31473789f,0.00043942276f,0.32333851f,
-0.081654243f,0.12673433f,0.46168873f,-0.2366083f,-0.38228574f,0.0066308137f,-0.10641949f,-0.14285935f,
-0.1993756f,-0.16754967f,0.47803766f,-0.10968637f,-0.51872838f,-0.10297954f,-0.057466075f,-0.22722679f,
0.16296291f,-0.22045936f,0.051331431f,-0.18428126f,0.14809056f,0.063588701f,0.2510142f,-0.12935787f,
-0.19406678f,-0.43798757f,0.12618864f,0.021985335f,0.34838536f,0.30104575f,-0.17100517f,0.2387432f,
0.71899217f,-0.49954972f,0.40807268f,-0.060706481f,0.0797166f,-0.37719467f,0.43698519f,0.23428796f,
-0.33249441f,-0.127344f,0.08665853f,0.32100663f,0.26880074f,-0.23083957f,-0.7860952f,-0.094478123f,
0.47012436f,0.60020494f,0.012358041f,-0.29297119f,0.23932308f,0.20878275f,0.055713437f,-0.14446981f,
0.31979689f,0.22875372f,0.15132771f,0.20967026f,-0.2017791f,0.31681713f,-0.38402629f,-0.88950509f,
0.080752492f,-0.5369764f,-0.16907935f,0.14295872f,-0.070841618f,0.22544783f,0.24539003f,-0.16532215f,
0.31468236f,0.20415044f,0.032025237f,0.21159393f,0.1320392f,0.08801499f,-0.12482915f,-0.55106932f,
0.13215676f,0.50580662f,0.022473382f,0.2757419f,0.60965872f,0.018721666f,0.2960481f,-0.13186769f,
0.16786075f,0.074530423f,-0.18540196f,-0.32242709f,0.083352618f,-0.31781223f,0.11529668f,0.22028135f,
-0.56101489f,-0.0290423f,-0.16079098f,-0.53585589f,-0.0015597516f,0.1778962f,0.079701878f,0.23068054f,
-0.21592768f,-0.022663182f,0.1803889f,0.26742202f,-0.30775803f,-0.39059025f,0.084713221f,0.067147918f,
-0.055332478f,0.017405218f,-0.39986798f,0.10405052f,-0.4331212f,-0.22983091f,0.12353904f,0.012141375f,
-0.22873139f,-0.44423002f,-0.42224029f,0.13314705f,0.053916495f,-0.31943107f,0.21862088f,0.072936878f,
-0.055407345f,-0.17185763f,0.24412876f,0.13706845f,-0.036945596f,0.070706457f,0.0070189345f,0.073943481f,
0.35629341f,-0.018875699f,-0.25866586f,0.26489481f,-0.089060694f,-0.22770484f,0.12781261f,-0.14180022f,
-0.20046425f,0.16139841f,-0.067305356f,0.1782738f,0.46609029f,0.040245105f,-0.036003314f,-0.10893775f,
0.173501f,-0.10043507f,-0.18210758f,0.24630587f,0.042325832f,0.0020294674f,-0.48271495f,0.030152306f,
-0.17889127f,-0.11921373f,0.52929187f,0.34841892f,0.036017783f,0.27297613f,0.12959306f,-0.085519902f,
0.089067347f,-0.0044172835f,-0.38951325f,-0.4053717f,-0.085870005f,-0.39308268f,-0.3851921f,-0.20445988f,
0.091666423f,-0.37615982f,0.12131088f,0.16280618f,0.2697295f,-0.047723316f,0.18606745f,-0.12319182f,
-0.14683953f,0.13189112f,0.10835409f,-0.10232645f,0.0032890046f,-0.077989876f,-0.004628839f,-0.22696136f,
-0.11395446f,-0.24886745f,0.16756573f,0.078471057f,-0.2447993f,-0.39220411f,0.020119568f,0.50076699f,
-0.17768537f,0.088965133f,0.34340152f,-0.043667115f,0.29188016f,0.22708063f,0.31550947f,-0.098374993f,
0.21622592f,-0.59126252f,-0.21014784f,-0.0061177178f,-0.21743222f,0.042932399f,0.35107315f,-0.063930675f,
-0.06120088f,0.10561925f,-0.42910373f,-0.0012388271f,0.0014215591f,0.32376915f,-0.2679542f,-0.11770921f,
0.022208868f,0.06405022f,-0.1135453f,-0.086716324f,-0.065698288f,-0.12135419f,0.078827001f,-0.090263061f,
-0.18064952f,0.042224076f,-0.11670598f,-0.0065925675f,0.060072236f,-0.10322636f,0.14016195f,0.21142647f,
-0.32632411f,0.30254969f,0.10254043f,0.12656756f,0.10068253f,-0.081585959f,-0.035666753f,0.026842074f,
-0.030854691f,0.026864016f,-0.25184065f,0.057119653f,0.19431628f,0.07759513f,-0.12267895f,-0.2587122f,
0.017313387f,-0.18249683f,-0.079244666f,0.13483538f,0.01616133f,0.22251467f,0.029355226f,-0.25682697f,
0.073461413f,0.11886276f,0.025866061f,0.046947442f,-0.17073894f,0.11668459f,0.14452469f,0.07486438f,
-0.024930229f,-0.05671712f,0.13244699f,-0.061171159f,-0.24960488f,-0.16647851f,0.017945889f,-0.24261166f,
-0.20272961f,0.060893428f,-0.18345894f,-0.24931696f,-0.041098986f,0.075538471f,0.095622286f,0.20699367f,
-0.075747296f,0.064514473f,0.13340472f,-0.071314834f,-0.084569059f,-0.41207027f,-0.20825434f,-0.15348154f,
-0.013479997f,-0.079130255f,-0.0034899237f,-0.11097445f,0.2249929f,-0.2405256f,0.0035797621f,-0.13702877f,
-0.12556405f,-0.012639428f,0.095197886f,0.095429704f,0.13167112f,0.15515654f,0.11343138f,0.042367797f,
0.055222124f,0.048248868f,-0.10493246f,-0.050592076f,0.11000056f,-0.25709185f,-0.24732378f,-0.16189934f,
0.27227011f,0.18155812f,0.11944801f,0.033107754f,0.017491661f,-0.081215829f,0.28291488f,-0.21542956f,
-0.037126377f,0.19711928f,0.12660573f,-0.11803755f,0.16514163f,-0.13078301f,0.027310204f,-0.13467041f,
-0.11827429f,-0.1195581f,-0.017451752f,-0.25346452f,0.089812666f,-0.33313984f,0.03651733f,0.013618588f,
0.19878733f,0.13894795f,0.071541056f,0.087213241f,0.03542411f,-0.019845588f,0.053576659f,-0.10170981f,
-0.012940077f,0.3065241f,-0.088730007f,-0.15717073f,-0.08815784f,-0.23150651f,0.12906191f,0.20483498f,
0.15823376f,-0.14083582f,-0.040903594f,0.0095317429f,0.20233783f,0.030310016f,-0.24703336f,-0.058095463f,
0.11228214f,0.15452011f,-0.27532044f,0.12905602f,-0.11683331f,-0.055010237f,-0.25080645f,0.14295255f,
-0.5514037f,0.1226382f,-0.039048992f,-0.083529696f,0.14387506f,0.24474068f,0.011334412f,-0.13692521f,
-0.043041077f,0.095407993f,-0.0044298279f,0.14151199f,-0.021790558f,-0.16790871f,-0.01220568f,-0.13468015f,
0.039499614f,-0.022586025f,-0.1779232f,-0.036108848f,-0.10361365f,-0.14019217f,0.25944093f,0.16210598f,
0.1313833f,0.24726035f,-0.0018951248f,-0.10488995f,0.11213263f,-0.013907731f,0.10579426f,0.17975463f,
0.067676902f,0.071935833f,0.032387171f,-0.17531274f,-0.022812786f,-0.00019765487f,0.0063813971f,-0.26356632f,
-0.061681543f,0.037722778f,0.13585325f,0.040133584f,-0.20917095f,0.010476939f,-0.095196687f,-0.1374853f,
-0.048333943f,-0.11851873f,0.039062619f,-0.19281566f,-0.010114694f,0.083973549f,0.14447293f,-0.037222605f,
-0.02582428f,0.012326416f,0.28577369f,-0.091248631f,0.10729419f,-0.16619949f,-0.13866909f,-0.072593942f,
-0.077134304f,0.12362035f,-0.23127128f,-0.17670274f,-0.17848326f,0.081875533f,0.15963408f,0.14263158f,
0.051892586f,0.27700707f,-0.034344874f,-0.20483099f,0.17755543f,-0.30998525f,-0.11535322f,0.01989194f,
0.066783383f,0.083691865f,-0.11765876f,-0.10782289f,0.054120746f,-0.093135029f,-0.045309577f,0.064889044f,
0.090769634f,-0.16994523f,-0.041956604f,0.28103802f,-0.05756133f,-0.60203654f,-0.12819791f,0.0051147905f,
-0.041328605f,0.14046976f,0.12782843f,-0.13893068f,0.16472833f,-0.17631403f,-0.22515742f,0.1006842f,
0.074817047f,-0.11603975f,-0.13892378f,-0.0083289677f,-0.02054644f,-0.14772382f,-0.3079282f,-0.18390223f,
-0.009781708f,-0.00089025008f,0.22200058f,0.1270106f,0.25688913f,-0.13680901f,-0.1189015f,-0.13402997f,
-0.0040526683f,0.018834794f,0.079550505f,-0.2378175f,0.050231554f,-0.15065071f,0.17687973f,-0.085632518f,
0.13869233f,0.15112764f,0.20723119f,-0.030405307f,-0.0024343105f,-0.06879288f,-0.12394328f,-0.15374789f,
0.10582118f,0.066300735f,-0.041998703f,0.030316431f,-0.059096143f,-0.0035749879f,-0.0014834537f,-0.17187995f,
-0.027321981f,0.011859915f,-0.026537079f,-0.15912522f,0.23445812f,-0.13247882f,-0.017212264f,-0.09730646f,
-0.16734523f,0.082116656f,-0.11625595f,0.030103615f,0.012641926f,-0.29124495f,-0.40979472f,0.074468806f,
0.25734708f,-0.067676477f,0.16050714f,-0.15303893f,-0.25099298f,0.073234566f,-0.015433316f,0.049914163f,
5.5871559e-37f,1.6096103e-37f,-3.7931073e-37f,3.1729579e-37f,-2.0170615e-38f,7.0814113e-39f,-6.4779848e-38f,5.0714305e-37f,
9.7435701e-38f,6.8721762e-37f,-4.0004919e-37f,3.0065202e-37f,5.4664989e-37f,-3.0981328e-37f,-2.3942671e-37f,5.247939e-37f,
-6.2449875e-38f,5.444162e-37f,1.718098e-37f,-3.4762435e-37f,4.3086731e-37f,-3.5884471e-37f,-2.0018004e-37f,4.3066812e-37f,
-1.0550097e-37f,3.6683806e-37f,2.4489814e-37f,-1.3768626e-37f,6.2427564e-37f,-3.7345501e-37f,2.9903877e-39f,1.9051736e-37f,
-3.917496e-37f,1.8425231e-38f,-1.0171388e-37f,3.9723264e-37f,1.1355025e-37f,-3.1451485e-37f,-6.2364894e-37f,-6.1943428e-37f,
6.6917212e-37f,-5.0630685e-38f,3.910146e-37f,4.588426e-37f,1.1913263e-37f,-8.6325983e-38f,2.2717138e-37f,-1.1340295e-37f,
2.9456155e-37f,-6.9098027e-39f,1.3954616e-37f,1.6079673e-37f,-3.4530712e-37f,-1.8604765e-37f,4.3707208e-37f,5.9461134e-37f,
3.6964363e-37f,2.038526e-37f,3.0253792e-37f,5.264599e-37f,6.1447068e-37f,-3.1772674e-37f,-4.1160006e-37f,-4.4950942e-37f,
-1.6963666e-37f,-5.8691989e-37f,-2.5122571e-37f,3.1575075e-37f,4.3348659e-37f,3.2877068e-38f,4.175491e-37f,-6.5698623e-38f,
-1.3925269e-38f,7.8958157e-38f,5.0397096e-37f,9.1813378e-38f,4.4236526e-37f,-1.6183787e-38f,4.1782644e-37f,6.0483983e-37f,
4.8722408e-37f,3.7597945e-37f,-7.8373737e-38f,-7.2567956e-38f,1.0471544e-37f,-1.36781e-37f,4.749843e-38f,-6.6466622e-37f,
-8.811617e-38f,-3.9335816e-37f,2.7744923e-37f,-5.8145671e-37f,1.1880758e-38f,8.0361653e-38f,-1.4849606e-37f,-3.2415112e-37f,
-4.5706145e-37f,6.4288457e-37f,-1.9048722e-37f,-1.0203096e-37f,-4.8907922e-37f,-2.2287331e-37f,-4.7272931e-37f,-2.7419281e-37f,
-4.0372826e-37f,8.6226592e-38f,7.0104047e-38f,-4.3159511e-38f,-9.831871e-38f,-3.8025339e-37f,-6.9053737e-37f,4.7123053e-37f,
3.8723352e-37f,-2.500318e-37f,-2.0824093e-37f,1.267781e-37f,1.620313e-37f,3.6681756e-37f,-2.7925204e-37f,-4.503206e-38f,
4.6231921e-37f,4.1520647e-38f,-8.3302087e-38f,4.2901096e-37f,5.8778238e-37f,-4.1754327e-37f,-5.0013822e-37f,-6.2468334e-37f,
-3.3200555e-38f,3.6505121e-37f,-6.5828805e-37f,-3.8321536e-37f,-3.9321619e-37f,1.026876e-37f,3.7917132e-37f,4.741603e-37f,
1.5771412e-38f,-2.2584212e-38f,9.3648519e-38f,-3.6686774e-37f,3.4097789e-37f,2.3751478e-37f,-6.2593263e-37f,-5.5604904e-37f,
7.2525132e-38f,8.9440744e-38f,2.721036e-37f,-5.9036843e-37f,-2.9066558e-37f,-5.9095649e-37f,-2.5606779e-37f,2.3917089e-37f,
3.6424312e-37f,-5.3464559e-37f,-3.5413366e-37f,-6.1615919e-37f,6.4878913e-37f,-1.5293137e-37f,-2.2421358e-37f,-4.1066991e-37f,
-0.38604435f,0.61688459f,-0.20280124f,0.13178995f,0.30893284f,0.14117528f,0.033076622f,-0.03640148f,
0.05869944f,-1.1298298f,-0.02408067f,-0.2511408f,0.35837138f,-0.42034242f,0.092952341f,-0.31261936f,
-0.57662851f,0.091505609f,-0.089765735f,-0.20428887f,-0.38954642f,-0.40490526f,0.098578714f,-0.52270478f,
-0.46934575f,-0.28101426f,0.21669543f,-0.39535114f,-0.25774351f,0.48972189f,0.097830482f,-0.13342722f,
-0.3950668f,0.48033524f,0.024860645f,0.24511522f,0.11682679f,-0.59490198f,-0.69123775f,-0.62476152f,
-0.98450774f,0.33948287f,0.35121602f,-0.084563337f,0.064070135f,-0.90569341f,-0.41016397f,0.44265205f,
0.23603182f,0.69696045f,-0.62239403f,-0.40831783f,0.58183366f,0.042105105f,-0.100301f,-0.39734292f,
-0.25167018f,-0.53848046f,0.16822746f,-0.19461039f,0.075353429f,0.67681402f,0.21924599f,-0.18071838f,
0.017666636f,0.45715797f,0.18937206f,0.49898216f,0.10243067f,-0.0029718436f,0.21128887f,-0.21631008f,
0.28543705f,-0.20852134f,0.23340198f,-0.68877983f,-0.17633085f,0.0088792481f,0.54805815f,0.68446898f,
0.23738039f,-0.35305998f,-0.57482779f,0.42050937f,0.34240997f,0.19559377f,-0.41627419f,-0.85668963f,
0.20067216f,0.41572738f,0.2909255f,-0.27775452f,-0.60864091f,0.26957524f,0.078138568f,0.53921431f,
-0.60786974f,-0.036533512f,-0.50349516f,0.012010338f,-0.1824145f,-0.71962517f,0.28678232f,0.018166052f,
-0.51167142f,0.099637367f,-0.25575191f,-0.37564564f,0.2042834f,0.045564726f,-0.33765325f,-0.21794082f,
-0.08566995f,0.38231987f,-0.34913436f,0.19224189f,-0.42605269f,0.032901965f,-0.50954646f,0.21801433f,
-0.0049943207f,-0.061593704f,0.2958633f,-0.019094227f,-0.30962688f,0.26691306f,0.022361089f,0.03453619f,
0.61188447f,0.097515717f,-0.098175749f,-0.44273084f,0.28016317f,0.44467312f,0.42342025f,-0.33259761f,
0.63345504f,0.072625414f,0.57086992f,0.50455916f,0.18488118f,0.12838751f,-0.30031908f,0.10451359f,
0.24124211f,0.69323879f,0.15298918f,0.40396819f,-0.28408623f,-0.033252716f,0.32462028f,0.097267672f,
-0.30567542f,-0.02334173f,0.39578015f,-0.31077266f,-0.63464653f,0.10239618f,0.19108526f,0.35831428f,
-0.31387544f,0.12699287f,-0.27301422f,-0.17583412f,0.096006013f,0.038467661f,0.7361837f,0.23257318f,
-1.2758194f,-0.3630082f,-0.023130609f,-0.041892186f,0.18178524f,-0.05113177f,-0.26996773f,-0.1107183f,
-0.5106138f,-0.066945821f,0.03127474f,0.14461808f,-0.27602595f,0.2620706f,-0.14204393f,-0.51951271f,
-0.14343892f,0.055260465f,-0.55264306f,0.17535648f,-0.03504882f,0.20591649f,0.323901f,0.12648115f,
-0.19903028f,-0.051870089f,0.36197126f,-0.37545434f,0.1729766f,-0.87200361f,-0.29347393f,-0.079829238f,
-0.021438515f,-0.66741997f,0.14707772f,-0.13726002f,-0.019205214f,0.50902039f,-0.60387641f,-0.0054449742f,
-0.09999647f,0.34656179f,-0.57165998f,-0.086130194f,-0.30284652f,0.16091734f,0.27600947f,0.17556995f,
0.069435738f,-0.19974987f,-0.45024925f,0.21768476f,-0.28950664f,-0.1059327f,-0.92964697f,-0.13423409f,
0.084030353f,0.23540671f,0.066377252f,0.14491634f,0.12758355f,0.070460729f,0.28037345f,0.019701334f,
-0.54296201f,-0.69337237f,-0.26025084f,-0.13340133f,-0.04334021f,0.013950747f,0.1498538f,-0.4469094f,
0.077931441f,-0.33710873f,-0.22312844f,0.25693962f,0.085519157f,-0.07572531f,-0.37987888f,0.19783273f,
0.43793339f,-0.0554769f,-0.82864004f,-0.034033194f,0.37631673f,0.25378323f,0.062995061f,-0.16098145f,
-0.52534038f,0.17417565f,0.50392634f,0.32706183f,0.35909164f,-0.19069313f,0.2103259f,0.29212442f,
-0.94686204f,0.093324669f,0.32243448f,0.088414952f,0.059478033f,0.06074306f,0.12108281f,-0.67629611f,
-0.52547473f,-0.25039762f,0.19165258f,-0.031879418f,-0.44781891f,0.17236523f,-0.29553232f,-0.46995381f,
0.36426583f,-0.056028333f,-1.3086417f,0.36854315f,0.055924185f,-0.023063907f,-0.33477259f,-0.20839213f,
0.27879068f,-0.01284454f,0.40602732f,-0.0022250034f,0.53675485f,-0.31297243f,-0.024820797f,-0.2606326f,
-0.67468011f,-0.10394341f,0.46565637f,0.3755126f,-0.03001577f,-0.43702281f,-0.20722115f,0.53047949f,
-0.44121441f,0.50549281f,0.210071f,-0.11028982f,0.58804351f,0.30149573f,-0.069886714f,0.17032573f,
-0.22573404f,-0.05077308f,0.48794952f,-0.10258038f,-0.93942505f,0.0086458381f,-0.42363495f,0.5426141f,
0.091755845f,0.59159166f,-0.33189994f,0.21397133f,-0.060098466f,-0.4647136f,0.19151038f,-0.24374954f,
0.34989566f,0.32494202f,0.043967579f,0.22968479f,-0.16853017f,-0.43315563f,0.31432891f,-0.21199244f,
0.33260554f,0.33326623f,-0.21507664f,0.28415719f,0.24199222f,-0.072142966f,-0.0064085345f,0.3765344f,
-0.088886879f,0.17505068f,0.17388363f,-0.099838756f,-0.099993393f,0.083823159f,0.13375504f,0.20586342f,
0.3399314f,-0.19084778f,-0.36893699f,0.013781738f,-0.24587856f,-0.070656151f,0.2546778f,-0.15707134f,
-0.58667684f,0.090355247f,-0.41152567f,-0.043878518f,0.25055927f,0.28494567f,-0.25739586f,-0.21429442f,
-0.1937034f,0.13470313f,-0.20664524f,-0.12182213f,-0.29086745f,-0.28747186f,0.4515985f,0.19652821f,
0.041144792f,0.17884417f,-0.40739778f,0.31752363f,-0.36642092f,0.19406685f,-0.37207824f,0.47095639f,
0.081329897f,-0.24066128f,-0.50663495f,-0.37693346f,0.3157216f,-0.18923111f,-0.049107332f,-0.20479137f,
-1.1021488f,0.026021162f,0.30378079f,-0.19506773f,-0.26161066f,-0.22107683f,0.057700686f,-0.53243744f,
0.23858754f,0.29837748f,0.094910964f,0.14551963f,0.32870799f,0.029776759f,-0.012291116f,-0.19959739f,
0.071088649f,-0.17516965f,-0.12967509f,0.46219128f,-0.11719169f,0.39068645f,-0.24009246f,0.59769475f,
0.55469459f,0.13584746f,0.088663228f,-1.0657566f,0.03406183f,-0.49760729f,-0.10413988f,-0.64866966f,
0.44233114f,-0.037766207f,-0.095922239f,0.32128853f,-0.4463549f,-0.25849056f,0.13663423f,0.083028182f,
0.59226936f,0.010050395f,0.30823243f,-0.36627513f,-0.30993906f,0.021219153f,0.20163102f,-0.49817815f,
0.046826698f,0.28316081f,-0.38149348f,-0.27604276f,0.018506721f,0.10976588f,0.05177265f,0.68728083f,
0.48537847f,0.3519437f,0.28671256f,-0.1216547f,0.13267365f,-0.26615289f,0.047359392f,-0.81051815f,
-0.34117985f,-0.42620614f,-0.091084979f,0.0013968335f,0.053735785f,0.051211055f,-0.048628602f,-0.63288397f,
0.068316735f,0.54019642f,0.26889643f,0.32310218f,0.24476628f,0.37646967f,0.081853069f,0.014804578f,
0.16017522f,0.35862643f,0.1199467f,-0.42554399f,0.044396058f,0.097403057f,0.42665192f,0.063632749f,
0.1150984f,0.10120939f,0.29729894f,0.22640458f,0.018818107f,-0.062705375f,-0.24341293f,0.054478187f,
0.19997218f,-0.26245129f,0.1292261f,0.046570297f,-0.30066082f,-0.066941433f,-0.0075994851f,-0.22608101f,
-0.21645157f,0.097051226f,-0.50142962f,-0.18116835f,0.18833357f,-0.78032106f,0.25715366f,0.32844299f,
-0.14136039f,0.21264262f,-0.027200861f,-0.29181674f,0.23653786f,0.0011433738f,0.027133707f,-0.46336788f,
-0.95241523f,0.31575426f,0.070126049f,-0.55017102f,0.2613391f,0.014292343f,0.03027783f,0.25052312f,
-0.38065803f,-0.47900948f,0.0057395273f,-0.30217245f,0.0058233351f,0.43679836f,-0.3212387f,-0.12178522f,
-0.51461023f,-0.22977322f,0.32014009f,0.11087331f,0.11892185f,-0.44094241f,0.005000642f,0.090423398f,
0.39281556f,-0.04741225f,-0.24875762f,0.047563478f,0.22263288f,-0.0094908522f,-0.035290215f,-0.14134806f,
-0.30966273f,-0.31761321f,-0.16365978f,0.13830918f,0.41468233f,-0.068019286f,-0.038536347f,-0.037814897f,
-0.9615581f,0.23567197f,0.2053791f,0.0011032105f,-0.20219356f,-0.45151296f,-0.074872956f,0.47127363f,
0.30264014f,-0.11894322f,0.31425926f,0.099387392f,0.36426079f,0.20989743f,0.17916614f,-0.51997399f,
0.57631344f,0.26103666f,0.15506977f,-0.20955083f,-0.21918458f,0.29809088f,-0.010242054f,-0.29178923f,
0.49460983f,0.49853435f,0.37805268f,0.26019442f,0.31236196f,-0.31478471f,0.15142609f,0.32849747f,
0.15289561f,-0.29853544f,-0.67070979f,0.32546762f,-0.21369384f,-0.15676546f,0.06918627f,-0.22997221f,
0.14507055f,0.24774681f,0.11319901f,0.056014046f,0.3642f,-0.31240857f,-0.13447998f,0.1720489f,
0.27585229f,0.020013651f,0.25075978f,-0.0030204253f,-0.29828843f,0.23464413f,0.16909727f,0.37977836f,
0.18907572f,0.29148659f,0.066645905f,0.19749691f,-0.047444381f,0.047052167f,0.20036609f,-0.94790119f,
-0.57819015f,-0.1025271f,0.66247106f,-0.31959555f,0.032091249f,-0.98990399f,0.023214666f,-0.095022157f,
0.3777656f,0.2675235f,-0.83862299f,-0.48787609f,0.45557442f,-0.010954845f,0.11740617f,0.48228368f,
0.026404275f,0.061061058f,0.15246783f,0.32915056f,0.14961074f,0.568187f,-0.18455632f,0.11690185f,
-0.10983792f,-0.16587351f,0.056115013f,0.19313967f,0.032835413f,-0.20834877f,0.15925452f,0.15579134f,
-0.55748105f,0.073731184f,0.20700882f,0.037283797f,-0.029024078f,0.24761081f,-0.38330895f,-0.081788376f,
-0.26077396f,0.020538922f,-0.0032451795f,0.1401659f,0.26696458f,0.027873913f,-0.038804788f,0.068722017f,
-0.017287098f,-0.090593636f,-0.35993424f,0.10881259f,0.0043644803f,0.42647094f,0.040129248f,0.20294891f,
0.035941277f,0.31305596f,-0.33882937f,-0.077274121f,0.023372838f,-0.15388554f,0.34466076f,0.37709466f,
0.3551459f,0.11136557f,0.031854417f,0.093606293f,-0.26871192f,0.28128856f,-0.53870749f,0.12656467f,
0.0064918119f,0.034945007f,-0.5515635f,-0.14205615f,-0.36555859f,0.045428865f,-0.30344513f,0.109919f,
0.18551123f,-0.36204019f,-0.69789779f,-0.18726417f,-0.13565275f,0.47796285f,0.26643446f,0.27304417f,
-0.26729238f,0.095721342f,0.15781982f,0.18469059f,0.48068905f,-0.031451359f,0.55446243f,0.097420759f,
-0.33774754f,-0.12302848f,-0.049744774f,0.447175f,-0.10950583f,0.085973077f,0.058977827f,-0.0015836643f,
0.32341793f,-0.60800433f,0.066188395f,-0.28457096f,0.15300256f,-0.37228367f,-0.2337123f,-0.41294739f,
0.31498361f,-0.48693898f,0.54259092f,-0.40597501f,-0.071038276f,0.19324732f,0.27714545f,0.2264481f,
0.17439741f,0.20749085f,-0.16273294f,0.40027821f,-0.4545128f,-0.11958946f,0.32544956f,0.12489725f,
0.19861697f,-0.065196984f,0.19195697f,0.21944332f,0.011881337f,-1.1374156f,-0.1009471f,0.43206784f,
0.25261652f,0.44454309f,0.24299544f,-0.051030882f,-0.0048337858f,0.04294049f,0.096478783f,0.23178616f,
0.20455104f,-0.17218177f,-0.78667265f,-0.4860841f,0.24162649f,0.029853722f,0.070298009f,0.4211553f,
-0.57513297f,0.19790892f,0.29026422f,0.55895138f,0.29372123f,0.0094327563f,-0.039092734f,0.038467154f,
0.19832693f,0.71395844f,0.18175851f,-0.27336112f,-0.1262268f,0.20001669f,0.3591871f,0.28955328f,
-0.18877628f,0.020313622f,-0.63642341f,0.15767394f,0.21116388f,-0.76259172f,0.24173953f,-0.0060562664f,
0.35420048f,0.02558136f,-0.32463586f,-0.15620455f,-0.24339768f,0.28256148f,0.61392963f,0.24239258f,
-0.14702818f,0.0071286494f,-0.039687041f,0.18624447f,0.32323697f,-0.1602626f,0.23350915f,0.011252156f,
-0.046639577f,-0.053273641f,0.14167641f,0.022484578f,-0.19187662f,-0.030816557f,0.067132793f,0.14962398f,
-0.1683097f,0.0044854907f,0.058261316f,-0.11959817f,0.094234772f,-0.18842131f,-0.12710327f,0.16473716f,
-0.046811197f,0.028056225f,0.00026880059f,-0.12191325f,-0.2103464f,-0.18486667f,-0.06856025f,0.23091257f,
0.22403926f,0.12151637f,-0.33205506f,0.15143865f,0.10397869f,-0.23924935f,0.11829012f,0.1953682f,
-0.080191761f,-0.0016337825f,-0.16244182f,0.034717642f,-0.1135168f,-0.19683945f,-0.19481987f,0.0029801703f,
0.016309282f,0.33312929f,0.089826442f,0.18712501f,-0.28152755f,-0.18491328f,0.097249001f,-0.017555142f,
0.031009553f,0.16414043f,-0.1445073f,-0.11668489f,-0.2433818f,-0.23484141f,0.44704607f,-0.055521011f,
-0.1773784f,0.22889671f,-0.29009017f,0.12225544f,0.033921495f,0.064008243f,0.25253543f,0.075056955f,
-0.71551448f,0.04604055f,-0.26349601f,-0.17252146f,0.22569503f,0.084588416f,-0.10179155f,-0.32722908f,
-0.34912634f,0.064690441f,0.10542012f,0.28792986f,-0.18378003f,-0.064535312f,-0.1570733f,-0.041415799f,
0.3255316f,-0.19753046f,-0.019271882f,-0.30140996f,-0.24781059f,-0.10897186f,-0.16260785f,0.13108455f,
0.053533718f,-0.060519412f,-0.081549987f,-0.10732397f,0.073082983f,-0.12706935f,0.53421938f,-0.0051409602f,
-0.19224909f,0.023840005f,0.062039964f,-0.030874353f,-0.054398965f,-0.14890015f,0.12177712f,-0.11557079f,
0.43368652f,-0.28030872f,-0.30537859f,0.0053038625f,-0.31794724f,-0.043962512f,-0.18460688f,0.13920942f,
0.24959654f,0.14330065f,-0.20731653f,-0.072308302f,-0.23092537f,-0.053585824f,0.13631417f,0.37477911f,
-0.073938176f,-0.041590229f,0.45117474f,0.23621747f,0.20215729f,-0.23326156f,0.00033391701f,0.316396f,
-0.38233873f,0.15452389f,0.23744597f,-0.48228419f,0.13545319f,0.25591847f,-0.0087429974f,0.090718664f,
0.17029718f,0.22003134f,0.28613308f,0.52663678f,-0.14263304f,0.031830776f,0.27417061f,-0.014134342f,
0.081392489f,0.37114757f,0.19164221f,0.24268541f,0.011466839f,0.0073208795f,0.1452575f,0.1872562f,
-0.00036932403f,0.1087001f,0.024623526f,-0.21163401f,0.14088194f,0.23144357f,-0.046116676f,0.31941465f,
0.047837678f,0.38516924f,0.16030569f,0.21417695f,0.1712897f,0.37623042f,0.0016105301f,-0.068502091f,
-0.29946539f,0.16264558f,0.30173048f,-0.084537886f,-0.0098831942f,-0.067638077f,0.16044891f,-0.0030774379f,
0.16191106f,0.062938996f,-0.31632468f,0.053278357f,0.036325525f,-0.04085429f,0.16184922f,-0.10543048f,
-0.85661221f,0.055337247f,-0.042421255f,-0.0072312863f,0.33538201f,-0.015450168f,0.12001744f,-0.25258914f,
0.0085996287f,-0.30124924f,-0.31008014f,0.18505383f,-0.67609721f,0.48886734f,0.19265355f,0.15167885f,
-0.065891944f,-0.11001115f,-0.37826431f,-0.16381039f,0.46439534f,0.72853994f,-0.26668006f,0.33090571f,
0.49233475f,0.12344625f,-0.14797264f,0.38860697f,0.036732562f,0.21067527f,-0.61881304f,0.34481987f,
-0.083856963f,-0.40078473f,-0.19311403f,0.18658674f,0.27059621f,-0.11958762f,0.073995821f,-0.55348253f,
-0.23322429f,-0.9060694f,-0.25006726f,0.26958969f,0.40922785f,-1.1713082f,-0.3472555f,-0.49729681f,
-0.13763537f,-0.36285701f,-0.11911239f,0.055807732f,-0.21315703f,0.28949311f,0.027654747f,1.0597497f,
0.20007323f,0.19349696f,-1.0300878f,-0.27456367f,-0.036226023f,0.2948769f,0.011372012f,0.020053744f,
-0.094818242f,-0.14982338f,-0.48927411f,-0.19173047f,0.28812766f,-0.83031601f,0.53983957f,-0.19131501f,
-0.5942924f,-0.43115535f,0.14259121f,0.085666776f,0.0012183636f,-0.50189984f,0.57443213f,0.087675616f,
0.29973999f,0.076954573f,0.31760138f,0.19425327f,0.32698563f,-0.3168512f,-0.62781042f,0.12064447f,
0.48246053f,-0.075985894f,-0.52485359f,-0.30906132f,0.034512185f,0.12112352f,0.1191864f,0.28729084f,
-0.24671824f,-0.33984879f,0.32433408f,0.081669144f,0.047924742f,-0.35082108f,-0.62772f,0.30458233f,
-0.65058231f,0.41120195f,0.56667894f,-0.29779476f,0.22429478f,-0.061900649f,-0.10043753f,0.026913343f,
0.31736851f,0.30674148f,0.022242071f,0.20734911f,0.26846826f,-0.44400927f,-0.078269236f,-0.2792576f,
-0.61983216f,-0.067006074f,-0.84279746f,0.4152506f,-0.15718246f,0.34526846f,0.25055379f,0.16092797f,
0.345783f,0.23502006f,-0.045473661f,-0.13612805f,0.17152756f,-0.22026734f,-0.43809399f,0.099256694f,
-0.22967878f,0.071739957f,0.31863552f,-0.13814592f,-0.45440781f,0.2556389f,-0.068174303f,-0.22733146f,
-0.19097516f,-0.077143535f,-0.12989075f,0.16763544f,0.26248106f,0.5718683f,0.18636997f,-0.068137534f,
0.45331517f,0.14674899f,-0.012600609f,-0.0208237f,0.52840394f,-0.030915789f,0.32422063f,-0.14119215f,
0.038637165f,-0.30431008f,-0.30237046f,0.25931209f,0.01854668f,0.11666712f,-0.15705742f,-0.14347248f,
0.34162638f,-0.12614435f,0.16713382f,0.027036373f,0.32362145f,-0.18380071f,-0.39483345f,-0.27844194f,
-0.15984517f,-0.047443923f,0.14608669f,0.30388564f,-0.092122249f,0.18260078f,0.38414791f,-1.0654024f,
0.15273647f,0.3700203f,-0.63207066f,-0.25967684f,0.59418547f,0.12310506f,0.15382557f,-0.20383392f,
-0.024423007f,-0.18150482f,-0.12286536f,-0.32786772f,-0.32274663f,-0.065324977f,-0.15145841f,0.1562829f,
0.17766817f,0.090708181f,0.50769651f,-0.19761342f,-0.18376124f,-0.13669436f,0.58025748f,0.17665708f,
-0.023043467f,0.2140523f,0.15270396f,-0.18753155f,-0.1703236f,-0.040968806f,0.41582906f,-0.12674433f,
-0.38297138f,-0.074008361f,0.0039189653f,-0.43209231f,-0.3256698f,0.28508398f,-0.56340909f,0.43378884f,
0.46379128f,0.26854637f,-0.17442037f,0.14336607f,0.079981595f,0.080638193f,0.10257764f,0.10777417f,
0.2232527f,0.043578319f,0.54626751f,0.057024594f,-0.21220353f,0.19803207f,-0.65448731f,-0.29973638f,
0.15169798f,0.086363278f,0.082626142f,0.092698351f,-0.29879981f,-0.019703645f,0.22334014f,0.15172784f,
0.20849428f,0.0063874219f,-0.04471625f,-0.33500746f,-0.05859432f,-0.13352019f,-0.24744344f,-0.46689647f,
0.22748551f,-0.153476f,0.027447829f,-0.086183712f,0.32766178f,-0.23281471f,-0.14808936f,0.21084517f,
0.31770542f,0.093241118f,0.51046509f,-1.047109f,-0.090815321f,-0.83813357f,0.086236335f,-0.24722949f,
0.19772376f,0.21769793f,-0.03466386f,0.31229004f,0.13667893f,0.41352209f,-0.51632142f,-0.28574711f,
0.41374716f,-0.008142191f,0.21213432f,-0.50897884f,-0.29887176f,0.32128271f,-0.40895471f,0.28664866f,
-0.40721279f,-0.19142658f,-0.24178803f,0.67342192f,0.30225766f,-0.025531203f,-0.19071099f,0.2137118f,
0.18918146f,-0.32435226f,0.24755661f,0.063183844f,-0.60065967f,-0.18000673f,-0.19260189f,0.18590331f,
0.11728457f,-0.82700777f,-0.13497379f,0.042979669f,-0.1608337f,-0.36130923f,-0.51767862f,0.10870132f,
-0.21071751f,-0.094232783f,-0.053673409f,-0.37734273f,-0.72755599f,-0.82628602f,-0.1544946f,0.18777354f,
0.53163201f,0.055396926f,-0.29531124f,0.041905485f,0.037855212f,-0.15637983f,0.036521342f,0.10824039f,
-0.33170471f,-0.099956721f,0.17973059f,0.22823359f,0.02820608f,0.34309343f,0.088951841f,0.054178931f,
-0.058343053f,-0.41115412f,0.15726185f,0.19238187f,-0.18760914f,0.24071243f,0.0043302523f,0.039604619f,
0.0031713338f,-0.10541911f,-0.25315025f,-0.48477095f,0.40846363f,0.51007473f,-0.29554853f,0.79860014f,
-0.76477087f,0.035702314f,0.048886966f,0.5165059f,0.093342781f,-0.53660554f,0.070464872f,-0.71398872f,
0.22990048f,-0.54982322f,0.067897119f,0.37065747f,-0.16796349f,-0.10110244f,0.15449856f,-0.0030159759f,
-0.24921292f,-0.40767044f,-0.40525508f,-0.064905971f,0.037020866f,0.10996752f,-0.28002158f,0.096526988f,
-0.25346646f,-0.20937575f,0.42542183f,0.15665732f,-0.15268804f,-0.037399717f,0.011585097f,-0.36650488f,
-0.25925523f,-0.20015424f,0.32663f,-0.096404292f,-0.37032926f,-0.793899f,-0.23938747f,-0.55549479f,
-0.16396943f,0.015333577f,-0.27322587f,-0.0689345f,-0.36706293f,-0.42278531f,0.2161123f,0.49220249f,
-0.10487546f,0.76824188f,0.34032866f,0.03147823f,0.29095408f,0.024944706f,0.051008914f,-0.093521439f,
0.0079523856f,-0.53031594f,-0.76762438f,-0.073521353f,-0.047293253f,0.16178082f,-0.2810097f,-0.52609056f,
-0.35103825f,0.397688f,-0.031870537f,-0.34569219f,0.15454507f,-0.097206153f,-0.22819752f,-0.47248298f,
0.26567066f,-0.14029676f,-5.3502881e-06f,-0.28185415f,0.15061696f,-0.30641353f,0.17875411f,-0.31558821f,
-0.050071087f,0.24586545f,0.17747602f,-0.083526663f,-0.16278788f,-0.097152323f,-0.10250373f,0.15959373f,
0.29451728f,-0.20593633f,-0.4189347f,0.065899655f,-0.50050986f,0.28117797f,0.044141628f,-0.46336553f,
0.27199274f,-0.1994691f,-0.15163463f,0.26738691f,0.1823447f,0.03908151f,-0.090610914f,-0.12364805f,
0.082372092f,-0.21004298f,0.28598398f,0.21923676f,-0.39741209f,0.084030189f,-0.07020627f,-0.19449934f,
0.063803338f,-0.059859194f,-0.091957673f,0.16262285f,0.20803818f,0.13126634f,0.023085998f,0.05612259f,
0.094149791f,0.1175775f,0.011562978f,-0.13564798f,-0.088894621f,0.15486535f,0.20476255f,-0.065575153f,
0.28693387f,0.17153965f,0.082090504f,0.42012683f,-0.94111413f,-0.45027906f,0.17804985f,-0.080966063f,
0.035992648f,0.11075266f,0.33082458f,0.11560058f,-0.22676033f,0.012324848f,0.50939393f,-0.096269071f,
-0.25570837f,0.32447296f,-0.17642377f,-0.091780365f,0.54584777f,-0.36129719f,-0.078547582f,0.1433838f,
-0.14099129f,-0.022974338f,0.15347344f,-0.17316499f,0.1726626f,-0.43591645f,-0.10425881f,0.19328575f,
0.076766834f,0.0025300093f,-0.025288649f,0.09724804f,0.11823782f,0.032994904f,-0.055257633f,-0.078386612f,
0.2645663f,0.23154642f,0.11879386f,-0.075858369f,-0.13386227f,0.090485342f,-0.097031206f,-0.21825339f,
-0.075419955f,-0.01532009f,0.079637781f,0.13673681f,-0.0004985698f,-0.28676081f,0.10408729f,-0.16439891f,
-0.0631437f,0.090064481f,0.0018378532f,-0.021868138f,-0.16606511f,0.057405453f,-0.23772407f,0.095432125f,
-0.28898391f,0.28879741f,-0.38557023f,-0.23712197f,0.18114372f,-0.80320883f,0.1045364f,0.012604091f,
0.12468227f,0.55012554f,0.58122998f,-0.66917288f,-0.70904917f,-0.25643012f,0.13183177f,-0.22706217f,
0.23376916f,-0.037600461f,0.71428502f,0.35238209f,0.10316335f,0.46006247f,-0.70607972f,0.35030177f,
-0.13912286f,0.16406953f,-0.17731564f,-0.022925444f,-0.33461472f,0.42139462f,-0.4203192f,0.31060356f,
-0.31755075f,0.19458066f,-0.045401696f,0.05645236f,0.49023968f,0.041202649f,-0.097591668f,-0.44739026f,
-0.083541647f,-0.69155258f,0.084624514f,-0.56733394f,-0.11585794f,-0.25817737f,-0.057532392f,-0.73660201f,
0.42918381f,0.34435007f,0.17987823f,0.67416942f,-0.2054289f,0.66065109f,0.077736974f,-0.47376171f,
0.34401339f,-0.5241099f,-0.02613372f,-0.51097786f,0.46194932f,-0.18168968f,0.015216698f,-0.57255739f,
-0.82659382f,-0.023341734f,0.047346223f,0.13249299f,0.087625749f,0.17142363f,0.2465966f,0.44084194f,
0.24048457f,0.16584168f,-0.33105704f,-0.15861109f,-0.10714451f,-0.34767848f,0.31604037f,0.37950686f,
-0.27499345f,0.063887164f,-0.52146924f,-0.47429124f,-0.19542849f,0.22002654f,0.31066069f,0.25137404f,
-0.32965967f,0.49300843f,-1.022825f,-0.57320243f,-0.42729196f,-0.66208744f,-0.12014475f,0.40353692f,
-0.39483294f,-0.029871922f,-0.12355842f,0.33717719f,0.52434629f,0.29194441f,0.60882282f,-0.20610903f,
0.25476849f,-1.0155005f,0.022416998f,0.075553104f,0.13555808f,-0.32633609f,0.039739873f,-0.36901376f,
-0.048828233f,-0.12860109f,-0.2140789f,-0.017468598f,0.41050482f,0.65028149f,-0.038962342f,0.32213849f,
-0.53957736f,-0.011394223f,-0.4416312f,0.0072383778f,-0.5406211f,-0.32370636f,-0.60678399f,0.20286195f,
-0.16873415f,-0.28420907f,0.18657167f,-0.12954193f,0.11000077f,-0.068187222f,-0.23403209f,-0.15860635f,
-0.59662509f,-0.069204159f,0.095196784f,0.15038f,-0.38983473f,-0.48485172f,-0.3151125f,-0.53222203f,
-0.13986409f,-0.32178113f,-0.1711549f,0.29033443f,0.06867452f,0.60519958f,-0.051768303f,-0.026187625f,
0.26410472f,-0.15886816f,-0.035838947f,-0.16699125f,0.5328055f,0.36681262f,-0.09161184f,-0.47780848f,
0.0013109599f,-0.41270486f,0.24771142f,-0.027201837f,0.011697675f,-0.35977367f,-0.18471286f,-0.18746807f,
-0.13480473f,-0.15947507f,0.30300671f,0.079436928f,-0.67375761f,0.3806532f,0.11462554f,-0.11050054f,
-0.042042032f,0.6538462f,0.18110231f,0.14412314f,-0.28453413f,0.20928934f,-0.11567957f,0.056833357f,
0.12395225f,0.19457753f,0.16080561f,0.14386371f,0.18047966f,-0.065881856f,0.15483756f,0.057527937f,
-0.00021372989f,-0.22904719f,-0.095220052f,0.0012883391f,0.43178889f,0.28494096f,0.54498708f,-0.23329507f,
-0.54842615f,0.013186922f,-0.068884693f,0.095697954f,0.067151278f,0.04474511f,-0.092872724f,0.23634072f,
0.27837938f,-0.28574762f,0.35236707f,0.32679144f,0.053767346f,0.22149916f,-0.121244f,-0.94029766f,
-0.34493175f,-0.64195079f,-0.80693662f,-0.031904258f,-0.43575594f,0.21900032f,-0.11749975f,0.059157021f,
-0.012179005f,-0.21360919f,-0.04069487f,-0.058276098f,-0.16521423f,-0.14681806f,0.70661992f,-0.092288658f,
-0.28757578f,-0.14882666f,-0.038736746f,-0.35333928f,-0.30424893f,0.36034974f,0.35468227f,-0.078570552f,
0.055390578f,0.26186967f,0.023725685f,-0.66235799f,0.2370685f,-0.7343002f,-0.43611398f,0.5244602f,
0.08806701f,0.29492125f,-0.033843834f,-0.32335249f,0.23414145f,-0.34260085f,-0.048953194f,0.48674253f,
0.021632876f,-0.11988162f,0.15525889f,0.22463043f,0.2337711f,-0.15792122f,-0.076981701f,-0.0086299106f,
0.088190503f,0.069428489f,-0.15334392f,0.0097986525f,-0.2245498f,0.22283317f,-0.25932476f,-0.040431939f,
-0.17450082f,0.065643221f,0.22146748f,0.18858272f,-0.056958731f,0.19195358f,-0.073704563f,0.087736055f,
-0.015463091f,0.32684034f,-0.045492668f,0.034756053f,-0.11932729f,-0.0061571244f,0.091398321f,0.004497251f,
-0.1089443f,0.19663316f,-0.030287225f,-0.84153378f,0.57467204f,-0.9204089f,0.52333379f,0.20616123f,
-0.44054729f,0.45371789f,0.46443185f,0.39890552f,0.1298459f,0.58127952f,0.11699665f,-0.2943556f,
0.070132248f,0.39914027f,0.11598182f,0.19661176f,0.43588448f,0.42654112f,-0.038148429f,0.38364509f,
-0.1581929f,-0.49782768f,0.31972638f,-0.39653739f,0.034627628f,0.31572291f,0.29267013f,0.22063044f,
-0.2659764f,0.44615921f,-0.011588851f,-0.42769513f,-0.63991678f,-0.062871255f,-0.24444234f,-0.23707716f,
0.0083141299f,0.057774723f,-0.35978687f,0.2421519f,-0.27290624f,-0.71618462f,-0.10522253f,-0.084635884f,
0.051686119f,0.19447428f,-0.14678575f,-0.090495393f,0.23247769f,-0.52655464f,-0.42884922f,-0.42024896f,
0.19879702f,-0.20966206f,-0.095395908f,-0.61575139f,0.4298487f,0.012030989f,-0.26238266f,-0.79116762f,
-0.38001668f,-0.34330565f,0.31805491f,0.019616593f,-0.32061672f,0.78160423f,0.46661916f,-0.51314414f,
-0.13959821f,-0.59558374f,0.30062121f,-0.56026745f,0.013658729f,-0.23515236f,0.69942451f,-0.028336557f,
0.31623888f,0.85394216f,-0.14032809f,0.085499845f,0.33935028f,-0.78552711f,0.46906319f,-0.09709157f,
-0.17959465f,-0.44026804f,0.13391982f,0.088154167f,-0.48064971f,-0.68914795f,-0.44131085f,-0.42247996f,
5.7678458e-37f,2.2601926e-37f,5.6531299e-37f,2.4782037e-37f,-1.2828859e-37f,-6.8342739e-37f,2.8409118e-37f,-5.7638177e-37f,
2.2389837e-37f,-3.788116e-37f,-5.3097688e-37f,4.4065604e-37f,-4.5720008e-38f,-5.8902709e-37f,6.0130228e-37f,-7.6082239e-38f,
2.5633305e-37f,2.9710622e-38f,6.8617315e-38f,2.2522422e-37f,2.1985918e-37f,2.5338478e-37f,-1.1092836e-37f,-4.9957272e-37f,
-2.6296061e-37f,-4.9802887e-37f,-5.9386271e-37f,-6.1282257e-38f,6.6142005e-37f,-1.8030962e-37f,2.7582829e-37f,-5.8777197e-37f,
-0.49404222f,-0.22794658f,-0.21438457f,-0.91788471f,0.22857009f,0.3334918f,0.31175873f,-0.56307286f,
-0.41617325f,0.18289934f,0.48086694f,0.51337522f,-0.3195152f,0.31777939f,0.38455215f,-0.06273815f,
-0.28967285f,0.43828756f,0.094310656f,0.31868577f,0.032203551f,0.39705133f,-0.14540559f,-0.029651649f,
0.12485159f,0.054662917f,-0.057334643f,-0.2379463f,-0.70207369f,0.26116359f,0.33434704f,-0.034583148f,
2.6321145e-37f,2.1619934e-37f,5.2777866e-38f,2.7481355e-37f,3.9365348e-37f,1.9181637e-37f,2.4089772e-38f,-1.5375682e-37f,
-6.0370041e-37f,-4.4239997e-37f,-4.6163771e-37f,7.1624849e-39f,-3.0864552e-37f,-2.3889563e-37f,-2.3043728e-37f,1.5058884e-37f,
-6.8371964e-38f,-3.8050724e-37f,3.6446739e-37f,5.8315159e-37f,3.8059414e-37f,3.281828e-37f,-3.7587236e-38f,-9.1658243e-38f,
-1.0540007e-40f,5.7601636e-37f,-6.2316837e-37f,1.2660664e-37f,-1.8934908e-37f,3.28767e-37f,-2.8322531e-37f,1.0037918e-37f,
0.14689703f,-0.22903858f,0.02048685f,-0.024152892f,0.4406468f,-0.77742445f,-0.16003922f,-0.069434471f,
-0.4021906f,0.3416169f,0.12514949f,0.31519005f,0.62323916f,-0.44139722f,-0.25684893f,0.26622489f,
0.33088353f,-0.0037109642f,-0.13580073f,-0.35743475f,-1.3903559f,-0.25069427f,0.19578345f,-0.37831625f,
0.23488444f,0.20495546f,-0.77565229f,-0.0076472815f,-0.096600838f,-0.19780962f,-0.40554026f,0.43953699f,
3.3164163e-37f,4.8089936e-37f,2.8941067e-37f,-5.4816343e-37f,4.8683772e-37f,-2.1483067e-37f,-1.2297453e-37f,2.4182071e-37f,
-1.548386e-37f,-3.3068881e-37f,-5.9392446e-37f,-3.5306757e-37f,-4.8411037e-37f,3.4064494e-37f,-6.5185983e-38f,-3.0154799e-37f,
1.9676831e-38f,1.5416267e-38f,5.1172747e-37f,4.9676793e-38f,-1.3120443e-37f,3.5745483e-37f,1.05368e-37f,4.259563e-37f,
-5.5209868e-37f,-3.7207723e-37f,-4.9318756e-37f,-2.9889186e-38f,-2.8727397e-37f,6.0809773e-38f,-6.2816502e-37f,-1.3329033e-38f,
0.31686449f,0.31975135f,-0.45177612f,-0.064030722f,-0.45602933f,0.30378011f,-0.45447353f,-0.018964984f,
-0.064921342f,0.17000428f,0.67200434f,0.24143472f,0.21262716f,-0.058295425f,-0.08748173f,-0.24958882f,
-0.021277077f,-0.011843142f,-0.00010524668f,0.44517595f,0.028223341f,0.23000965f,0.33342516f,0.19205658f,
-0.30199158f,-0.16499776f,-0.011054734f,-0.24741729f,-0.064766757f,0.53973979f,-0.085198678f,0.036916673f,
-3.0550625e-37f,-2.438886e-38f,5.1856738e-37f,1.1282394e-37f,-3.0374178e-37f,2.2552385e-37f,4.6471721e-37f,4.0933099e-37f,
-4.7556536e-37f,3.6513121e-37f,-2.0365665e-37f,1.4709603e-37f,-2.2555105e-37f,-4.195041e-37f,1.0439938e-37f,2.0054066e-38f,
1.0865676e-37f,-9.2751631e-38f,1.9208941e-37f,-1.0466975e-37f,3.1188473e-37f,-6.3348606e-38f,-7.0393832e-37f,-3.4567338e-37f,
-2.8710292e-37f,8.2685892e-38f,4.2421703e-37f,3.1972492e-37f,5.9996856e-37f,-2.1575624e-39f,-3.0311431e-37f,8.4301342e-38f,
-0.17607857f,-0.62998301f,-0.11896338f,-0.38508961f,-0.54631096f,-0.48507872f,0.045416784f,-0.021852458f,
-0.64654988f,0.1543171f,-0.15362242f,0.010894277f,0.044232719f,-0.0084470194f,-1.2551582f,0.13295284f,
-0.10510975f,-0.30307281f,-0.098199323f,0.16182539f,-0.27383283f,-0.23174489f,-0.11045669f,-0.27742943f,
0.20438114f,0.1042103f,-0.48555303f,-0.54437935f,-0.066503637f,-0.1979951f,-0.87408334f,-0.29591942f,
3.1170447e-37f,-3.1490219e-37f,5.8681026e-37f,-1.5699835e-37f,4.1556836e-37f,-2.036636e-39f,2.8667508e-37f,1.4088767e-37f,
-1.8111166e-39f,5.6648044e-37f,3.0898714e-37f,6.6400315e-38f,4.0227656e-37f,-1.2449102e-37f,2.3058913e-37f,2.1835719e-37f,
1.9710367e-38f,1.5475684e-37f,4.0315083e-37f,6.3195373e-37f,-5.4184299e-38f,6.5094333e-38f,9.6902177e-38f,-6.770572e-37f,
1.838037e-37f,2.3256949e-37f,2.7537829e-37f,3.925519e-37f,2.9105597e-37f,4.5283254e-37f,-2.9249875e-37f,-2.3809505e-37f,
-0.45603076f,-0.4273642f,0.42560834f,-0.49488479f,-0.59725386f,0.19659182f,0.17783673f,-0.047987141f,
0.48991251f,-0.14864112f,0.2545588f,0.35368705f,-0.15726173f,-0.066835158f,-0.52423435f,0.4203347f,
0.17089576f,0.31527358f,0.15594168f,0.46059099f,0.14329734f,-0.36953586f,-0.27507049f,-0.064215779f,
-0.30041644f,-0.032770768f,0.1644215f,-0.41684976f,-0.10947183f,0.025772642f,-0.19299993f,0.52444857f,
7.9581987e-38f,6.0231337e-37f,-3.088973e-38f,-1.3612489e-37f,-5.4734368e-37f,3.1900858e-37f,-8.8378381e-38f,2.8275104e-37f,
6.2430456e-37f,5.7750155e-37f,-1.243667e-38f,2.7075429e-38f,-5.648935e-37f,-3.9003073e-37f,1.566298e-38f,6.1288356e-37f,
6.948966e-37f,-2.7720849e-37f,-5.0584175e-37f,-4.5108434e-37f,3.9883308e-37f,2.1923772e-37f,-3.6857513e-39f,3.7179761e-38f,
-1.0287203e-37f,-5.2722068e-37f,-2.4705381e-37f,-4.9169151e-37f,-5.046695e-37f,1.5432048e-37f,-3.5884792e-37f,-2.5054113e-37f,
0.032448404f,0.10247973f,-0.29530081f,-0.30384445f,-0.31457174f,0.11302857f,0.16025566f,-0.039370749f,
-0.31962004f,-0.16809469f,0.17029335f,0.21295756f,0.41729194f,-0.060863473f,-0.082681917f,0.12740856f,
0.040738899f,-0.25814641f,-0.080723822f,-0.2968725f,-0.4767876f,-0.026899524f,-0.029200606f,-0.11209514f,
0.5881303f,0.39013961f,0.28589034f,0.24457633f,-0.15544967f,0.51820177f,-0.25225896f,-0.10186013f,
1.6244097e-37f,-5.2452023e-37f,-4.9941555e-37f,-1.4443402e-38f,-1.3760944e-37f,-1.5862782e-37f,-6.3489842e-37f,1.7353009e-37f,
5.7683167e-37f,1.5571101e-37f,-1.235269e-37f,4.5450831e-37f,-5.8156761e-37f,5.769313e-37f,-1.6813665e-37f,7.5873591e-38f,
1.1968744e-37f,-6.0808883e-37f,6.9070302e-37f,-4.3606467e-37f,-5.4252429e-37f,-8.1749292e-38f,-1.0277813e-37f,-9.2216728e-38f,
-2.1970427e-37f,1.1743741e-37f,6.2477764e-37f,-3.9650132e-37f,2.9871728e-37f,-2.6842119e-37f,3.2982138e-37f,-5.2099425e-38f,
0.017288644f,-0.18905768f,0.24434046f,-0.18209624f,-0.068421222f,0.089831844f,0.20523168f,-0.29266912f,
-0.43474698f,-0.28440577f,-0.18945503f,0.40683806f,0.16867119f,-0.30141988f,-0.72460175f,-0.33321279f,
0.14939117f,-0.14945258f,-0.20117743f,-0.083865315f,0.016655883f,-0.43106157f,-0.34803823f,-0.40392613f,
-0.44890189f,-0.041624803f,0.009595938f,-0.19764522f,-0.65763235f,0.056252129f,0.025452491f,-0.042949315f,
4.5877404e-37f,1.6861938e-37f,-2.9597289e-37f,-4.3275765e-37f,-1.7160452e-37f,2.771489e-37f,5.7296588e-37f,5.4296181e-37f,
-6.1276822e-37f,4.9847904e-37f,-1.1468607e-37f,-2.2607983e-38f,2.0423353e-37f,5.6503095e-38f,-3.4756139e-37f,4.4112732e-37f,
1.2674869e-37f,8.1702483e-38f,-5.7125078e-37f,-1.1303674e-37f,-6.035905e-37f,8.4127581e-38f,2.3908152e-37f,-7.2655464e-38f,
-6.5858445e-37f,-4.5320218e-38f,-1.7272692e-37f,-4.4032098e-37f,-5.323196e-38f,1.6666782e-37f,5.8175444e-38f,-2.3169275e-37f,
0.040461726f,0.14961937f,0.4363144f,0.30017653f,-0.32985979f,-0.35354924f,0.099961244f,0.099569559f,
-0.27356985f,0.29763138f,0.19919756f,-0.1260832f,0.0056068278f,-0.067717157f,-0.50883561f,-0.014047557f,
-0.20935324f,0.079144031f,0.20459041f,-0.14978623f,0.038933646f,0.14717613f,0.1371114f,0.053340532f,
0.10716967f,0.24508891f,-0.10735567f,-0.44358343f,-0.11863957f,-0.48151779f,0.1452f,-0.15292491f,
-9.3593279e-38f,-4.8106213e-37f,5.0419822e-37f,-3.6681711e-37f,5.1503077e-37f,4.6440201e-37f,1.814777e-37f,4.2758934e-37f,
6.0923789e-37f,1.4685443e-37f,-5.9433462e-37f,-2.0871464e-37f,-5.128117e-37f,-3.2797284e-38f,2.1181868e-37f,-2.58318e-37f,
-2.5033078e-37f,-3.7077124e-37f,1.2138483e-37f,-3.2554921e-37f,5.800721e-38f,-5.7359733e-37f,-8.5220319e-38f,-4.2991803e-38f,
5.1120346e-37f,5.2937666e-37f,3.0921527e-37f,6.2818533e-37f,2.3088323e-37f,-6.4037398e-37f,-6.0872477e-37f,1.7916334e-37f,
0.28877765f,0.21521226f,0.66404164f,-0.21102731f,-0.62650317f,-0.082880326f,-0.00059574819f,-0.22464418f,
0.10905974f,-0.19706708f,0.02926507f,0.18088526f,0.16286023f,-0.11058015f,-0.33911663f,-0.071444273f,
0.24559252f,-0.10780687f,0.23882134f,0.2252395f,-0.11342552f,0.13242407f,0.016949851f,0.24800028f,
-0.19438334f,0.16198811f,-0.089501016f,-0.279589f,0.0021237954f,-0.140784f,-0.66280544f,0.33535942f,
1.6511084e-37f,-4.618073e-37f,6.5187995e-38f,-4.6423637e-37f,-1.7118471e-37f,5.9100895e-37f,1.337373e-37f,-1.3492305e-37f,
-4.3522677e-38f,2.3810653e-37f,5.6035997e-38f,2.1910402e-37f,2.6433426e-37f,-5.6795021e-37f,-6.7763419e-38f,8.4446517e-38f,
3.8119027e-37f,1.0100298e-37f,6.9863997e-37f,5.6966724e-37f,9.9622814e-38f,3.1547237e-37f,-3.5214021e-37f,4.7737212e-37f,
-2.8022516e-37f,1.0867799e-37f,8.7638372e-38f,5.2461386e-38f,4.3069973e-39f,6.1327215e-37f,1.5676852e-37f,4.493212e-38f,
-0.083710715f,0.14768185f,-0.03558052f,-0.10395078f,0.22268219f,-0.12618744f,0.13202766f,-0.16732033f,
0.035171479f,0.2534765f,0.0083811218f,0.44537178f,-0.12238368f,-0.070072614f,0.032272831f,-0.14150468f,
0.036969922f,-0.019597983f,-0.21565396f,0.2491622f,-0.11988987f,0.29166776f,-0.077020317f,0.021532852f,
0.030493466f,-0.17185524f,-0.18089253f,0.41233209f,-0.0072482936f,0.23690614f,-0.70106035f,-0.26485392f,
2.3745341e-37f,-4.0920516e-37f,-1.8967102e-37f,4.1175351e-37f,-4.789166e-37f,-1.0176862e-37f,-2.0756883e-37f,-2.7796981e-37f,
4.6752756e-37f,-9.0649998e-38f,-2.4481061e-37f,9.5700389e-38f,4.6024731e-37f,1.4732624e-37f,-2.024357e-37f,2.5225175e-37f,
-8.6399702e-38f,2.6424287e-37f,1.8335049e-37f,1.3183321e-37f,-4.1841014e-37f,-1.3044703e-37f,-2.6763729e-37f,1.558301e-37f,
-1.053906e-37f,-5.7739703e-37f,-2.2121252e-37f,6.7510121e-37f,4.1354075e-37f,-1.2898775e-37f,-5.0700727e-38f,1.4325711e-37f,
0.12408733f,0.24755085f,-0.14935462f,-0.25145715f,-0.20065238f,-0.24096859f,0.25645831f,-0.0063647428f,
0.10139541f,-0.3936502f,-0.092773557f,0.07403478f,-0.23942757f,-0.24319245f,-0.082698248f,-0.17366832f,
-0.0095721316f,0.1281524f,0.11155032f,-0.080358505f,0.10212578f,-0.38929027f,-0.089757957f,-0.24112447f,
-0.57893771f,0.006449894f,0.048930775f,-0.26195019f,0.1887458f,-0.17843075f,-0.060222667f,0.21185985f,
-6.7216879e-38f,1.8360444e-37f,-1.9264089e-37f,-3.5338523e-37f,1.9777548e-37f,-9.0343887e-38f,-3.1623454e-37f,6.8379231e-37f,
-3.0113182e-37f,-3.2653209e-37f,-5.2046871e-37f,-6.3003975e-37f,-2.3799743e-38f,-5.7831601e-37f,3.9394074e-37f,-5.2700799e-37f,
6.9840173e-37f,2.1927411e-37f,-2.9841536e-38f,4.9596979e-37f,-5.7851116e-37f,-5.8736602e-37f,4.7155559e-37f,6.4106261e-37f,
1.8504617e-37f,-2.161708e-37f,-3.2329998e-37f,-1.1426165e-38f,8.242321e-38f,6.1371936e-37f,-4.8224505e-37f,-3.5078662e-37f,
0.14627269f,0.13533026f,0.14612857f,0.18222828f,0.32684264f,-0.078568555f,-0.009720223f,-0.086402282f,
0.14022048f,-0.45578891f,0.19043198f,0.078788944f,0.14481266f,-0.00098423171f,0.040614307f,0.16068481f,
0.42028761f,-0.58910209f,0.17840859f,0.41368324f,-0.41184628f,-0.15728998f,0.099122018f,0.31149349f,
0.041827936f,0.023291826f,0.093519263f,0.035906851f,-0.17649285f,-0.038439609f,-0.51864713f,0.082748637f,
-2.5968125e-37f,4.6716775e-37f,-4.157879e-37f,2.6313674e-37f,5.3742787e-37f,3.4028486e-37f,-2.6211615e-37f,6.5777342e-39f,
-5.3740563e-37f,-6.1317278e-37f,9.6598566e-39f,-3.2833875e-38f,-1.638222e-37f,-3.0554071e-37f,2.5337732e-37f,3.8457657e-37f,
6.5589745e-37f,-2.1236465e-37f,-4.5216561e-38f,-6.5190521e-37f,-7.1982157e-38f,6.5088112e-37f,1.3375282e-37f,1.4184851e-38f,
5.8695119e-37f,3.0004219e-37f,5.8293312e-37f,-1.3397891e-37f,-4.8107944e-37f,-1.4431604e-37f,-4.8866793e-37f,-6.2512093e-38f,
0.1204318f,-0.045438975f,0.59565324f,-0.49963033f,0.24579789f,-0.14348128f,0.13629122f,0.040504701f,
0.17429815f,-0.24394634f,0.12491015f,0.064704604f,-0.12228533f,-0.73129356f,-0.14010015f,0.0044352338f,
-0.089945018f,0.65214258f,-0.16982098f,-0.60606378f,0.28338626f,0.41721556f,-0.07114394f,-0.25212589f,
-0.54704416f,0.17493759f,0.51379699f,-0.10069584f,-0.36159259f,0.010621835f,-0.070725828f,-0.24825679f,
-3.495554e-37f,-8.0800573e-38f,5.828894e-37f,-2.3461395e-37f,5.122928e-38f,-1.368961e-38f,5.7980013e-39f,-3.0946443e-37f,
1.0768158e-37f,6.118426e-37f,-1.8322837e-37f,-2.0398419e-37f,-1.5878328e-37f,-2.0457639e-37f,1.6958429e-37f,7.2855598e-38f,
-2.9016118e-37f,-4.0616127e-37f,1.9682907e-37f,-1.5486016e-37f,-4.7685164e-37f,1.3961013e-37f,2.6477595e-37f,7.4925702e-38f,
4.9504269e-37f,5.5746433e-37f,1.5638362e-37f,-4.1010706e-37f,-6.5512048e-38f,-1.2497298e-37f,-1.7924497e-37f,2.6697348e-37f,
0.17043211f,0.21391091f,0.026462857f,0.16202864f,0.11107505f,-0.13362511f,-0.04286208f,-0.10227359f,
-0.12102517f,-0.10722695f,0.1340228f,-0.25171906f,-0.20948651f,0.055383332f,-0.064144447f,-0.22444662f,
-0.10661612f,0.16295998f,0.025566945f,-0.06371545f,0.10153596f,-0.14257947f,0.00024371501f,-0.015223309f,
-0.083937004f,0.024870053f,0.094025671f,-0.042861667f,0.10571428f,-0.18250214f,-0.10508791f,0.075680465f,
-1.0105788e-37f,1.1506166e-37f,-2.109288e-37f,1.9115619e-37f,-5.666527e-38f,1.3840198e-37f,-3.8329576e-37f,1.2430114e-37f,
-3.3975475e-37f,-6.2172662e-37f,9.7827897e-39f,-4.5143738e-38f,-2.4415283e-37f,7.4116682e-38f,-6.7184701e-37f,6.52732e-37f,
2.2176467e-37f,-3.0941634e-37f,-7.4873742e-38f,-7.5541198e-39f,-1.0585705e-37f,3.5814969e-37f,2.5211348e-37f,-2.2576999e-37f,
-3.8180843e-38f,4.3645353e-37f,3.0586126e-37f,4.6202972e-37f,-2.2132695e-37f,3.610174e-37f,-2.4101242e-37f,-1.8074579e-37f,
-0.072570667f,0.04813223f,0.43103868f,0.17003293f,-1.0072985f,-0.056531601f,-0.031486142f,-0.16509163f,
-0.2820425f,-0.43118384f,0.4151684f,-0.12663929f,0.46448988f,0.42172042f,0.057321608f,-0.26603591f,
-0.42630765f,-0.98125386f,0.18014555f,0.47195596f,0.19859315f,0.11100822f,0.17766903f,0.51678163f,
-0.48436859f,-0.24224897f,0.020428674f,-0.47324464f,0.19705179f,0.031545889f,-0.55565447f,0.35750875f,
-0.13339093f,-0.43685991f,0.19487272f,0.60407662f,0.088545941f,-0.55419296f,0.36667106f,0.37987539f,
-0.32450604f,0.27146813f,0.58057809f,-0.02413355f,0.037274074f,-0.01155108f,-0.79764873f,0.24277836f,
-1.2396585f,0.31182808f,-0.27960938f,0.16624887f,-0.31021523f,-0.55892909f,-0.0096656345f,-0.79421973f,
-0.077866353f,-0.68116081f,-0.25517523f,-0.36004448f,0.00073556369f,-0.35341051f,-0.25843471f,-0.48405272f,
-0.29494485f,0.27387074f,0.66571313f,0.053173434f,-0.038356259f,0.12274598f,0.20890026f,-0.36807802f,
-0.25039741f,-0.160381f,-0.24653463f,-0.085668415f,0.088896014f,-0.14820503f,-0.042697974f,-0.11178273f,
-0.35105792f,0.41444439f,-0.32938311f,-0.073671281f,-0.12515669f,0.0092677446f,-0.041654486f,-0.20523107f,
1.0218773f,0.24100094f,-0.41447872f,0.060294051f,-0.089403562f,-0.073708571f,-0.17553942f,0.078312762f,
-1.1398951f,-0.236169f,0.47711566f,-0.41606578f,0.48211271f,-0.83101213f,0.054365214f,0.15694453f,
-0.15082367f,-0.53061968f,0.068752937f,0.46380022f,0.16573632f,-0.021151129f,0.17690183f,0.29132119f,
0.13596602f,0.37960362f,-0.09848886f,0.09543696f,0.42343423f,0.0039176717f,0.3949776f,0.12265024f,
0.31075826f,0.057344973f,-0.29023415f,-0.46466723f,-0.14562023f,0.085004508f,0.08524061f,0.046353512f,
-0.44895142f,-0.066658288f,0.44007617f,-0.37034893f,0.078149043f,-0.75742131f,-0.19692861f,0.099802636f,
-0.46069506f,0.064364992f,-0.23952962f,-0.29784945f,-0.23655359f,0.26879436f,0.31702906f,-0.25141129f,
-0.062465027f,0.29319894f,-0.56978315f,-0.27597788f,0.10979608f,0.2039458f,0.51262558f,-0.88407803f,
0.019930834f,0.52925277f,-1.1672007f,-0.27124757f,0.40294367f,0.35898224f,-0.010666794f,-0.23788525f,
-0.29291919f,0.10653389f,0.27212206f,-0.78067756f,0.020202873f,-0.18163301f,0.30311915f,0.41998017f,
0.16706124f,-0.23618183f,0.014273643f,-0.29027987f,-0.46213561f,-0.18111502f,0.13299306f,0.11043702f,
-0.79577976f,-0.52534634f,-0.23324807f,-0.10393994f,-0.031886596f,-0.1805453f,0.27904257f,-0.83431911f,
0.35821205f,-0.071849659f,0.05032941f,-0.10037541f,-0.267557f,0.44846737f,-0.84956968f,0.040609572f,
-0.058052264f,-0.17557128f,0.44723439f,0.35693148f,0.27384809f,-0.069092862f,-0.11770305f,0.060461264f,
-0.61095244f,0.18896317f,-0.16053171f,0.39110962f,0.12824094f,-0.43336794f,-0.31030414f,-0.25090814f,
-0.30056959f,0.60680538f,-0.54236495f,-0.2553229f,0.27509686f,-0.46917871f,0.13057107f,-0.28855738f,
0.23630863f,-0.43416396f,-0.38695106f,-0.094014399f,-0.15649119f,0.18233851f,0.055501111f,0.40697333f,
-0.10435099f,0.092131175f,0.13626596f,-0.014986021f,-0.11465281f,-0.56906539f,0.23918919f,0.15829284f,
-0.4572385f,0.064258538f,-0.19881682f,0.27986357f,-0.0071976529f,0.30722705f,0.04342569f,-0.47326702f,
0.05284429f,0.14117908f,-0.47484949f,0.17107093f,0.0016886221f,0.22356088f,0.17233911f,-0.54958206f,
0.36956692f,0.54078364f,-0.27599469f,-0.022364357f,-0.23406415f,-0.035408594f,-0.37861389f,-0.074252896f,
-0.34583974f,0.18087058f,-0.019573055f,0.65844887f,0.21429765f,-0.0069023478f,0.14080575f,-0.093816027f,
-0.50375921f,-1.0835274f,0.16581874f,0.0023579253f,-0.54976791f,0.17141967f,-0.15267883f,-0.26878634f,
-0.11695598f,-0.18059199f,0.35397315f,0.20477052f,0.45449626f,-0.37977648f,0.53386611f,-0.1669997f,
-0.041896604f,0.097995371f,0.051905215f,0.35080206f,-0.88124853f,0.03561167f,0.27286249f,-0.069853626f,
-0.48794568f,0.25100809f,0.068798058f,0.25981078f,-0.14712419f,-0.095978513f,-0.48497087f,0.22378184f,
-0.06392286f,-0.090491131f,0.4944697f,-0.18056226f,-0.47868007f,-0.097797364f,0.14615388f,-0.21398172f,
0.11379309f,0.13738473f,-0.48476869f,-0.14144818f,-0.38875329f,-0.061367888f,0.32509798f,-0.17153318f,
0.41914001f,0.19433829f,0.53686845f,0.10824003f,-0.24227796f,0.01028239f,-0.80258745f,-0.034473173f,
-0.67579287f,-0.0069021424f,0.31789407f,0.47105202f,-0.24466684f,-0.14784138f,0.37867713f,0.14374444f,
0.21665382f,0.37401211f,0.43755451f,-0.28896964f,-0.35488775f,-0.27191418f,0.34103802f,-0.3777197f,
0.32390633f,0.17281803f,0.32567504f,0.18846127f,-0.43234918f,0.1197649f,0.29077041f,-0.12392206f,
0.13096224f,-0.043558743f,-0.19413756f,-0.46859732f,0.003529483f,0.09984877f,-0.67567706f,0.045557469f,
-0.17397982f,0.12068764f,-0.21848351f,0.1616344f,0.34387255f,-0.57184315f,0.36783412f,-0.22629234f,
-0.092166774f,0.31002516f,0.038103845f,0.16984344f,0.11049511f,0.024226008f,0.02030278f,0.29304916f,
0.092535868f,0.09486267f,-0.1696585f,0.12692557f,-0.40757385f,-0.04313593f,0.04848668f,-0.001154401f,
0.1583565f,0.084290646f,-0.095462866f,-0.067663752f,-0.11347076f,0.38579151f,-0.39588144f,0.08601243f,
0.019947996f,0.53596109f,0.22934742f,0.42045566f,0.3697589f,0.10812188f,0.12523308f,-0.073083214f,
0.0054120733f,0.25654945f,0.69806612f,0.17510748f,-0.26849198f,0.14389899f,-0.097931273f,0.025605001f,
0.14268169f,0.26251507f,0.068397611f,-0.092947356f,0.39472815f,-0.1301195f,0.45106074f,0.17046997f,
0.56999969f,-0.36082524f,0.5449782f,0.17776462f,-0.083591506f,0.11971018f,-0.69421762f,-0.047255076f,
-0.29627338f,0.026021698f,0.16032806f,0.090300858f,-0.11828014f,-0.12362534f,0.45889026f,-0.19734173f,
-0.076182045f,-0.48894557f,0.37052104f,-0.38496849f,-0.54294556f,-0.23104382f,0.20610859f,0.12080534f,
-0.33034742f,-0.44069147f,0.070743412f,0.10169686f,0.15931381f,0.038971685f,-0.033515524f,0.38176599f,
0.36122471f,0.49280673f,-0.10514846f,0.13242744f,-0.21841961f,0.16549316f,0.36570382f,0.37044045f,
0.31710133f,-0.035147078f,0.04072728f,0.52435005f,0.014966588f,0.087850727f,0.5096547f,0.076645963f,
-0.11362937f,-0.2106799f,-0.13905752f,0.20687948f,-0.03332242f,0.35527757f,-0.078147165f,-0.61431444f,
-0.64948982f,0.097178474f,-0.58199579f,0.053695012f,-0.16467939f,-0.50311601f,-0.055780571f,-0.38834056f,
-0.087595567f,0.35441881f,-0.02643034f,0.012144336f,0.076089807f,0.21791789f,0.59887362f,0.27150363f,
-0.45303613f,0.14045443f,-0.064631514f,-0.089635193f,0.00038549327f,-0.27010682f,0.22447297f,-0.19067442f,
-0.22895284f,-0.1056181f,0.34944567f,-0.013547353f,0.33176839f,-0.18349595f,-0.052214127f,-0.0072398484f,
0.063950248f,0.14110559f,-0.45486495f,-0.032406233f,0.19094095f,0.065668173f,0.41522646f,-0.35675541f,
0.16357845f,0.00370599f,0.3555643f,-0.8896789f,-0.26167262f,-0.15831524f,0.33894867f,0.67295939f,
-0.12853368f,0.37189111f,0.42086014f,0.11699953f,0.09277416f,-0.23412263f,-0.016699929f,-0.083903454f,
0.36802796f,-0.010075144f,0.64895219f,0.24584071f,-0.27871221f,-0.25404048f,-0.042015612f,-0.067935616f,
0.341883f,-0.17558517f,-5.7049852e-05f,0.0022193154f,0.28066784f,-0.42806444f,-0.33041093f,-0.22743131f,
0.13822266f,0.068930313f,0.15473902f,0.011795803f,-0.1725129f,0.47855249f,0.22373539f,-0.11633765f,
-0.27468634f,0.077278651f,0.50319213f,0.11427336f,0.15676384f,-0.079601049f,0.25031722f,0.019221248f,
-0.5814563f,-0.3219035f,-0.17215434f,-0.20065373f,0.11970317f,0.14436539f,0.032894928f,-0.032899003f,
-0.15464346f,-0.028652476f,-0.36197811f,0.039031647f,0.050128587f,-0.058915503f,0.11104211f,0.16131894f,
-0.082837448f,0.059229132f,0.21849968f,-0.21655297f,-0.29139745f,0.25100991f,-0.17949863f,0.2035742f,
0.010685964f,0.10444263f,0.15036964f,0.031404912f,0.0890605f,0.09691266f,0.13102785f,-0.16732258f,
-0.002659709f,0.35604125f,0.074165538f,0.28431109f,-0.18779168f,-0.25425199f,0.43376604f,0.0096893031f,
-0.33696929f,0.16282374f,0.032899939f,-0.070777282f,-0.52821267f,-0.39818457f,0.056681056f,0.022872377f,
0.4248082f,0.47051197f,0.1802756f,0.47253132f,0.14599444f,0.39594465f,-0.074616164f,0.25348741f,
-0.27146307f,0.28769013f,0.0020622048f,0.23044634f,0.10517678f,-0.067615189f,-0.013791655f,-0.20314424f,
-0.16905043f,-0.16993465f,0.14522025f,0.063845254f,-0.14315739f,0.067595378f,-0.17415272f,0.060364712f,
-0.20111904f,-0.16136612f,-0.0268162f,-0.16233151f,0.085806563f,-0.12263784f,-0.0041003111f,0.11743898f,
0.18171993f,0.21061669f,-0.026447274f,-0.10641192f,-0.17332368f,0.068619519f,-0.092994355f,0.16280055f,
-0.74129957f,0.23871821f,-0.0052228947f,-0.29381999f,-0.2189835f,0.28659251f,0.40484554f,0.19035663f,
-0.073162422f,0.37473992f,-0.099677913f,0.64030063f,-0.19405705f,0.27439815f,0.49606943f,-0.17004241f,
-0.18494409f,0.4089931f,-0.14389208f,-0.084622703f,-0.17825754f,-0.83332306f,0.29109237f,0.17513207f,
0.22976114f,-0.58781534f,-0.43132073f,0.013866472f,0.036612131f,-0.13872732f,-0.64602023f,0.488107f,
-0.098376036f,0.27070773f,0.53032374f,-0.35491803f,0.22762634f,0.25072479f,0.29634652f,-0.098617971f,
-0.55584937f,-0.19564551f,0.32380617f,-0.20103858f,-0.23290752f,-0.12827633f,-0.48668525f,0.018265272f,
0.13664801f,0.12462257f,0.27406573f,0.087449037f,-0.98247808f,-0.12323818f,0.082475185f,-0.33490494f,
0.33963299f,0.061548814f,0.38140765f,0.51711935f,-0.6256898f,0.10503067f,-0.60748529f,0.13600785f,
-0.1038564f,0.13531764f,0.28245136f,0.39464462f,0.40608627f,-0.56109416f,-0.0081436066f,0.13492283f,
-0.16020058f,0.23029509f,0.34577414f,0.3150962f,-0.19498961f,0.22755927f,-0.2802037f,-0.11680663f,
0.0019046261f,0.092640929f,-0.055373572f,-0.062043875f,0.259799f,-0.25120094f,0.44138089f,0.1920269f,
0.075952195f,-0.065599628f,0.37003377f,-0.35048366f,0.056810863f,-0.070081875f,0.45646694f,0.46116796f,
-0.060726959f,-0.11229132f,0.17525803f,0.082566775f,0.051546466f,0.0036336733f,0.12841618f,0.017891772f,
-0.13818347f,-0.22263804f,0.10305062f,0.18863195f,-0.20982894f,0.043964311f,-0.16652034f,0.01378388f,
-0.25403121f,0.17208205f,0.11902441f,-0.022820847f,-0.11811466f,-0.095289432f,-0.059292138f,9.2143018e-05f,
0.33899409f,0.12425591f,0.0056370357f,0.08704742f,-0.043938916f,0.17162374f,-0.13624041f,0.060109511f,
-0.54805785f,0.27812117f,-0.022925666f,0.33011371f,0.18948276f,-0.32276487f,-0.12620623f,-0.11705545f,
0.045911193f,0.12645838f,-0.31121963f,0.29733866f,0.085427366f,-0.029102884f,-0.20038058f,-0.023347599f,
0.0040979018f,0.049606636f,-0.058937393f,-0.57598776f,-0.23981871f,-0.14329121f,0.050697733f,-0.28647962f,
0.34876183f,0.033008967f,-0.40801564f,-0.083499983f,-0.19237252f,0.22669004f,-0.034491479f,-0.082005501f,
-0.15688124f,-0.042964756f,0.4669278f,-0.17217095f,0.41533303f,-0.46832177f,0.26499629f,0.021954566f,
-0.68170387f,0.10168404f,-0.28809392f,-0.17429967f,-0.087134115f,0.19302775f,-0.10705659f,-0.24555251f,
0.056081381f,0.10034401f,-0.22559537f,0.235292f,-0.26065195f,-0.048921145f,0.13929248f,-0.0081717586f,
0.27268481f,-0.4944489f,-0.14586459f,-0.02360365f,-0.39602187f,0.13104598f,0.28072289f,0.088626459f,
0.13980249f,0.42861888f,0.61450469f,0.093297094f,0.16714641f,0.18264884f,0.44369778f,-0.30812791f,
-0.30750775f,-0.13422057f,-0.36355248f,0.11520408f,-0.31159848f,-0.011994838f,-0.42879257f,-0.52673757f,
-0.30778962f,0.18207213f,-0.3115221f,0.20486276f,0.38859969f,-0.14624543f,-0.46575585f,0.04410477f,
0.0017582168f,-0.19285309f,0.80265301f,-0.52439475f,0.2051391f,0.38810271f,0.51044023f,0.022574348f,
-0.59620804f,0.02057207f,-0.44774967f,-0.14128983f,-0.039690424f,-0.077004269f,0.089559644f,0.27854207f,
-0.87354004f,0.011449645f,0.021751992f,-0.051077273f,-0.39436513f,-1.2490085f,0.17749338f,-0.40482545f,
-0.011394454f,0.34427238f,-0.14033942f,-0.074354813f,0.094766565f,-1.3406215f,0.073571846f,0.0024558352f,
0.36875895f,0.24273817f,-0.071162678f,-0.82460582f,-0.15999381f,0.03176789f,-0.34973043f,-0.45183986f,
-0.044384185f,-0.53468448f,0.31871554f,0.37340289f,-0.0099570155f,0.042264342f,0.21477284f,0.23403016f,
0.32353681f,-0.025881637f,-0.11081786f,0.026502872f,-0.16749775f,-0.27545118f,-0.10212105f,-0.067748331f,
-0.56138527f,0.11868791f,0.19160523f,0.038731407f,0.17572987f,0.016445993f,0.3397533f,0.061169043f,
0.32203242f,0.03837838f,-0.1142364f,-0.13745272f,0.0012818506f,0.44131619f,-0.31037375f,0.27187961f,
-0.23031516f,0.31141725f,0.046786226f,0.16216567f,0.098238431f,-0.032700937f,0.096759118f,-0.14914411f,
-0.047142435f,-0.095406882f,-0.010450495f,0.023715744f,-0.27871716f,0.0049965489f,0.010322601f,0.034480207f,
-0.13884637f,0.14122383f,-0.08432623f,-0.079192169f,-0.021950217f,-0.072731562f,-0.031257473f,0.048933715f,
0.17593928f,-0.088215686f,-0.031169154f,-0.039091572f,-0.17707424f,-0.028665313f,-0.17679264f,0.17565376f,
0.30039185f,0.065138876f,0.65946269f,0.099369809f,-0.015456333f,-0.40428355f,-1.1913427f,-0.22059901f,
0.36987177f,0.17937107f,0.15468994f,0.3261745f,-0.21806945f,0.28617814f,0.34710726f,-0.31840047f,
0.043721169f,0.34316942f,-0.073185101f,0.17181493f,-0.081591591f,0.092109077f,0.31116089f,0.23229225f,
0.58887988f,0.20184106f,0.13813712f,0.4926146f,-0.22339427f,-0.10983726f,0.20685877f,0.24322653f,
-0.035989754f,0.12982053f,0.12849022f,0.24008276f,0.15824203f,-0.10877881f,-0.15401295f,-0.11187201f,
-0.10568089f,-0.7099793f,-0.15063208f,-0.1874813f,0.18166621f,-0.33718467f,-0.22369266f,0.25845698f,
-0.26029661f,-0.30300081f,-0.17675336f,0.24124341f,0.18064262f,-0.10267664f,0.21308494f,-2.6209026e-37f,
-0.13573287f,-0.086703844f,0.50824267f,0.15244335f,0.18533783f,0.13689663f,0.38336816f,-0.33750361f,
-0.39604452f,-0.3829934f,-0.15229531f,0.25157589f,-0.18021908f,0.14430931f,-0.040165149f,-0.73484439f,
0.21037059f,-0.59554988f,-0.069872089f,0.064700685f,0.10430308f,-0.81447333f,-0.052501243f,0.11447295f,
0.17400904f,-0.18208854f,-0.21515186f,-0.029926037f,0.0024090789f,-0.10085521f,0.33549559f,-0.18112348f,
-3.0254761e-05f,0.22226773f,0.75964862f,0.33186117f,0.45045689f,0.35910967f,0.46641293f,-0.29125553f,
-0.1267775f,-0.35103849f,-0.34811068f,0.27480009f,0.37836736f,0.09406276f,-0.17225043f,0.31724808f,
0.10717813f,0.6528092f,0.45700434f,0.24316081f,0.15148215f,-0.36620748f,0.16924596f,-0.036741912f,
-0.29912049f,-0.22334251f,0.40683067f,-0.33506575f,0.46053037f,0.35315958f,0.063808039f,-0.21202315f,
0.073061414f,0.16367558f,-0.31102327f,-0.21476921f,-0.082131848f,0.10271673f,0.63573575f,0.43014988f,
0.3103146f,-0.19280343f,-0.10207963f,0.22013806f,0.26973686f,-0.010191336f,0.19878778f,0.14773601f,
-0.9110775f,0.35837239f,0.58813387f,0.26235014f,-0.056070179f,-0.0017365473f,0.34857956f,-0.14963827f,
0.18199101f,-0.63657862f,-0.47907135f,0.26545346f,-0.034581337f,0.06652198f,-0.28402212f,-0.27912068f,
0.25403082f,0.23975188f,-0.31786031f,0.1101782f,0.42907938f,0.24309257f,-0.56308973f,-0.051281732f,
0.13218606f,0.31650686f,0.14634326f,0.43827349f,0.32448083f,-0.15132365f,0.14528078f,0.1873531f,
0.32576334f,0.24952924f,0.22655809f,0.42549399f,-0.50143909f,0.20343617f,0.80124575f,0.84895921f,
0.087661691f,-0.46429825f,0.19112802f,0.57715839f,0.22970985f,0.29809684f,-0.010632791f,-0.34912208f,
-0.87982118f,0.24770555f,-0.35771289f,0.075395159f,0.11288545f,0.046438456f,0.46911004f,0.22692093f,
0.0090315752f,-0.051627949f,0.11451372f,-0.0071291188f,0.40242609f,-0.17309467f,-0.348254f,-0.21604489f,
0.12711477f,0.32023054f,0.19814663f,0.079368398f,0.15251394f,-0.19956799f,-0.56546181f,0.31711963f,
3.8850518e-05f,-0.2587958f,-0.14161494f,0.17410056f,0.53215963f,0.073966406f,0.043924462f,0.025995973f,
-0.19257987f,-0.14407969f,0.92554247f,-0.061871819f,-0.014693032f,0.20559375f,0.33209294f,-0.20810564f,
0.1644025f,-0.069600552f,-0.40269253f,0.19162725f,-0.1510231f,-0.70350212f,0.036967482f,-0.08265084f,
0.049956013f,-0.75706291f,-0.27406392f,-0.48060033f,0.15132385f,0.45821816f,-0.36353853f,-0.16720594f,
0.17444141f,0.01965896f,0.11371662f,0.040167339f,0.10209621f,-0.49314147f,0.020328602f,0.49010074f,
0.28571004f,-0.27648216f,0.0054626018f,-0.14699127f,-0.33734927f,-0.08812587f,-0.19351104f,-0.36542639f,
0.22329344f,0.020312535f,0.040903766f,-0.063763075f,-0.62729657f,0.21348055f,0.49643841f,-0.010494781f,
-0.23745216f,-0.7460416f,0.15238672f,-0.042362109f,-0.91657883f,-0.28036737f,0.29869583f,-0.12606552f,
-0.10480158f,0.18171188f,0.23936138f,0.028369075f,-0.10343315f,0.17263688f,0.45482484f,-0.53085029f,
0.28291246f,-0.2696301f,-0.011246686f,0.26656622f,0.15262388f,0.0033912677f,0.29664591f,-0.048892092f,
0.18878759f,0.23203765f,0.09422943f,0.12703085f,-0.26252198f,-0.11879107f,0.024890564f,-0.21532507f,
-0.16177411f,-0.038113479f,-0.083416678f,-0.19641382f,0.051838864f,-0.21015266f,-0.10606729f,-0.31757349f,
0.14018618f,0.37062219f,0.011001804f,0.0154885f,0.29252645f,-0.035105307f,-0.58510029f,0.16614702f,
0.14704345f,0.10668343f,0.2042504f,0.10466634f,0.26435897f,0.29620937f,0.36024013f,0.45258892f,
0.43222398f,-0.23943235f,-0.9362061f,0.38972721f,0.55131924f,0.059116211f,-0.01721142f,0.24349298f,
0.40361768f,0.27766848f,-0.68797189f,0.15478425f,0.047448054f,-0.35794491f,0.18285544f,0.27783605f,
-0.11286159f,0.2943773f,0.14263438f,-0.66122282f,0.090191945f,0.56280541f,0.19049202f,-0.51277256f,
0.59822279f,0.38432547f,-0.072890997f,-0.078389794f,-0.36460066f,0.13970752f,0.37530988f,-0.1065563f,
0.28838676f,0.091991618f,-0.10869329f,0.49542066f,0.12768996f,0.25249606f,-0.04574072f,0.050402693f,
0.19331382f,-0.81295985f,0.16514832f,-0.13756068f,-0.63407683f,-0.36643246f,-0.15874596f,0.10728664f,
0.35636288f,-0.3283276f,0.065795444f,0.10835338f,-0.22590531f,0.28569698f,0.13859978f,0.19991139f,
0.12424619f,0.12392238f,0.36465329f,-0.99598825f,-0.022946227f,0.080807656f,0.32860848f,-0.8885138f,
-0.18898344f,0.0178141f,-0.22381067f,0.28138036f,-0.501351f,-0.23258178f,0.071898811f,-0.26540053f,
-0.32258713f,-0.11335102f,-0.14070182f,-0.054587208f,0.085651986f,-0.26748073f,0.1209677f,0.020530585f,
-0.36651248f,0.42679024f,0.22250278f,0.40070066f,0.37170571f,-0.52547175f,-0.25179005f,0.12744753f,
-0.4800337f,0.045273583f,-0.29606462f,0.35998818f,0.054792874f,0.28633118f,0.34752733f,-0.11054263f,
-0.12314083f,0.35527796f,-0.047324937f,-0.055925354f,0.43548793f,0.14031641f,0.17838357f,0.1892681f,
0.13036858f,0.33141434f,-0.47158051f,0.44227323f,0.012253474f,0.081231922f,0.16214238f,-0.17518826f,
-0.19682565f,0.56020653f,0.35858163f,-0.02156586f,0.11164414f,0.1968246f,-0.16443081f,0.07185857f,
-0.13025413f,0.090797052f,-0.83233857f,0.2327542f,-0.013899021f,0.039167739f,0.20291615f,-0.084515803f,
0.36226436f,-0.093698822f,0.012374243f,-0.38333198f,0.25391859f,0.14226529f,0.11126965f,-0.049053073f,
0.0996686f,0.268287f,-0.14143959f,-0.13152781f,-0.049149808f,-0.29645619f,0.043666329f,0.16953525f,
-0.40999925f,0.36829239f,-0.46792877f,0.084774509f,0.043064449f,0.16526257f,0.44999373f,0.65384549f,
0.046954427f,0.34078962f,0.41732264f,0.17876443f,-0.060190916f,0.069762841f,-0.307596f,0.17916121f,
-0.31153166f,0.2797173f,0.42422158f,0.45742261f,-0.18727845f,0.024594849f,-0.29321176f,0.2015699f,
-0.05262221f,0.27679855f,-0.057873961f,0.051537033f,0.16371904f,0.5225206f,0.66144168f,0.40703586f,
0.14609595f,0.59456253f,0.15059452f,-0.26104113f,-0.40192768f,-0.041728728f,0.26240024f,0.16209011f,
0.071281068f,-0.087844871f,-0.76260769f,0.27985162f,0.048986685f,0.35385668f,-0.15649408f,-0.35499373f,
-0.35390612f,-0.090421885f,-0.084795192f,0.39207458f,0.46588475f,0.44479552f,0.055538628f,0.024625793f,
0.34869444f,-0.54840571f,0.074787803f,0.47024885f,0.1420771f,0.070231237f,0.23831907f,-0.13315411f,
0.1748772f,-0.28047255f,0.026566254f,0.23509279f,0.24530007f,-0.26993838f,-0.0053195478f,0.19635302f,
0.039038904f,0.52408451f,0.057547957f,0.15509811f,0.048209932f,-0.34764671f,0.31118396f,-0.79068893f,
-0.13528194f,0.038449161f,-0.26072463f,-0.16618405f,0.44258991f,0.1927992f,0.10153331f,0.19385417f,
0.083475731f,-0.2661382f,-0.27199337f,0.084047146f,-0.31240109f,-0.36833701f,-0.32862514f,-0.099768132f,
0.21358423f,0.24757165f,0.11134042f,-0.27003539f,-0.21232092f,0.20005564f,-0.15425482f,0.31313238f,
-0.48190048f,0.20806436f,-0.066201314f,-0.276126f,0.16728124f,0.27117315f,0.12583196f,-0.22561102f,
-0.32712498f,0.14538419f,-0.11553028f,0.37431136f,-0.35062668f,-0.035595149f,-0.24669085f,0.054218683f,
0.23181905f,0.1304463f,0.02562332f,-0.0070270193f,0.065443918f,-0.2846733f,0.010724655f,-0.034333825f,
0.24814393f,-0.17776234f,0.31955227f,0.37020421f,0.074453779f,-0.66869396f,-0.10384822f,0.20066984f,
-0.13311774f,0.4107036f,0.19163321f,0.11595005f,-0.39864776f,-0.13590044f,0.070165351f,-0.11657405f,
-0.28274423f,-0.49919128f,0.038135462f,-0.16045327f,0.12322177f,0.10098876f,0.0059905993f,0.14225388f,
0.26776218f,0.066708758f,-0.0073401509f,0.045665532f,0.093329132f,0.23253374f,0.038188793f,-0.20701689f,
0.1420209f,-0.23284326f,-0.10403825f,-0.3470673f,0.016777586f,-0.052022886f,0.31969163f,0.35644901f,
0.022877684f,0.35733449f,-0.093943268f,0.25832275f,0.17845669f,0.21550326f,-0.035259526f,0.074837804f,
0.36414549f,0.092122674f,0.26423523f,0.081534199f,-0.23132995f,0.14171834f,-0.013442111f,0.1614393f,
0.35328388f,0.052789994f,-0.082097679f,0.44432971f,0.31755862f,0.47207046f,-0.065334685f,0.13520598f,
0.28478521f,0.10375649f,0.050647356f,0.097309969f,-0.15043104f,-0.25660223f,-0.053456403f,0.65187943f,
-0.07661695f,0.58268905f,-0.20774484f,0.058308829f,0.089105174f,0.14180891f,-0.28729972f,0.20453154f,
0.27414206f,-0.13993844f,-0.57658488f,-0.16876341f,-0.10336228f,0.027891487f,0.11917284f,-0.12389626f,
-0.49021372f,-0.072925925f,0.21837881f,-0.31978011f,0.031521913f,-0.40009063f,-0.059796993f,-0.38561782f,
0.53877026f,0.67441165f,0.13920626f,-0.27038652f,-0.8002283f,-0.1119356f,0.10452411f,-0.28974292f,
0.0699284f,0.49217358f,-0.269456f,-0.038944833f,-0.092372432f,-0.55142266f,0.47466841f,-0.16205923f,
-0.077382095f,0.29664913f,0.016854644f,0.11345562f,0.33472693f,0.18165158f,-0.098146446f,0.062479381f,
-0.19718628f,-0.14723915f,-0.11066735f,-0.21686745f,-0.66538972f,-0.31471053f,-0.13367659f,0.077373751f,
0.20693447f,-0.056225237f,0.27177814f,-0.16627027f,0.18296163f,-0.062462676f,-0.092651725f,0.032849498f,
-0.14374311f,0.083358444f,-0.22428246f,-0.092832357f,0.1560178f,-0.069261633f,-0.081137694f,-0.23431247f,
-0.07824944f,0.11207214f,-0.9578898f,-0.066278934f,-0.08075314f,0.13257934f,0.059113413f,-0.018865876f,
-0.25867695f,0.0066490071f,-0.30693239f,-0.20351933f,-0.19848135f,-0.065279976f,-0.25318536f,0.0019024358f,
0.29699406f,0.1736511f,-0.25330186f,-0.18656535f,-0.11456243f,-0.0092037497f,-0.13048171f,0.137703f,
-0.13900724f,0.15783682f,0.15480216f,-0.036535569f,0.16879649f,0.015846822f,-0.16339849f,0.24011143f,
-0.077650294f,0.075855993f,-0.14673272f,-0.23092161f,-0.046713568f,-0.18645297f,-0.042079307f,0.10485558f,
0.11047948f,-0.14228846f,0.29402602f,-0.048249483f,0.048052106f,-0.058206558f,-0.12980279f,0.092583768f,
0.2177023f,-0.34919623f,-0.15648754f,0.22506876f,0.23832497f,0.11030371f,0.16894843f,0.088145442f,
0.13691428f,0.081506096f,0.017451741f,-0.15604715f,0.099387139f,-0.041966833f,0.049757481f,-0.11190226f,
0.05069517f,0.026265539f,0.26428246f,0.17448664f,-0.19062866f,0.064144649f,0.078701019f,0.08562436f,
0.17506462f,0.13965508f,-0.070943326f,0.010999423f,0.1068817f,0.17148428f,0.086849689f,-0.093193546f,
-0.35964718f,0.005146041f,0.056952801f,-0.23711318f,-0.43099239f,0.085129634f,0.14999832f,0.091461152f,
0.12771586f,-0.058161732f,0.075985931f,0.11873718f,-0.040596556f,0.029338719f,0.070064306f,0.0966058f,
0.1962927f,0.60195404f,0.15590303f,-0.092323266f,0.39029253f,-0.028498635f,0.43480721f,-0.1613865f,
0.19072071f,-0.31332844f,-0.45021784f,0.28862762f,-0.042772125f,-0.28211561f,-0.16642553f,-0.015713885f,
0.39799356f,0.20602371f,0.12886988f,-0.44696903f,-0.33598611f,0.3198263f,-0.23513052f,0.05364481f,
-0.088713147f,-0.016643733f,0.022649154f,-0.22090843f,0.22321226f,-0.47401842f,0.30102643f,-0.32009679f,
0.48942763f,-0.16586305f,-0.019069673f,0.475265f,-0.16390269f,0.38231626f,-0.0088058924f,0.31083253f,
-0.092601493f,0.28080085f,-0.34966317f,-0.11783294f,-0.33520722f,-0.30913633f,-0.10899984f,0.063600563f,
-0.11911345f,0.12539487f,-0.31544858f,-0.0033138955f,-0.14727688f,-0.093476787f,-0.39682302f,-0.79010361f,
-0.25708786f,0.60415012f,0.26084045f,0.34453744f,-0.26275143f,-0.095857844f,-0.85917503f,0.0046902411f,
-0.24608698f,-0.050755728f,0.31466797f,-0.27802369f,0.27576447f,0.27223247f,-0.06475842f,0.025611443f,
0.0023924247f,0.10942245f,0.10917094f,-0.17910302f,-0.37380254f,-0.17490463f,-0.52037925f,0.0075549535f,
0.10167342f,-0.13594808f,0.0075478624f,-0.0038038269f,0.3342618f,0.16795309f,-0.13304569f,-0.40795046f,
-0.23830673f,0.080097049f,0.24298435f,0.055725764f,0.21979891f,-0.10638506f,0.015577399f,0.1714782f,
0.068156913f,-0.11311276f,-0.23011643f,0.13470982f,0.12208501f,-0.062563278f,0.085612394f,-0.017210193f,
-0.045500841f,-0.026451852f,0.12893233f,-0.055695862f,0.16513908f,0.25512838f,-0.14345206f,0.13853779f,
-0.1145572f,-0.051587082f,-0.13679487f,0.14228041f,-0.0073051015f,0.22222003f,-0.0080039073f,0.061771419f,
-0.091525063f,-0.075930893f,0.047914658f,-0.093164876f,-0.21832556f,0.041963242f,-0.033555578f,0.18749458f,
-0.023459883f,0.04511141f,0.12298002f,-0.013973746f,0.01774862f,-0.020749323f,0.12940861f,0.08892528f,
-0.11729173f,0.0090417461f,0.11892761f,0.12941638f,0.058620125f,0.019157451f,0.21857372f,-0.066182241f,
-0.014589162f,0.061115056f,0.00033055837f,0.038483039f,-0.030878447f,0.18071035f,-0.0066181845f,-0.21489365f,
0.087859772f,-0.16043922f,-0.0092466334f,0.020274196f,0.039013684f,0.079663202f,0.11083759f,0.0068203518f,
-2.112963e-37f,6.304297e-37f,-1.7436284e-38f,-5.0795688e-37f,5.9717814e-38f,4.6703116e-37f,3.6304531e-37f,5.5040676e-37f,
5.8037601e-38f,7.8750698e-38f,-3.7207322e-38f,2.5939985e-38f,-4.996199e-37f,-1.7337322e-37f,3.4968078e-37f,-2.5836011e-37f,
-2.9113417e-37f,-2.5360718e-37f,-2.8231552e-37f,5.2338977e-37f,5.7947454e-37f,3.1833317e-37f,2.7462553e-37f,-9.6638889e-38f,
6.4139798e-37f,1.1726134e-37f,1.1738981e-37f,-1.8460356e-37f,-4.8943303e-38f,1.6972298e-37f,4.9773036e-37f,4.6193331e-37f,
3.6127214e-37f,-4.3826411e-38f,2.5094439e-37f,6.2256637e-37f,1.3351621e-37f,-5.7041905e-37f,-2.6695778e-38f,5.7871205e-37f,
-3.1642283e-37f,4.6731645e-37f,5.6743315e-37f,1.8482659e-37f,4.8487169e-37f,-2.6282832e-37f,5.9950306e-37f,-2.0403838e-37f,
-2.8850859e-37f,2.303493e-37f,1.8934975e-37f,-3.3576019e-37f,2.4952866e-38f,2.4589954e-37f,-1.2892977e-38f,-3.4098643e-37f,
3.2017589e-37f,1.8488384e-38f,2.7847585e-37f,4.9345903e-37f,-3.643741e-37f,-1.7469006e-37f,2.9232595e-37f,5.5845425e-37f,
-4.9712182e-37f,5.8834478e-37f,1.0212742e-38f,-4.3940469e-37f,-2.18077e-37f,-2.9323693e-37f,-4.9345338e-37f,-3.8527789e-37f,
1.950764e-37f,-4.1541482e-37f,-3.8107471e-37f,1.8608274e-38f,-1.8298464e-37f,-1.2688547e-37f,-1.8201286e-37f,-3.7738882e-37f,
-9.2536067e-38f,-9.0041644e-38f,-5.726827e-37f,1.8362409e-37f,-2.5124844e-37f,-4.7181387e-37f,-5.4627735e-37f,2.3384066e-37f,
2.0770405e-37f,-4.1940123e-37f,-6.0667497e-37f,5.7514509e-37f,-4.2466074e-37f,3.1301696e-37f,1.5544116e-37f,3.3888439e-37f,
8.5586243e-38f,3.7730084e-37f,-3.8344387e-37f,3.0475901e-37f,2.3175701e-37f,-1.6781495e-37f,5.7055448e-37f,-6.7907493e-37f,
6.8025731e-37f,-4.6334326e-39f,-5.1162317e-37f,1.9361035e-37f,2.9594442e-37f,-1.8504243e-37f,-6.8073689e-37f,2.2823331e-37f,
-6.577565e-38f,-2.3056741e-37f,6.0827564e-39f,-3.7811342e-37f,1.8377581e-38f,3.5817357e-37f,-6.3755865e-37f,-8.4460569e-38f,
1.5537906e-37f,-3.192038e-37f,-4.9927596e-37f,-1.642368e-37f,1.8529753e-37f,-2.7991246e-37f,1.8628515e-37f,-1.0666972e-37f,
-3.1532139e-37f,2.7210526e-39f,-1.0059887e-37f,-2.3226601e-38f,3.7662419e-37f,-9.638512e-38f,-2.4941516e-37f,5.4607296e-37f,
2.9353826e-37f,4.6908536e-37f,-6.7731938e-37f,-9.1461854e-38f,5.8178836e-37f,2.6234549e-37f,9.4585853e-38f,-1.1725786e-37f,
-2.724635e-37f,4.1740861e-37f,6.913112e-38f,-1.8264775e-37f,-1.7257574e-38f,1.8448317e-37f,-7.0245312e-37f,3.1683148e-37f,
-2.2685381e-37f,3.6798273e-37f,-4.8762155e-37f,7.8053165e-38f,1.1132409e-37f,3.4842266e-37f,-3.4138315e-38f,5.3663184e-38f,
0.0035901428f,-0.014302636f,0.11637741f,-0.25437954f,-0.18530059f,0.051679462f,-0.082632005f,0.063772209f,
0.069422141f,0.18019859f,0.031467807f,-0.27223974f,-0.11545242f,-0.032553025f,-0.10959771f,-0.060200643f,
-0.31229207f,0.016150305f,-0.21204314f,0.067682318f,0.17226221f,-0.05980029f,0.065244697f,0.20776202f,
0.0032026537f,-0.1624738f,0.040611643f,-0.0092686526f,-0.1554659f,0.11217936f,0.05193365f,-0.11343724f,
-0.45937583f,0.12001199f,0.18480001f,-0.00092616375f,-0.2460712f,0.23856524f,0.027836505f,-0.073484525f,
-0.068796538f,-0.23045655f,-0.054696903f,0.0086084874f,-0.062981479f,-0.11163811f,0.25938782f,0.07652358f,
0.12898295f,-0.047950976f,-0.093434781f,-0.026199872f,-0.071126454f,0.093088344f,0.16443136f,0.16378458f,
-0.13741691f,-0.10045068f,0.16756363f,-0.21779253f,0.1721866f,-0.0051608225f,-0.050759483f,0.059678189f,
0.049759567f,0.058569632f,-0.0074278787f,-0.29635999f,-0.027493687f,-0.21101888f,-0.1488498f,0.10824577f,
0.075566262f,-0.074952163f,-0.13564166f,-0.13294582f,-0.026202569f,0.13262513f,0.27679741f,-0.33437413f,
0.15213081f,0.12586302f,-0.27860835f,-0.03369863f,-0.048059173f,-0.14618471f,0.26281974f,0.024961654f,
-0.22550043f,-0.38769469f,-0.083641782f,0.064116471f,-0.0020876995f,0.092557833f,0.055174593f,0.24443868f,
0.090371758f,-0.14730525f,0.0073730671f,0.021822203f,0.01202782f,-0.054250754f,-0.16861208f,-0.17431647f,
0.19813143f,0.092178427f,0.01488674f,0.020321459f,0.037526313f,-0.28858778f,0.041422114f,0.00089014717f,
-0.0062357052f,-0.12606643f,-0.026182668f,0.20403063f,-0.13118507f,-0.14498535f,-0.033977024f,-0.066200167f,
-0.10337581f,-0.10599047f,-0.20292871f,0.095068574f,0.13119309f,-0.093701199f,-0.0030778788f,0.0013403243f,
-0.16529176f,0.27366549f,-0.05679521f,-0.0085355928f,0.28389901f,0.19261715f,-0.1896136f,0.18183199f,
0.075349353f,0.04357202f,0.094236098f,0.11284445f,0.18466994f,-0.019215666f,0.096488051f,-0.078324713f,
-0.11087678f,0.089910515f,0.1525043f,0.15506832f,0.11944211f,-0.013698921f,0.21908209f,0.061696734f,
-0.14843211f,-0.16493921f,-0.10806621f,-0.051020347f,0.20968951f,0.033586185f,-0.11188378f,-0.049065113f,
-0.07597284f,-0.054463044f,-0.043541957f,0.14876114f,-0.021015925f,0.22798412f,-0.070910275f,0.068640061f,
-0.275543f,0.1174871f,-0.25492671f,0.099288426f,-0.0090043051f,-0.26233253f,0.027346652f,0.028109888f,
0.0091112871f,-0.37717825f,0.0072639869f,0.12814757f,-0.14831816f,-0.25770304f,-0.0091132093f,-0.093719587f,
0.033818256f,-0.05124544f,0.058995571f,0.33865049f,0.030639173f,0.15942f,0.093309075f,0.065255694f,
0.094078459f,0.13612273f,0.08896707f,-0.17119032f,-0.26455408f,0.22829151f,-0.003600202f,0.2598443f,
0.0082386602f,0.1155406f,-0.14333108f,-0.27113307f,-0.19232194f,-0.074167684f,-0.23074923f,-0.1602134f,
0.23242502f,0.076474324f,0.036159821f,0.19375476f,-0.088337868f,0.0081760548f,0.037440352f,-0.082871914f,
-0.22128922f,-0.23111075f,0.11142544f,-0.17132668f,-0.26227632f,0.069022268f,-0.044319119f,0.069827341f,
-0.020751359f,-0.085233927f,-0.050144359f,-0.060228977f,-0.17516384f,0.051918276f,-0.28916821f,-0.13601518f,
0.072822012f,-0.18567787f,-0.34617284f,0.14964157f,0.080026202f,-0.18492775f,-0.083678611f,0.10170152f,
0.077804886f,0.061832346f,-0.17298335f,0.17643392f,0.26481009f,-0.056297712f,0.14695901f,-0.067462705f,
0.035305653f,-0.049713247f,0.043505944f,-0.0032883657f,0.11193178f,0.00030318357f,0.11148273f,0.21885452f,
-0.13041613f,-0.22820416f,0.098900132f,0.14688328f,0.065639071f,0.031994753f,0.03999703f,0.024008116f,
-0.11380871f,0.07148587f,0.23100033f,-0.069063857f,-0.033966165f,-0.073562637f,0.082200728f,0.18654618f,
0.22014743f,-0.14299186f,-0.052254915f,0.039483633f,0.14314477f,0.057626441f,0.14391677f,-0.048875567f,
-0.21247581f,-0.093764566f,-0.1380143f,0.070402019f,0.17325552f,-0.08300171f,0.10167814f,0.02384055f,
0.12082995f,-0.19840983f,0.23371217f,0.074092239f,-0.19506875f,0.10166666f,-0.097207054f,-0.056359179f,
-0.3146461f,-0.11717498f,0.029048774f,0.057387304f,0.16611457f,0.16493203f,-0.12316745f,-0.068889767f,
-0.010126356f,0.33803183f,0.046486497f,0.29070109f,-0.06885244f,-0.15191402f,0.061252236f,0.1662091f,
-0.28731859f,-0.082798295f,-0.051295076f,0.29776755f,0.20345388f,0.026818268f,-0.17760944f,-0.078081846f,
0.07598716f,-0.24601588f,0.51056767f,-0.15078588f,0.27599281f,-0.032626558f,-0.066812143f,0.19090612f,
0.18015255f,-0.047384046f,-0.36349586f,0.24494039f,-0.10524264f,-0.40400052f,0.20190535f,0.072261475f,
0.098943256f,0.15232684f,0.095582321f,-0.26256457f,0.16131328f,0.16558254f,0.19630457f,-0.26181245f,
-0.053390786f,0.060256086f,0.34997648f,-0.17141382f,0.016549267f,0.021941718f,0.25678343f,-0.047373578f,
-0.062776461f,-0.078991793f,0.28376946f,-0.19427192f,-0.018146725f,0.29725537f,0.14748301f,0.23403656f,
0.2443289f,-0.13558188f,0.034210265f,-0.20030659f,0.093517192f,-0.041358963f,-0.059364058f,0.21746998f,
-0.086527638f,0.023533983f,-0.20733005f,-0.098293014f,0.029550189f,-0.039941456f,0.13855757f,-0.64473146f,
-0.008693981f,0.0037160886f,0.27205625f,0.21793261f,0.012126241f,0.11823193f,0.11888824f,0.029777888f,
-0.027459254f,0.067481592f,0.16270073f,-0.034187812f,-0.14366534f,-0.10282315f,-0.34010884f,0.12092595f,
-0.25621212f,0.18649894f,-0.13331163f,-0.089432396f,-0.11795986f,0.29061598f,-0.17644532f,0.1791891f,
-0.0051403935f,0.078902856f,0.28051201f,0.060602415f,0.15795766f,-0.0073149158f,-0.059965968f,-0.12236999f,
0.1311509f,0.1446528f,-0.043495778f,-0.031091915f,0.13899662f,-0.19421302f,-0.24664444f,0.26633596f,
0.081911385f,-0.072157785f,0.13584095f,-0.049088445f,0.1898272f,0.02280625f,0.19358169f,-0.18253173f,
-0.17160892f,-0.051478632f,0.092685647f,-0.25118911f,-0.16115043f,0.16122445f,0.31949067f,0.19982521f,
-0.11722858f,-0.1911201f,0.12990676f,-0.26502427f,0.14187467f,0.032442138f,-0.33656564f,-0.19875285f,
-0.18371856f,0.17314294f,-0.24082959f,0.044329874f,-0.024450572f,0.0098887598f,-0.076489531f,-0.2143537f,
0.2288502f,-0.078143105f,-0.090768173f,0.32519802f,-0.054190617f,0.056867894f,0.10888374f,0.013809071f,
0.026164401f,0.11039983f,0.066354766f,-0.39967746f,0.26927325f,0.38016078f,-0.2654247f,-0.23256244f,
0.2061021f,0.1433576f,0.40230453f,-0.036806725f,-0.055916328f,0.22645094f,0.19746822f,0.087477438f,
0.16268639f,-0.18460037f,-0.39867759f,0.051107381f,0.20418414f,0.13613747f,-0.26711732f,0.30334577f,
-0.24846885f,-0.29449126f,0.57030302f,0.20009033f,0.10114102f,0.42961824f,0.5043022f,0.61541307f,
0.126846f,0.63434947f,0.011666921f,-0.2041364f,0.36784288f,-0.62615275f,-0.097707205f,0.033391252f,
-0.59380978f,-0.41834509f,0.26641044f,0.49538404f,-0.10436604f,0.51647466f,0.45923236f,-0.76700586f,
-0.11712987f,0.38516596f,0.48641768f,0.32359105f,0.041431449f,0.035624944f,0.3792648f,0.1000184f,
0.27267432f,-0.10048298f,-0.26781979f,0.095752165f,0.090893529f,0.30496323f,-0.0040284111f,0.061061509f,
-0.025858017f,0.16804749f,-0.065934017f,-0.18643892f,-0.14850625f,0.13682842f,0.015674897f,0.21285087f,
0.11729445f,0.21791543f,0.1728767f,-0.12626682f,0.24181308f,-0.0091908779f,0.048220512f,-0.21193755f,
0.35091826f,0.044032771f,0.53926933f,-0.9506982f,-0.23992662f,-0.17799714f,-0.16723084f,0.084396057f,
-0.054778095f,-0.14000121f,0.50834191f,-0.36023691f,-0.40446797f,-0.064341806f,-0.28112924f,-0.20259383f,
0.16136689f,0.42598939f,0.034033969f,-0.12404487f,-0.084501356f,0.61148649f,-0.25475231f,-0.21776709f,
-0.023090998f,-0.087832816f,-0.010533061f,-0.82720423f,-0.15704978f,-0.086046308f,0.071486712f,0.07893984f,
0.12581532f,0.24168643f,-0.26360846f,-0.15298916f,0.30091703f,0.12292967f,0.29480132f,0.52676344f,
-0.028023912f,-0.21245138f,-0.36850339f,0.38700664f,0.40467161f,0.030413577f,-0.11480614f,0.2318975f,
0.28319395f,0.36699072f,-0.13343927f,0.050541375f,-0.046912733f,0.27290311f,-0.21065055f,0.061724849f,
0.31742737f,-0.12095147f,0.1890623f,-0.15981567f,-0.094144657f,0.34747389f,0.34839562f,-0.17353754f,
-0.028397139f,0.12029019f,-0.069683127f,-0.094341323f,0.16066836f,0.080646969f,-0.23749323f,-0.051653396f,
-0.19367941f,0.002412416f,0.03825083f,0.065647095f,-0.54204416f,0.12683944f,0.26524755f,0.28146487f,
0.0015373961f,-0.21406545f,-0.046925206f,-0.12166873f,0.28025761f,-0.43772104f,0.070234507f,0.0071351253f,
0.53105187f,-0.58289003f,-0.16820991f,0.16771199f,0.20701806f,0.13509551f,0.5309093f,0.46681827f,
0.3530587f,-0.23823825f,0.52854705f,0.038907275f,-0.092755362f,0.20471376f,-0.63238686f,0.11184389f,
4.4252927e-38f,-2.407572e-38f,-4.1690957e-37f,-2.4660611e-39f,4.4405058e-38f,4.7103117e-37f,6.3762448e-37f,4.6751187e-37f,
-3.06191e-39f,8.0554326e-38f,6.5344085e-37f,-2.2487098e-37f,2.2097562e-37f,-2.8268235e-37f,2.9631978e-37f,-4.6064864e-37f,
-4.9199764e-37f,-4.5303966e-37f,5.4330158e-38f,6.527311e-37f,-4.1128608e-37f,4.1184817e-37f,2.5279779e-37f,1.6223272e-37f,
-6.4542826e-38f,-4.0335455e-37f,-6.6971457e-37f,4.9967371e-37f,-5.6294675e-37f,-5.8986226e-37f,1.447727e-37f,8.3516144e-38f,
-6.4913243e-37f,3.291568e-37f,1.5394362e-38f,5.7201559e-37f,-4.6194259e-37f,-4.8539421e-38f,-3.7823471e-37f,4.2530646e-37f,
5.7822462e-38f,4.8468128e-38f,3.2399276e-37f,4.1934868e-37f,-1.4824528e-37f,3.3784288e-37f,-1.9509761e-37f,1.8967299e-37f,
-4.4735119e-37f,-3.4228033e-37f,-1.8613228e-37f,-6.1415939e-37f,3.1570606e-37f,-8.5235369e-38f,-4.5525725e-37f,4.171422e-37f,
-5.5326411e-37f,1.1416243e-37f,-1.3181667e-37f,6.2941681e-37f,-5.6554711e-37f,1.3858824e-37f,-9.5765903e-38f,-9.5870025e-38f,
4.1048171e-37f,3.2769129e-37f,2.1875193e-37f,-3.549952e-38f,-1.9199599e-38f,3.0324305e-37f,-5.8055941e-38f,-9.6583633e-38f,
-5.6526586e-37f,-1.9104947e-37f,-8.2489396e-39f,2.4185963e-39f,5.6368645e-37f,-1.6040832e-37f,-6.9654001e-38f,2.839843e-37f,
1.5464924e-37f,4.9894427e-37f,2.3291262e-37f,1.7437201e-37f,1.047211e-37f,1.3360853e-37f,1.2779095e-37f,-1.4702838e-37f,
-5.959719e-38f,-1.2868341e-37f,-5.7872604e-37f,-4.6909832e-37f,1.3197429e-37f,-3.1606258e-37f,-2.486812e-37f,-6.7967581e-37f,
-4.3023103e-38f,-1.17808e-38f,-6.1283423e-37f,6.0652031e-38f,-2.71073e-37f,9.3386515e-38f,-5.6580535e-37f,-5.8745799e-37f,
6.164168e-37f,4.7765704e-37f,4.8197519e-37f,-1.1942549e-37f,2.6507415e-37f,3.5842405e-37f,-5.6965007e-37f,-4.0417914e-37f,
-2.3289359e-37f,-1.9469349e-38f,2.3392465e-37f,-5.1244173e-38f,2.963151e-37f,3.3353181e-37f,1.3820155e-38f,-3.641769e-38f,
6.9013106e-37f,5.9066206e-37f,-4.2180599e-37f,-2.6029803e-37f,-4.8994143e-37f,3.621025e-37f,-3.0217533e-38f,-6.5429679e-37f,
-1.572936e-37f,-1.1712157e-37f,-4.7787609e-37f,4.53999e-37f,1.3384821e-37f,-4.2494809e-37f,2.1981642e-37f,4.0412143e-37f,
4.9025133e-37f,-4.4127718e-37f,-5.4565482e-37f,3.391942e-37f,-1.4031426e-38f,-5.614098e-37f,-2.9727173e-37f,1.5740998e-37f,
-2.2311062e-37f,1.0854372e-37f,-3.7239921e-37f,1.5214104e-37f,-6.2536134e-37f,1.4391084e-37f,5.8787834e-38f,-3.6982809e-37f,
1.1463299e-37f,-3.6982713e-37f,-6.5456718e-37f,-1.2962086e-37f,1.7267049e-37f,-3.6385443e-37f,4.9297814e-37f,-7.0669011e-37f,
0.22085805f,0.28280443f,-0.010360514f,-0.14853822f,-0.12919074f,0.39056766f,-0.34523985f,-0.69373208f,
0.44906107f,0.10941776f,-0.21904245f,0.24341501f,0.053106058f,-0.61063153f,0.31645519f,-0.085366756f,
0.18824698f,-0.21671931f,0.040341303f,0.51324469f,-0.1396201f,-0.33075231f,-0.5759728f,0.16450474f,
-0.37618038f,-0.061942197f,0.22684449f,0.20164907f,0.11422685f,0.10866838f,-0.095287621f,0.09677247f,
0.072033718f,0.19460393f,-0.64980638f,0.27212882f,0.15193938f,0.24310793f,0.060093641f,0.074313805f,
0.28028348f,0.45592377f,-0.44568238f,-0.03931414f,0.23890342f,0.17704801f,-0.11975745f,-0.66121441f,
0.53690606f,0.064737119f,0.22437304f,0.16296692f,0.19535576f,0.26613885f,0.0052703605f,-0.17145231f,
-0.045672577f,0.24507369f,-0.029010512f,0.12777676f,-0.10821422f,0.01624665f,0.19606766f,0.17415853f,
-0.11937472f,-0.24596208f,-0.27127749f,-0.34159344f,0.22019832f,0.14787327f,0.026883347f,-0.097044572f,
0.19480272f,0.24320431f,0.2599569f,-0.011231011f,-0.033712521f,0.22454508f,0.33467907f,0.18193488f,
-0.52094907f,0.059119262f,-0.22735566f,0.082104445f,-0.34988809f,0.048197269f,-0.2806544f,-0.098065093f,
-9.4069052e-05f,-0.19739079f,-0.17460187f,0.052437015f,0.072186284f,-0.30929422f,0.25776008f,-0.36768004f,
-0.17535175f,-0.069255143f,0.31325912f,0.021938592f,0.047481328f,0.29411614f,0.20145865f,-0.088963687f,
-0.065051489f,0.13183987f,0.012053338f,0.011275959f,-0.12620363f,0.15048414f,-0.073920101f,-0.12644397f,
0.33584341f,-0.0089340769f,-0.16996431f,0.03452304f,0.15997244f,0.16245794f,-0.28160584f,0.13101193f,
-0.16165203f,-0.024693765f,0.00075947307f,0.088002808f,0.31176525f,-0.22081196f,0.10012463f,-0.15587015f,
-0.19607297f,0.048244651f,0.10931695f,0.071907125f,-0.13202843f,0.036246192f,-0.26418164f,-0.15943509f,
0.27200487f,0.17861424f,0.084308043f,0.14453155f,-0.15564731f,0.089881733f,-0.086445995f,0.10853221f,
0.3268179f,0.098528847f,0.013563694f,-0.24363585f,0.069922186f,0.21718097f,-0.1411988f,0.071057558f,
-0.17846499f,-0.21254872f,-0.15684985f,0.11504346f,0.0042770905f,0.0083218748f,0.28081354f,-0.13133711f,
0.41749272f,0.0046199234f,0.078173935f,0.095226608f,0.085873403f,-0.19194509f,0.054173909f,0.11421856f,
0.23679937f,0.43821922f,-0.066438146f,0.030842319f,-0.27395535f,-0.36350736f,-0.25318247f,-0.26932755f,
0.0900326f,-0.063868143f,0.47049293f,-0.18903619f,-0.11002453f,-0.075942367f,-0.47273019f,-0.35295206f,
-0.43858102f,-0.095543616f,0.60460371f,0.05015517f,0.29954973f,0.40463549f,0.11000957f,-0.59229684f,
0.013946795f,0.16891859f,-0.54157072f,0.099391632f,-0.56379431f,-0.023627341f,0.10490659f,0.61838794f,
0.089449368f,0.38500494f,0.22397043f,0.6653468f,0.25126684f,-0.016799295f,-0.23137185f,-0.032841802f,
0.34992558f,-0.63783312f,0.49558052f,-0.085804887f,-0.40383309f,-0.058734901f,0.62792343f,0.1775616f,
-0.23223814f,-0.15827744f,-0.085224226f,-0.13418895f,0.1185802f,-0.092392839f,-0.20798181f,-0.26089099f,
-0.060340486f,0.46063635f,-0.39264545f,-0.030325433f,-0.34562662f,0.13296138f,0.26591054f,0.13114338f,
0.27150974f,0.52994353f,0.25816989f,-0.20979485f,-0.20998481f,0.44618401f,-0.69410717f,-0.19765116f,
-0.55952811f,-0.20461886f,-0.11403404f,-0.6636802f,0.020929631f,0.22185142f,0.10613706f,0.074329413f,
0.16626196f,-0.34793204f,-0.048557736f,-0.22695704f,-0.25817263f,-0.30812427f,0.52910018f,-0.31723455f,
-0.20014288f,-0.42385229f,0.29431278f,-0.13649316f,0.61195761f,0.067531228f,0.039737888f,-0.083072476f,
-0.05286362f,0.21506535f,-0.2139736f,-0.4565545f,-0.11562011f,0.44467196f,-0.36067256f,-0.26251361f,
-0.061861333f,0.10097389f,-0.48497283f,0.10048684f,0.04563535f,-0.074142747f,-0.31868044f,0.49295828f,
-0.012542415f,0.11537519f,0.47731006f,-0.29581809f,0.18100809f,-0.45096684f,0.19344136f,-0.26034537f,
0.13884784f,-0.18838741f,-0.23876575f,-0.15312603f,0.15803218f,-0.054632574f,-0.19017249f,-0.14170569f,
-0.079379931f,0.017533073f,-0.49019834f,0.098611936f,-0.15226096f,-0.023796439f,0.033054516f,0.07059554f,
0.20388496f,0.12548359f,0.23813404f,0.16386655f,-0.22935721f,-0.16968183f,-0.49961406f,0.27459109f,
0.1909228f,-0.059548557f,-0.053476166f,-0.19863054f,-0.073572375f,-0.14747681f,0.19649214f,-0.29042184f,
-0.013125343f,-0.060325228f,0.16462483f,-0.36384276f,-0.25263107f,0.48594826f,-0.54792386f,-0.026731053f,
0.20954145f,-0.046090655f,0.042344943f,0.18290944f,0.27191558f,0.023365742f,-0.34234211f,0.16433452f,
0.30984464f,0.025151785f,0.70621079f,0.16227245f,0.16444449f,-0.098706976f,0.12102782f,-0.30117342f,
-0.080640078f,-0.14007951f,0.12407175f,0.01775004f,-0.45432833f,-0.30520168f,-0.08638116f,0.4322412f,
-0.45520672f,0.32200888f,0.20851496f,-0.022271195f,0.51309365f,0.66396838f,0.14894418f,0.36894026f,
-0.10001932f,-0.47374365f,-0.56041068f,0.12147274f,-0.5438931f,0.65785331f,0.41588843f,-0.32943028f,
0.32493177f,-0.53582126f,-0.028629636f,0.41875181f,-0.30563226f,0.14532101f,-0.12186337f,0.034025431f,
-0.25188392f,-0.25000983f,0.50026077f,0.36386314f,0.035916742f,-0.19629009f,0.32261243f,0.50049025f,
-0.35395238f,0.16478105f,-0.35774198f,-0.37938875f,0.15587983f,0.27154514f,0.0098996377f,0.081109807f,
0.1178033f,-0.37708411f,0.063195467f,-0.12808171f,-0.1606131f,0.11507984f,0.20856167f,0.079186425f,
0.1511859f,0.099821515f,-0.26100832f,-0.027597457f,0.040926252f,0.3383289f,0.034692422f,-0.032550648f,
-0.27525806f,-0.20664537f,0.35390997f,0.066188812f,0.16111973f,0.074876525f,-0.31110492f,-0.45578614f,
0.036628336f,-0.064449072f,0.41597486f,0.46936372f,-0.10380829f,-0.03400166f,-0.31690383f,0.2349509f,
0.11214816f,-0.34213278f,-0.61782527f,0.25413433f,-0.019462982f,0.086158983f,0.23042542f,0.25251365f,
0.25414583f,0.19721554f,0.075987451f,0.0030796714f,-0.064177938f,-0.13661912f,-0.035694405f,0.26464078f,
-0.1504197f,0.25437486f,0.27925703f,-0.083008289f,0.1325108f,-0.11816061f,0.085293002f,-0.14088099f,
0.20714667f,0.057462852f,-0.19380051f,-0.086925954f,-0.03333243f,0.08513549f,-0.23243681f,-0.20334037f,
-0.092042372f,-0.93228811f,0.15272383f,-0.95204812f,0.0029518877f,-0.0067223879f,0.24457951f,0.042164985f,
0.076245189f,0.065312475f,0.43253291f,0.19683976f,0.16088192f,0.24179901f,-0.11531731f,0.19595808f,
0.061268847f,-0.31519294f,-0.041816745f,0.22527516f,0.21440263f,0.25889477f,-0.00381926f,-0.0489465f,
0.50765961f,-0.58714962f,-0.077750474f,0.43619391f,-0.066873617f,0.2844263f,-0.021165056f,-0.1093351f,
-0.43951252f,0.11954813f,0.37038928f,-0.066210881f,0.5179376f,-0.018964313f,0.72823197f,0.39025915f,
0.20556098f,0.044008296f,-0.12060525f,0.13039237f,0.32101372f,-0.38062519f,0.29915667f,0.30800012f,
0.19763443f,0.20536049f,0.087639235f,0.47466269f,0.12239777f,-0.037946206f,-0.21381484f,0.038158417f,
-0.55297947f,0.48677346f,-0.71595067f,0.3337594f,0.28051671f,0.11721647f,-0.30896437f,-0.21061043f,
-0.54253328f,0.46858993f,-0.47051555f,-0.33166406f,0.45005712f,0.1391733f,-0.17776842f,-0.2995562f,
0.59510404f,-0.22604646f,-0.61409581f,-0.25518936f,-0.24028958f,0.05208724f,0.41965261f,-0.65652788f,
-0.22087386f,-0.1436381f,-0.06910345f,0.11899497f,0.53026438f,-0.37019339f,0.22144388f,0.25026351f,
-0.16771476f,0.15393013f,-0.20598805f,-0.16922022f,0.08646661f,-0.13739114f,-0.28022343f,0.27646452f,
0.11706317f,0.46255597f,-0.35552239f,-0.1313626f,-0.094803959f,0.20353296f,0.63180614f,-0.35435605f,
0.14387789f,0.1423129f,0.16841298f,0.44404987f,-0.015605405f,0.20937559f,0.41457853f,-0.33231044f,
-0.45685703f,0.00086921873f,0.13587749f,-0.28606009f,0.039468423f,-0.25312704f,0.11806799f,0.062346153f,
0.013822345f,-0.051574066f,-0.1979377f,0.12886032f,-0.28714791f,-0.15002029f,0.31417146f,0.04726766f,
-0.34515876f,0.046066992f,-0.16721122f,-0.27131432f,0.42956674f,0.19616769f,-0.18155162f,0.27006269f,
0.15888138f,0.077871636f,-0.65120685f,-0.078123569f,-0.52870393f,0.3660396f,-0.60026807f,-0.24207793f,
-0.15342322f,0.17949943f,0.10088714f,-0.096921913f,0.19870836f,-0.052886948f,-0.41616434f,-0.09303499f,
0.02585233f,0.2113113f,-0.19150406f,-0.0063978387f,0.091549516f,0.29204187f,-0.23120023f,-0.0038643233f,
-0.24071451f,0.48442683f,0.25799105f,-0.047101188f,0.20056099f,0.36802492f,0.24895249f,-0.16255614f,
-0.037376512f,-0.036593892f,0.061623231f,0.31508341f,-0.095000885f,0.22792993f,-0.19136915f,-0.12527144f,
-0.029913487f,-0.1872468f,-0.11427832f,0.17106344f,0.11158384f,0.11137693f,0.20670122f,0.16249008f,
-0.33307219f,0.043658201f,0.1384207f,-0.53701597f,0.13681068f,-0.13389328f,0.12127178f,-0.038813755f,
0.34166276f,0.46122509f,0.08918114f,-0.15064451f,0.067062601f,0.2829532f,0.25805041f,0.1164564f,
0.43577984f,-0.29669315f,-0.00821782f,0.33062109f,0.1251695f,-0.34957385f,0.19713397f,0.058438268f,
-0.07498005f,-0.36268902f,-0.044949591f,0.12940587f,0.39318442f,-0.062970735f,0.52880758f,-0.096833006f,
-0.5376724f,-0.5869081f,-0.53883404f,0.028362781f,-0.027500499f,-0.12462053f,-0.036419507f,0.4701933f,
0.40576565f,0.0087628048f,-0.77741587f,0.19117837f,0.031776782f,0.23793274f,-0.030661f,0.057491545f,
0.42066568f,0.17894793f,-0.046470765f,-0.073368937f,-0.099113472f,0.24438626f,-0.49376309f,-0.1977288f,
-0.25832614f,0.37511748f,-0.038103212f,-1.1066475f,-0.44877025f,-0.054972179f,0.4033629f,-0.19456875f,
-0.20694137f,-0.041067973f,-0.85057324f,-0.013651595f,0.26126394f,-0.28704825f,0.18755986f,0.33548158f,
0.48131049f,0.048974741f,-0.63336569f,0.087039985f,0.32068035f,0.24060084f,-0.23373784f,-0.23736957f,
0.38418797f,0.17377524f,-0.081975169f,-0.9590494f,-0.131568f,0.2011597f,-0.092373766f,0.064755999f,
0.37329084f,0.25766775f,-0.12699342f,0.19689366f,-0.002026841f,-0.056130081f,0.49448171f,0.14327164f,
-0.10155449f,-0.19960062f,0.24463825f,-0.18584663f,-0.15751292f,-0.062628105f,0.19905373f,0.19128007f,
0.35684508f,-0.26301396f,-0.12971252f,0.29917458f,0.21904519f,0.035928816f,-0.016738411f,0.3767927f,
-0.16725799f,-0.21148352f,0.057232965f,0.057225633f,-0.72821409f,0.031067189f,0.046610966f,0.13643487f,
-0.48882577f,-0.12464996f,0.040195983f,-1.1641154f,0.39060268f,-0.25331378f,-0.27692315f,0.075987414f,
0.16590869f,-0.17822935f,0.17021559f,-0.15780979f,-0.32459328f,-0.11730997f,-0.035334107f,0.23963857f,
-0.35305589f,-0.3717348f,-0.26409227f,0.12293532f,-0.19330317f,0.033968225f,-0.17699595f,0.46414721f,
0.15056852f,0.10518704f,-0.28809041f,-0.27323318f,-0.42455679f,-0.045510519f,-0.33136165f,0.050140314f,
0.05828711f,-0.14224932f,-0.14697348f,0.31994802f,-0.48805326f,-0.5098604f,0.130849f,-0.019995026f,
0.11292552f,0.049503177f,0.17482616f,-0.27253628f,-0.48821643f,0.44178098f,0.14490521f,0.071025237f,
