#pragma once
// Auto-generated by tools/train_nnue.py. Do not edit.
// samples: 926281, arch: 360 -> 32 -> 1
namespace nnue_data {
constexpr int   NUM_FEATURES = 360;
constexpr int   HIDDEN       = 32;
constexpr float OUT_SCALE    = 600.0f;
inline const float W1[11520] = {
5.2102379e-40f,-5.0853402e-40f,5.1679327e-40f,4.9381337e-40f,-4.9805931e-40f,-5.3277928e-40f,4.9729981e-40f,5.7671419e-40f,
5.2711523e-40f,5.0414795e-40f,-5.0276627e-40f,5.1949497e-40f,5.692719e-40f,-5.7009586e-40f,5.2879119e-40f,-5.8993404e-40f,
-5.1203025e-40f,5.6348874e-40f,5.3336082e-40f,5.9590357e-40f,-4.99235e-40f,-5.6739416e-40f,5.1754997e-40f,5.1816094e-40f,
-6.2171829e-40f,-5.6508482e-40f,5.0967747e-40f,5.1382532e-40f,-5.648564e-40f,-5.9726984e-40f,5.200667e-40f,6.2117039e-40f,
5.9455272e-40f,5.1620472e-40f,-5.0763578e-40f,-5.0606633e-40f,-5.5603103e-40f,6.2461057e-40f,-5.0962002e-40f,5.5079157e-40f,
5.6188145e-40f,5.2393288e-40f,5.4375565e-40f,-5.4401349e-40f,5.2033015e-40f,5.1962249e-40f,-5.0305914e-40f,5.2147641e-40f,
-5.3260692e-40f,4.9295158e-40f,5.1824361e-40f,-4.9393669e-40f,5.2962916e-40f,-5.0228422e-40f,-4.9786032e-40f,-5.0710469e-40f,
5.5703155e-40f,5.482328e-40f,-5.1564561e-40f,5.3033121e-40f,5.0421521e-40f,-5.1103814e-40f,5.0265837e-40f,-4.9074733e-40f,
4.9449721e-40f,-5.1066819e-40f,5.8346004e-40f,-5.6168527e-40f,-5.6735492e-40f,-5.5065985e-40f,-5.3566596e-40f,-5.1234835e-40f,
-5.5350729e-40f,-5.2257503e-40f,-5.1896668e-40f,-5.8938894e-40f,-5.8678953e-40f,-5.3320808e-40f,-4.9488116e-40f,5.4314048e-40f,
-5.0412553e-40f,-5.3315623e-40f,5.6001212e-40f,-5.2659675e-40f,5.4057751e-40f,-5.9196452e-40f,5.2850252e-40f,5.1746309e-40f,
-5.1118948e-40f,4.9558602e-40f,5.1026742e-40f,-5.640913e-40f,5.2078136e-40f,-5.1557274e-40f,-5.9907892e-40f,-5.297749e-40f,
-5.1171917e-40f,-5.0879045e-40f,-5.1295511e-40f,-4.9148862e-40f,-5.0097261e-40f,5.3088192e-40f,5.4191014e-40f,-5.168227e-40f,
-5.7362433e-40f,4.9399414e-40f,-4.9551035e-40f,-5.3607514e-40f,-5.6101545e-40f,-5.0769884e-40f,-5.4644194e-40f,5.0298487e-40f,
5.0879466e-40f,5.2498246e-40f,5.1575771e-40f,-5.0795668e-40f,5.5344003e-40f,-5.3184462e-40f,5.0458375e-40f,5.9072017e-40f,
-5.891311e-40f,-4.9742032e-40f,-4.9687101e-40f,-4.9134989e-40f,-5.6139239e-40f,5.2109946e-40f,5.5248574e-40f,5.181189e-40f,
6.2202518e-40f,5.2332892e-40f,5.2699192e-40f,5.4750413e-40f,5.4703329e-40f,-5.0242716e-40f,4.9501989e-40f,4.970756e-40f,
5.567541e-40f,4.9163436e-40f,-5.1312467e-40f,-5.0405547e-40f,5.2970063e-40f,5.2280063e-40f,-5.2642439e-40f,5.1608561e-40f,
5.1533171e-40f,4.904909e-40f,-4.9397172e-40f,5.2431684e-40f,-5.9432851e-40f,5.0449968e-40f,-5.3662024e-40f,4.9850492e-40f,
-5.7746809e-40f,-5.7862276e-40f,5.1289065e-40f,5.4349501e-40f,-6.2806898e-40f,5.7358229e-40f,4.9340279e-40f,-5.8950244e-40f,
0.052037481f,0.0089261737f,0.046470024f,0.05379412f,0.018509101f,0.059363302f,0.1127704f,-0.023497919f,
0.046757724f,0.0087847449f,0.015469971f,0.034629375f,0.10547636f,0.024811631f,0.012817265f,0.015270242f,
0.16329575f,0.0039573181f,-0.023248984f,0.014569378f,0.02389124f,0.0077913553f,-0.00068982312f,0.014157433f,
0.0024149411f,0.025262253f,0.054734532f,0.059735298f,-0.018260444f,0.0026873508f,0.075808741f,0.022995308f,
0.040559564f,0.078754321f,0.07257355f,0.025338531f,-0.018495478f,0.0025641997f,-0.013711522f,0.060146168f,
-0.0096524684f,-6.1356433e-05f,0.0040000579f,-0.0096900165f,0.13396093f,0.034142081f,0.046309408f,-0.014493108f,
0.11853985f,-0.034419492f,-0.0094967727f,0.012752729f,0.014249885f,0.023388673f,-0.016241839f,-0.0078146141f,
0.018108144f,-0.02044427f,0.040256165f,0.037452698f,-0.01977662f,-0.0050950274f,0.0848196f,-0.030774411f,
0.1159342f,0.016119087f,0.019669196f,0.050380394f,-0.072984792f,0.072425358f,-0.015995141f,0.047403958f,
-0.045729257f,0.10778557f,-0.053888757f,-0.10589168f,0.0032235032f,0.11655065f,0.062633492f,-0.11283209f,
0.10360606f,-0.082877934f,0.09153419f,0.066865735f,0.082884662f,0.037545897f,-0.046080075f,0.036074787f,
0.056856163f,-0.045246031f,0.060155522f,0.066208936f,-0.090887211f,-0.08983808f,-0.083065182f,-0.045791741f,
0.10676474f,0.020712424f,0.11110082f,0.071597457f,-0.095201351f,0.061534617f,0.092557356f,0.097622901f,
-0.055662863f,0.10809986f,-0.12270039f,-0.10302937f,-0.064920574f,0.11127701f,0.071156621f,-0.084416628f,
-0.017048804f,-0.088133156f,0.080348589f,0.11449137f,0.07989452f,0.086646914f,-0.093770407f,0.088734798f,
0.093387827f,-0.092925765f,0.083436176f,0.081858791f,-0.062925912f,-0.10277675f,0.0046134959f,-0.098685063f,
0.052452952f,0.071897157f,0.030394249f,0.025634037f,-0.023834029f,0.062542379f,0.085120082f,0.028991796f,
-0.041308384f,0.057551354f,-0.010617699f,0.0070680478f,0.099795952f,0.02176768f,0.012219221f,0.0057013137f,
0.16093932f,0.0077377381f,-0.033436157f,0.06190075f,0.0056911074f,0.016077867f,-0.012849841f,-0.0048651905f,
0.057558157f,-0.00063986902f,0.06254641f,0.03960412f,-0.038306702f,0.018683024f,0.11544348f,-0.0095710149f,
0.023795908f,0.013021464f,0.029823055f,0.023789233f,0.043962192f,-0.026515128f,-0.048567317f,0.052171905f,
0.044434138f,0.069662653f,0.023659034f,0.016804654f,0.086725101f,0.044808466f,0.010870905f,0.044109799f,
0.10450054f,0.015384085f,0.050918348f,0.0012537208f,0.02324637f,0.050993294f,0.039544214f,0.064872362f,
0.054009892f,0.029363584f,0.018787365f,0.058187712f,0.016300179f,0.039206386f,0.12687393f,0.010114443f,
0.059496634f,0.12595752f,0.11004689f,0.082803734f,0.02484392f,0.07832697f,-0.06424997f,0.050017565f,
0.01785777f,0.076737478f,-0.040790271f,-0.02401609f,0.0060405238f,0.093688369f,0.092365503f,-0.0033546747f,
0.033987172f,-0.022100134f,0.089769043f,0.06217007f,0.10367922f,0.077407479f,0.0061434149f,0.037239283f,
0.054173872f,-0.021613754f,0.11731227f,0.072068386f,-0.0075487983f,0.014772393f,-0.014188286f,-0.031526361f,
0.022358129f,-0.0034932371f,0.035460968f,0.051562089f,0.0022882628f,0.070757844f,0.12073605f,0.070119813f,
-0.02368252f,0.035994839f,-0.013527552f,-0.052371088f,-0.03050923f,0.051708974f,0.038930185f,0.0053026993f,
0.049602803f,-0.010560825f,-0.00053182058f,0.033709258f,0.061279837f,0.090314202f,-0.059020426f,0.080123596f,
0.078969195f,-0.0083385939f,0.066790409f,0.06296441f,-0.060047247f,0.0076206401f,0.064465351f,-0.05301924f,
0.059979282f,0.057348557f,0.072519511f,0.084598772f,-0.007120159f,0.085951f,0.055067357f,0.082694903f,
0.0088391295f,0.045969218f,-0.026998287f,-0.03665268f,-0.043992192f,0.063447475f,0.040063102f,-0.014007526f,
0.063470177f,-0.012378435f,0.089699291f,0.043734096f,0.071722716f,0.094905928f,-0.010204677f,0.067466676f,
0.069231935f,0.0079428395f,0.091088243f,0.088265195f,0.012479567f,0.036546372f,-0.012478366f,0.0029819719f,
0.04887028f,-0.02503527f,0.042244136f,0.032622781f,0.022484934f,0.078957364f,0.045522973f,0.089433782f,
-0.0017608291f,0.071146995f,-0.012004534f,0.028605729f,-0.039349962f,0.048836406f,0.081944011f,0.015493535f,
0.10325161f,-0.0087759336f,0.086468019f,0.058739044f,0.017474318f,0.087868102f,0.029177228f,0.088910669f,
0.060385171f,-0.0049451934f,0.063207418f,0.070817724f,-0.017148729f,0.023013726f,0.043898672f,-0.0079740286f,
0.034748908f,-0.029184768f,0.046373866f,0.0022760364f,0.016368676f,0.025700103f,0.016094459f,-0.00026568357f,
0.087132141f,0.048588961f,0.038675956f,0.031450894f,0.15854821f,-0.014653792f,0.029557802f,0.058043286f,
0.13744205f,0.015191776f,-0.032806575f,-0.006254077f,-0.0064185676f,0.030370971f,0.075360753f,-0.02481257f,
0.036044415f,0.067529917f,0.007488681f,0.032940116f,0.046107251f,0.020895068f,0.097193144f,0.08114706f,
0.079307556f,0.07953804f,0.051506486f,0.043680236f,-0.0081111528f,0.084333524f,0.035249945f,0.044093858f,
0.0033256065f,0.051389676f,-0.032492995f,0.019678237f,0.053672951f,0.039371781f,0.064194374f,-0.039788213f,
0.071017295f,-0.012367321f,-0.013299445f,0.051077094f,0.00010029947f,0.055349424f,0.013854065f,0.078515425f,
0.045322575f,0.023848813f,0.042202115f,0.07746812f,-0.0094755311f,-0.041700799f,0.0019621036f,-0.016148649f,
0.087505408f,0.0845064f,0.01997738f,-0.0093386304f,-0.0072176741f,0.060710214f,-0.0084309056f,0.076657943f,
-0.030588266f,0.029601697f,0.024286399f,-0.012099735f,-0.065425232f,0.020832676f,0.082080983f,-0.011789442f,
0.030697901f,-0.031264432f,0.0090106633f,0.054700837f,0.032845844f,0.066687301f,0.054994199f,0.033110622f,
0.057534363f,0.0030200484f,0.021116128f,0.060672507f,0.011732266f,0.022107562f,0.032631032f,-0.034554914f,
0.036255609f,0.043306571f,0.046154883f,0.03579919f,0.0018968005f,0.050947689f,-0.042534757f,0.053435028f,
0.044751812f,0.014571224f,0.031184284f,0.013016312f,0.048494913f,0.025651051f,0.068948224f,-0.010133229f,
-0.036831297f,0.025503578f,0.021572992f,0.014612904f,0.065637998f,0.021092951f,0.018985476f,0.038865946f,
0.074994057f,0.052914355f,0.0075950921f,0.05362609f,0.011539089f,0.035418801f,0.21160704f,-0.0063305679f,
0.069082864f,0.096234106f,0.034661893f,0.067915075f,0.023376597f,0.030871319f,0.076769426f,0.046107467f,
0.019140942f,0.083066441f,0.036235634f,-0.046274524f,0.011778453f,0.044442382f,0.10207787f,0.020869268f,
0.093675375f,0.034211766f,0.079073519f,0.061934169f,0.080212288f,0.07879854f,0.026068745f,0.06685546f,
0.10416773f,0.0064740484f,0.069708779f,0.025791679f,0.033414431f,0.042875834f,-0.028985551f,-0.0075346166f,
0.053056307f,0.040880162f,-0.014181356f,-0.023386497f,0.01382114f,-0.017483694f,-0.023217235f,-0.0091466438f,
0.063209392f,0.037759487f,0.023042789f,0.018751772f,-0.12050715f,0.043948133f,0.04297924f,0.039710499f,
0.1493651f,0.053181857f,0.026929207f,0.01911613f,-0.024997234f,0.028769555f,0.018998362f,0.034967244f,
0.052473553f,0.054284554f,-0.022027241f,-0.0060274657f,0.015432445f,0.00074605958f,0.14181584f,0.0062425346f,
0.099986404f,0.018116891f,0.05200237f,0.040108621f,-0.016635448f,0.049180154f,-0.025961852f,0.012429402f,
0.0028463705f,0.030445334f,-0.0076491567f,0.034983724f,0.072217904f,-0.005728818f,0.075173423f,-0.025072001f,
0.080299661f,-0.038948853f,0.045339018f,0.026710199f,0.0077526863f,0.014046563f,0.027528165f,0.068901822f,
0.046775814f,0.027946426f,-0.0059529799f,0.027899606f,-0.011956842f,0.019593589f,-0.029023739f,-0.025334563f,
0.040120542f,0.046239041f,0.063330732f,0.067512967f,-0.0025697243f,0.032603599f,0.027338231f,0.01162341f,
0.030304775f,0.0043184734f,0.0024624295f,-0.035983406f,0.064669766f,0.068976574f,0.040037904f,-0.010365563f,
0.059912771f,0.04629951f,0.030371238f,-0.0050178943f,-0.0070116399f,0.065606602f,0.041362483f,0.012824956f,
0.03402663f,0.030392943f,0.052167054f,0.039041124f,0.0060735429f,-0.0051205005f,0.053550668f,0.028609516f,
0.079011805f,0.070871703f,0.025908602f,0.065230757f,-0.037813731f,0.030208811f,0.045719847f,0.032922402f,
0.033732731f,0.01782201f,-0.039360337f,0.017223973f,-0.062026743f,0.05373298f,0.0285151f,0.0047320174f,
-0.0069063674f,-0.036948871f,0.0071140304f,0.068858393f,0.0022414236f,0.032044075f,0.034040697f,0.043087658f,
0.066500694f,0.0011755932f,0.031911165f,0.026243957f,-0.024045974f,0.011125533f,0.070910096f,0.017424343f,
0.062074915f,0.065123983f,0.080270395f,0.030234916f,-0.0054826136f,-0.0011605993f,-0.04407455f,0.031873278f,
0.003997698f,0.10078214f,0.010573299f,-0.037722539f,0.008391669f,0.032361984f,0.056636646f,-0.03889104f,
-0.0016796961f,-0.012952503f,0.09100493f,0.051374532f,0.067517102f,0.095804982f,0.019227054f,0.052512981f,
0.075979829f,0.013212027f,0.063510068f,0.019165114f,-0.021203995f,0.038257424f,0.067510635f,0.0017483451f,
-5.269681e-40f,5.0414094e-40f,-5.0291201e-40f,-5.322636e-40f,-5.0403725e-40f,-5.3203099e-40f,5.2519826e-40f,-5.1559656e-40f,
5.5129043e-40f,5.5164076e-40f,-5.0374718e-40f,5.3709668e-40f,-5.1696843e-40f,5.0272703e-40f,-5.2713485e-40f,-6.3018494e-40f,
-5.0617843e-40f,5.0910434e-40f,-4.9299221e-40f,-5.7149856e-40f,-5.3086651e-40f,5.1553771e-40f,-5.3013223e-40f,5.5091489e-40f,
-5.3783517e-40f,5.0710049e-40f,-5.6486481e-40f,5.0217913e-40f,-5.1457782e-40f,-5.1277014e-40f,-5.1610523e-40f,-5.1880273e-40f,
-4.9974647e-40f,4.9357095e-40f,4.920015e-40f,5.0427127e-40f,5.1641352e-40f,5.0131733e-40f,-5.3509843e-40f,-5.8237123e-40f,
5.497392e-40f,6.0832889e-40f,-5.0296105e-40f,4.9743293e-40f,4.9952507e-40f,5.7468651e-40f,6.116864e-40f,5.3615221e-40f,
-5.0260652e-40f,5.3664967e-40f,-5.0585754e-40f,4.9464014e-40f,-5.0349635e-40f,5.8000584e-40f,5.1853789e-40f,-5.584847e-40f,
-5.1623835e-40f,5.2031193e-40f,5.2795601e-40f,-5.1460584e-40f,-5.0380323e-40f,-5.0728826e-40f,-4.9690184e-40f,4.9584105e-40f,
-5.1629581e-40f,-5.3404746e-40f,-5.2703256e-40f,5.0943085e-40f,5.3130652e-40f,-5.0248461e-40f,-5.1476279e-40f,5.2961935e-40f,
-5.1830527e-40f,-5.2140214e-40f,-4.9878798e-40f,-5.405705e-40f,-5.0544555e-40f,6.0486908e-40f,-5.2359377e-40f,5.125109e-40f,
5.1897929e-40f,-4.9133168e-40f,5.2383199e-40f,4.9662438e-40f,-5.346346e-40f,-5.0722801e-40f,5.1890503e-40f,5.2977209e-40f,
5.3763618e-40f,5.1497719e-40f,5.6232706e-40f,5.085228e-40f,-5.0113376e-40f,5.0963544e-40f,-5.5070329e-40f,5.7724108e-40f,
5.1729353e-40f,5.2004708e-40f,5.3889595e-40f,-5.3084969e-40f,-4.9800746e-40f,5.0170128e-40f,5.1339512e-40f,-5.0151351e-40f,
5.2258343e-40f,-4.9143677e-40f,5.3488263e-40f,-5.2075194e-40f,-5.3815046e-40f,-4.967547e-40f,-5.6381104e-40f,-6.0158023e-40f,
-5.7734197e-40f,5.4808426e-40f,-4.9235602e-40f,5.3708968e-40f,5.124072e-40f,5.1889101e-40f,5.14994e-40f,-5.0665207e-40f,
5.9378761e-40f,-5.0573842e-40f,-4.9972966e-40f,-5.2801767e-40f,5.1369219e-40f,5.7439364e-40f,-5.1431157e-40f,5.0111694e-40f,
-5.7353745e-40f,-6.0589343e-40f,-5.0638442e-40f,-5.85356e-40f,5.660433e-40f,5.3177735e-40f,-5.9188465e-40f,5.0006877e-40f,
5.3160219e-40f,5.4496497e-40f,5.8542466e-40f,5.5467317e-40f,5.259998e-40f,5.4141128e-40f,-5.1551669e-40f,4.9395491e-40f,
-5.3673094e-40f,-5.0392795e-40f,6.2666207e-40f,5.0429088e-40f,5.020418e-40f,-5.6087251e-40f,-5.6186183e-40f,-5.2223451e-40f,
-5.2027409e-40f,-5.3901926e-40f,6.1278922e-40f,-5.0469446e-40f,-5.2226814e-40f,-5.0897262e-40f,5.0880306e-40f,5.52979e-40f,
0.081864804f,0.098399416f,0.061304919f,0.088291496f,-0.094434798f,0.080399334f,0.04500084f,0.095161088f,
-0.087370209f,0.084669359f,-0.087147534f,-0.080666609f,0.10570122f,0.067848653f,0.078743316f,-0.075399935f,
0.10854922f,-0.11501443f,0.066196069f,0.089367554f,0.085592106f,0.099271588f,-0.10503486f,0.099422194f,
0.069957174f,-0.060717065f,0.13200885f,0.084091783f,-0.073938064f,-0.086780958f,0.30481467f,-0.092957489f,
0.115149f,0.085391648f,0.082527153f,0.060405158f,-0.094796732f,0.10005467f,0.09999156f,0.10972697f,
-0.10250191f,0.088868484f,-0.085910983f,-0.11164214f,0.13205285f,0.093323052f,0.096855864f,-0.11474047f,
0.29387367f,-0.092705406f,0.11898657f,0.095097192f,0.095484369f,0.099715889f,-0.11796237f,0.080290556f,
0.084779516f,-0.085735008f,0.081914894f,0.063492939f,-0.11147025f,-0.081636138f,0.18720226f,-0.091103233f,
0.049067404f,0.026342683f,0.092369683f,0.081993639f,-0.053080902f,0.061532304f,0.052481934f,0.0006307697f,
-0.062908091f,0.079054102f,-0.062172763f,-0.074541397f,0.058253899f,0.10055343f,0.078697026f,-0.061900616f,
0.25871143f,-0.10936667f,0.063376784f,0.092040442f,0.092610098f,0.048936281f,-0.085909531f,0.075791806f,
0.10088345f,-0.076640226f,0.097318724f,0.085372187f,-0.095222063f,-0.087090217f,0.2638011f,-0.086345762f,
0.067810737f,0.037201565f,0.08351846f,0.066280395f,-0.037234098f,0.023303257f,0.0028216108f,0.070709176f,
-0.087048836f,0.059963576f,-0.065300822f,-0.046313167f,0.031976096f,0.049927406f,0.07677152f,-0.08955276f,
0.2666077f,-0.079223983f,0.061205395f,0.075877786f,0.094542094f,0.046418946f,-0.038118783f,0.061394889f,
0.066629156f,-0.044914942f,0.087730609f,0.080131143f,-0.041727789f,-0.072010227f,0.27274731f,-0.048571564f,
0.078594878f,0.08235281f,0.086332984f,0.063300312f,-0.11407136f,0.11240334f,0.061819434f,0.12389144f,
-0.084612019f,0.074155375f,-0.099384144f,-0.066059664f,0.11314648f,0.11234801f,0.077337869f,-0.077853769f,
0.13180919f,-0.076581344f,0.11995427f,0.11397537f,0.11756743f,0.12559459f,-0.08087258f,0.085876577f,
0.084209315f,-0.085891068f,0.12454806f,0.11788771f,-0.085248619f,-0.098251484f,0.15108217f,-0.11532559f,
0.069066279f,0.10387547f,0.11899321f,0.066079073f,-0.13310799f,0.068036243f,0.11746664f,0.13445807f,
-0.074192017f,0.089100823f,-0.13181786f,-0.06367068f,0.1059384f,0.071195439f,0.083189987f,-0.066069931f,
0.077329315f,-0.10881377f,0.069615684f,0.099985681f,0.067586638f,0.090538695f,-0.12221154f,0.12960377f,
0.11628409f,-0.076493971f,0.11369815f,0.06872765f,-0.14498331f,-0.12679562f,0.18704054f,-0.13434762f,
0.083364502f,0.10714303f,0.075107567f,0.087649353f,-0.11849584f,0.12692073f,0.10727924f,0.05554891f,
-0.12178053f,0.082535818f,-0.10515343f,-0.067905344f,0.10115297f,0.078540869f,0.081881255f,-0.083750956f,
0.04483052f,-0.077122405f,0.042376731f,0.11509041f,0.10545603f,0.073115736f,-0.080187f,0.10147333f,
0.089391783f,-0.099969029f,0.094596855f,0.083761074f,-0.093000062f,-0.12248562f,0.30642754f,-0.10168092f,
0.13360788f,0.028790543f,0.12831645f,0.042142399f,-0.11536426f,0.11482249f,-0.06474071f,0.081392668f,
-0.057444818f,0.11032873f,-0.10348866f,-0.10693222f,0.068589658f,0.12569763f,0.090713188f,-0.10714246f,
0.1144299f,-0.12463334f,0.089579783f,0.12811188f,0.067906223f,0.042231116f,-0.10498223f,0.11142451f,
0.11901198f,-0.089134857f,0.1024368f,0.078210212f,-0.12818651f,-0.1035967f,0.22603898f,-0.083609276f,
0.10082556f,0.020520587f,0.073100202f,0.069117747f,-0.048264317f,0.10381733f,-0.036844742f,0.09116175f,
-0.11165094f,0.080332756f,-0.099318184f,-0.077525944f,0.027480921f,0.076768108f,0.094748102f,-0.094524629f,
0.2140678f,-0.075400956f,0.053505108f,0.067487471f,0.10503671f,0.11105359f,-0.045062058f,0.10915922f,
0.079732753f,-0.090323538f,0.09413854f,0.070671298f,-0.10661536f,-0.10853833f,0.19512077f,-0.10772491f,
0.10716479f,0.10027021f,0.079027891f,0.073865019f,-0.075921491f,0.12233253f,0.035029653f,0.06911429f,
-0.089077257f,0.090897888f,-0.10878741f,-0.051458675f,0.081918858f,0.095166832f,0.068032987f,-0.099612862f,
0.12672558f,-0.054147914f,0.06706284f,0.078875892f,0.11635324f,0.11270083f,-0.11980848f,0.083332315f,
0.1207469f,-0.042593528f,0.13076648f,0.091938406f,-0.10562074f,-0.072256319f,0.18586268f,-0.081772484f,
0.10674097f,0.12093708f,0.10827897f,0.09720207f,-0.054387342f,0.083348691f,0.084932037f,0.075107127f,
-0.071105331f,0.10324995f,-0.11075846f,-0.067670129f,0.18898527f,0.10284366f,0.12898552f,-0.10218005f,
0.11682592f,-0.083942264f,0.074620552f,0.14597052f,0.10588729f,0.13368614f,-0.085880265f,0.12185277f,
0.063217051f,-0.093416519f,0.11033925f,0.13891988f,-0.058068171f,-0.1243995f,0.10428017f,-0.061827842f,
0.082858354f,0.12884802f,0.13111885f,0.076833606f,-0.075473346f,0.046339009f,-0.074994572f,0.081616588f,
-0.11202523f,0.15586282f,-0.11991108f,-0.11074114f,0.17372306f,0.08515726f,0.09681502f,-0.12069365f,
0.010265059f,-0.09913858f,0.12973174f,0.085019857f,0.10872617f,0.043386843f,-0.14666721f,0.099990688f,
0.042626474f,-0.10509014f,0.15064701f,0.11018382f,-0.13097782f,-0.1223847f,0.18284641f,-0.079262815f,
0.10798062f,0.079390027f,0.087932117f,0.084818862f,-0.093751237f,0.083058804f,0.10375541f,0.12628315f,
-0.058149341f,0.082104027f,-0.10883822f,-0.060840003f,0.21567093f,0.11619396f,0.10100785f,-0.053741053f,
0.18164165f,-0.11034451f,0.07687819f,0.071205385f,0.092798695f,0.08363156f,-0.076850042f,0.106181f,
0.12954119f,-0.088487096f,0.12024399f,0.12312541f,-0.072571844f,-0.1129304f,0.076390028f,-0.078699872f,
0.083309636f,0.11443307f,0.133205f,0.10770395f,-0.10977825f,0.08741226f,0.092447743f,0.1112282f,
-0.10464745f,0.13504207f,-0.07480289f,-0.11712932f,0.14189225f,0.089436367f,0.075748697f,-0.10367818f,
0.16042733f,-0.11191689f,0.1016317f,0.12485071f,0.10113127f,0.10887594f,-0.060385447f,0.076232143f,
0.10020898f,-0.080138095f,0.1363188f,0.10292599f,-0.12928739f,-0.066626154f,0.072339132f,-0.10133956f,
0.077244192f,0.1298342f,0.11516573f,0.069258004f,-0.070191875f,0.080198184f,0.067931533f,0.11055938f,
-0.10864686f,0.089033693f,-0.081885926f,-0.071649551f,0.16344108f,0.13797636f,0.10156599f,-0.088565215f,
0.11560943f,-0.085279047f,0.088425212f,0.12214824f,0.11826578f,0.10422057f,-0.077214159f,0.065079361f,
0.11864848f,-0.071288668f,0.12459277f,0.091444537f,-0.11407086f,-0.097942106f,0.12562042f,-0.096493043f,
0.087860547f,0.029916393f,0.061799049f,0.10145258f,-0.061744187f,0.0191168f,0.14769147f,0.12282047f,
-0.11306366f,0.09156356f,-0.13357717f,-0.062322736f,0.13688262f,0.13017723f,0.073035978f,-0.12753023f,
0.043726277f,-0.12711655f,0.13351084f,0.1313802f,0.11951384f,0.11826488f,-0.10093403f,0.13313779f,
0.14591816f,-0.067216948f,0.11163562f,0.11541467f,-0.068418711f,-0.072013564f,0.10941238f,-0.092221864f,
0.14713198f,0.14746933f,0.11158437f,0.093518078f,-0.093892381f,0.14452402f,0.048196759f,0.08684954f,
-0.1169036f,0.13002963f,-0.10059842f,-0.1348601f,-0.0053712321f,0.11153087f,0.085152395f,-0.091898322f,
0.11939868f,-0.10891318f,0.12893525f,0.15124114f,0.079384059f,0.062872529f,-0.11647101f,0.1161291f,
0.12799394f,-0.099101126f,0.10994162f,0.13743125f,-0.11505839f,-0.10112192f,0.10811321f,-0.088053532f,
0.11948801f,0.12095588f,0.11976825f,0.038450025f,-0.091464758f,0.085366562f,0.07715182f,0.088540703f,
-0.040303484f,0.068817541f,-0.091064177f,-0.088950507f,0.15123886f,0.038655747f,0.05397648f,-0.045161139f,
0.19859748f,-0.090585932f,0.078066766f,0.096917085f,0.082211591f,0.015769416f,-0.058937561f,-0.010907203f,
0.080681816f,-0.083727404f,0.12242911f,0.10426561f,-0.086956285f,-0.089134581f,0.16848724f,-0.06047181f,
0.080857463f,0.055363223f,0.057216134f,0.11814942f,-0.062284354f,0.13485035f,0.016538303f,0.12149339f,
-0.060672436f,0.11892138f,-0.092775248f,-0.06105458f,0.17664804f,0.10555617f,0.087830871f,-0.11307394f,
0.12703466f,-0.085434809f,0.092505544f,0.12601154f,0.10220116f,0.08886648f,-0.099537849f,0.10134335f,
0.081089973f,-0.084298193f,0.13268086f,0.091038145f,-0.10204249f,-0.063389666f,0.063059337f,-0.082426272f,
0.1069141f,0.1446958f,0.074888341f,0.055465993f,-0.1001239f,0.096900776f,0.069712564f,0.093388021f,
-0.10527063f,0.097967736f,-0.079002701f,-0.068086192f,0.090382405f,0.12705362f,0.10829926f,-0.11517014f,
0.13043398f,-0.12768976f,0.065209791f,0.089155488f,0.095555864f,0.11253234f,-0.070937067f,0.10469172f,
0.073319107f,-0.085373059f,0.14504933f,0.10482918f,-0.1320626f,-0.11544337f,0.10214925f,-0.10127755f,
0.15969682f,0.090399303f,0.13813661f,0.087685212f,-0.067295134f,0.11635078f,0.06704624f,0.13674758f,
-0.091965251f,0.16917336f,-0.11462627f,-0.08759816f,-0.011102232f,0.10536946f,0.13001075f,-0.096790358f,
0.0088234618f,-0.084298551f,0.12034108f,0.095054924f,0.13662657f,0.1264234f,-0.065347373f,0.13543844f,
0.1706682f,-0.09865512f,0.080426365f,0.088258296f,-0.069968909f,-0.07869067f,0.10668349f,-0.084254526f,
0.13837016f,0.05328007f,0.033159036f,0.097824685f,-0.05384538f,0.03784227f,0.077237964f,0.10574032f,
-0.10623036f,0.14738396f,-0.12164696f,-0.075384133f,0.091213554f,0.076150149f,0.098961987f,-0.12803394f,
0.036347769f,-0.069305673f,0.11808153f,0.091048874f,0.028402323f,0.07943745f,-0.052771837f,0.12849118f,
0.11865816f,-0.090309575f,0.086665623f,0.07308951f,-0.087730661f,-0.087760448f,0.17652781f,-0.070592962f,
0.12155125f,0.12921542f,0.10918606f,0.11590714f,-0.040566318f,0.12069853f,0.10190852f,0.12989938f,
-0.040410127f,0.10807067f,-0.042491868f,-0.039050691f,-0.00035396111f,0.084538817f,0.11562202f,-0.10015862f,
0.061374668f,-0.076243035f,0.1236686f,0.12956679f,0.10820106f,0.062240101f,-0.076900251f,0.11956511f,
0.1237933f,-0.055804897f,0.096545115f,0.10543203f,-0.081158817f,-0.051643934f,0.17609075f,-0.072367184f,
0.097326696f,0.049726125f,0.099790409f,0.1210715f,-0.076119766f,0.044950344f,0.017995981f,0.11074395f,
-0.05707147f,0.093583249f,-0.06523367f,-0.034760166f,0.12069447f,0.088126399f,0.10009374f,-0.044360377f,
0.10361237f,-0.055096194f,0.052824736f,0.057126865f,0.10933933f,0.10960782f,-0.035410516f,0.078050338f,
0.10769781f,-0.025122441f,0.082656801f,0.10322715f,-0.024444478f,-0.080332279f,0.24709503f,-0.085583366f,
0.11577766f,0.085528322f,0.10526957f,0.068364754f,-0.082311787f,0.11541011f,-0.011184824f,0.10445f,
-0.090154953f,0.12056348f,-0.09215501f,-0.087724701f,0.018786069f,0.070868917f,0.091746099f,-0.045938008f,
0.11173803f,-0.077675745f,0.037600193f,0.096889406f,0.058262099f,0.047245026f,-0.098019764f,0.10073716f,
0.10500418f,-0.06452889f,0.074402228f,0.086153917f,-0.05660852f,-0.070596226f,0.26650992f,-0.069920018f,
0.10173806f,0.062584288f,0.097398132f,0.089917719f,-0.051839858f,0.1343399f,0.13821323f,0.12636098f,
-0.11285705f,0.15487036f,-0.12923937f,-0.032593589f,0.043606259f,0.14220051f,0.15084249f,-0.10041866f,
-0.0015877509f,-0.095690325f,0.1295412f,0.14061201f,0.14041071f,0.12572101f,-0.1077319f,0.062996432f,
0.1534106f,-0.02687858f,0.09775316f,0.14248694f,-0.089381091f,-0.1058871f,0.099060431f,-0.079913713f,
0.13968375f,0.082971364f,0.17114444f,0.11282723f,-0.082357407f,0.15816787f,0.16093163f,0.081996031f,
-0.048826702f,0.097496502f,-0.071167372f,-0.041699741f,0.00511894f,0.1149402f,0.12045775f,-0.092617601f,
0.010292646f,-0.08141271f,0.13394012f,0.11200211f,0.1278311f,0.083920896f,-0.088539869f,0.11335147f,
0.16000865f,-0.032443129f,0.16221477f,0.082085222f,-0.065455996f,-0.12927732f,0.15893149f,-0.058816638f,
0.10237197f,0.071045808f,0.078015141f,0.10579742f,-0.08544255f,0.12731786f,0.018425751f,0.13292544f,
-0.04695097f,0.11575636f,-0.066933259f,-0.046445891f,0.10629696f,0.12720294f,0.065516926f,-0.11443074f,
0.080783382f,-0.046012305f,0.11839394f,0.078792155f,0.12507571f,0.13425247f,-0.057301018f,0.1211905f,
0.11402031f,-0.057082269f,0.12705128f,0.11725877f,-0.059494928f,-0.044556666f,0.16815063f,-0.047748763f,
0.082571387f,0.11165572f,0.14952871f,0.13181023f,-0.035949964f,0.13375759f,0.040819131f,0.13340104f,
-0.054882146f,0.10180153f,-0.071196884f,-0.04079305f,0.10135692f,0.097187035f,0.10955727f,-0.1211524f,
0.070295557f,-0.071624465f,0.086135484f,0.12726432f,0.107159f,0.13231301f,-0.046743229f,0.11853642f,
0.14680447f,-0.028359191f,0.087277099f,0.069098249f,-0.030382415f,-0.099711277f,0.17575271f,-0.10286784f,
0.091527224f,0.14565314f,0.022518808f,-0.15982921f,-0.11851957f,0.16854192f,0.043249667f,0.10225824f,
-0.11587248f,0.1623549f,-0.098428138f,-0.14783743f,0.14598204f,0.10114229f,0.14019136f,-0.086839557f,
0.066150494f,-0.10099953f,0.16440393f,0.13808422f,0.049071658f,0.023932803f,-0.10212032f,0.13162731f,
0.13220912f,-0.092611961f,0.1185205f,0.082773626f,-0.13275053f,-0.13778719f,0.11746725f,-0.12672952f,
0.07248605f,0.061592463f,0.036138371f,0.046890136f,-0.070661016f,0.065394714f,0.072297551f,0.069625944f,
-0.081443183f,0.054797973f,-0.056687903f,-0.083374366f,0.063463695f,0.075187735f,0.039741162f,-0.068531774f,
0.10068949f,-0.083967201f,0.04994287f,0.052495625f,0.034552831f,0.076615207f,-0.091326766f,0.06313587f,
0.057476509f,-0.074999154f,0.087011904f,0.057341531f,-0.079054631f,-0.061302353f,0.095240384f,-0.082050391f,
0.074976981f,0.038420498f,0.065122545f,0.063391976f,-0.084611431f,0.079023845f,0.02804957f,0.093701579f,
-0.047133528f,0.055527791f,-0.050323013f,-0.058480494f,0.042742688f,0.052273389f,0.034538873f,-0.067483231f,
0.0085227201f,-0.033163995f,0.038553257f,0.062947698f,0.053325042f,0.055880614f,-0.074768431f,0.044176247f,
0.054504395f,-0.046394408f,0.083040304f,0.055257011f,-0.046351653f,-0.070716821f,0.037998836f,-0.036088176f,
0.047446646f,0.034361128f,0.035790261f,0.056066778f,-0.049015421f,0.063359201f,0.0053850412f,0.059769794f,
-0.057264768f,0.04523696f,-0.059531622f,-0.051866286f,0.16273929f,0.08066158f,0.053925175f,-0.06739492f,
0.099954925f,-0.073159017f,0.033566318f,0.065271974f,0.067436323f,0.037193306f,-0.044521995f,0.06242533f,
0.064314231f,-0.074475631f,0.085600153f,0.038598523f,-0.056521527f,-0.049177419f,0.012924825f,-0.058389615f,
0.07716573f,0.073432937f,0.067015216f,0.055577517f,-0.076417081f,0.054561239f,0.086489342f,0.07124126f,
-0.050657086f,0.039368421f,-0.038468897f,-0.064610809f,0.032683708f,0.088793285f,0.052656729f,-0.06670469f,
0.14241455f,-0.049235605f,0.027637688f,0.043960042f,0.065358862f,0.073622465f,-0.034779549f,0.00036717099f,
0.089081272f,-0.040265482f,0.0588274f,0.030321889f,-0.071196988f,-0.043800157f,0.11590429f,-0.087185122f,
0.10766367f,0.098838642f,0.058051899f,0.092783898f,-0.10916399f,0.074255072f,0.03102909f,0.08881446f,
-0.16268109f,0.08766903f,-0.092935011f,-0.084559679f,-0.042002838f,0.075575061f,0.054715797f,-0.083564878f,
0.065802701f,-0.12363156f,0.063952081f,0.070162378f,0.082259901f,0.066392183f,-0.13819511f,0.049437944f,
0.088960029f,-0.065825045f,0.090738736f,0.076367378f,-0.082114123f,-0.093424916f,-0.037284259f,-0.07258822f,
0.072139822f,0.063817412f,0.060931139f,0.0059172292f,-0.086696655f,0.059801549f,0.016345752f,0.10193779f,
-0.087319002f,0.087055296f,-0.059891809f,-0.073016241f,-0.042842258f,0.089259192f,0.074663967f,-0.093430959f,
0.0049756453f,-0.095837474f,0.062370837f,0.067971356f,0.087791316f,0.081692532f,-0.062271293f,0.080904096f,
0.071185492f,-0.072189935f,0.10241615f,0.063180156f,-0.068462953f,-0.086765863f,0.020210039f,-0.060742833f,
0.062968299f,0.036437515f,0.045761209f,0.066222474f,-0.059859946f,0.052181538f,0.13024917f,0.09754163f,
-0.014636545f,0.026086619f,-0.035294879f,-0.079663105f,0.016002487f,0.043767355f,0.044713046f,-0.064468555f,
0.26247811f,-0.045210723f,0.018151732f,0.046095509f,0.087326214f,0.068164423f,-0.044809118f,0.063735336f,
0.069804162f,-0.036854483f,0.060388148f,0.025785169f,-0.066646099f,-0.064115867f,-0.0093969414f,-0.050639987f,
0.13308766f,0.086272009f,0.087961331f,0.090902433f,-0.11011087f,0.13056286f,0.079081371f,0.14958693f,
-0.11257095f,0.12501819f,-0.1048073f,-0.11681028f,0.13543934f,0.10500032f,0.087148674f,-0.13304734f,
-0.066677779f,-0.15274726f,0.12828504f,0.10729878f,0.12073367f,0.10981703f,-0.126911f,0.13553821f,
0.095575124f,-0.11905313f,0.1161269f,0.13381223f,-0.11184078f,-0.13444266f,-0.062635921f,-0.11141459f,
0.12519751f,0.079310313f,0.098116487f,0.10904529f,-0.10573374f,0.10825098f,0.084636867f,0.097451873f,
-0.10663301f,0.1282225f,-0.11972885f,-0.098564781f,0.17275874f,0.097030364f,0.067117468f,-0.11577199f,
0.013247007f,-0.11284739f,0.10888655f,0.10729924f,0.10069174f,0.085559092f,-0.087644592f,0.10554879f,
0.089952007f,-0.11226875f,0.072944455f,0.095174946f,-0.078910328f,-0.10557796f,-0.067113288f,-0.099181443f,
0.088959798f,0.087296002f,0.05957396f,0.048846371f,-0.032827366f,0.085816428f,0.064871877f,0.091221966f,
-0.055758726f,0.077751487f,-0.051923987f,-0.074986413f,-0.038441338f,0.056715947f,0.069621362f,-0.056725543f,
0.037305202f,-0.069623664f,0.08556544f,0.03472846f,0.06951797f,0.079125971f,-0.042663794f,0.039805867f,
0.055673577f,-0.046626668f,0.067349292f,0.055468462f,-0.058139544f,-0.040856279f,0.09182997f,-0.063015893f,
0.081030257f,0.075885832f,0.1061182f,0.13043863f,-0.097403899f,0.13742962f,0.063405484f,0.13155466f,
-0.11327484f,0.105429f,-0.089459673f,-0.10062965f,-0.070473708f,0.092521138f,0.11946355f,-0.077237859f,
0.011836221f,-0.12096876f,0.086515151f,0.14458351f,0.1080363f,0.084758893f,-0.11467081f,0.1138079f,
0.092054151f,-0.079800956f,0.14550784f,0.13147199f,-0.13738224f,-0.08451499f,0.062605157f,-0.091907591f,
0.10294696f,0.12139433f,0.12863238f,0.062654868f,-0.11859543f,0.10081223f,0.034735441f,0.12007187f,
-0.11772467f,0.15648405f,-0.11886822f,-0.12011991f,0.07008449f,0.11914428f,0.08284574f,-0.095463485f,
0.075261913f,-0.138899f,0.093033798f,0.11616062f,0.075907141f,0.12384059f,-0.13414182f,0.099284083f,
0.12110347f,-0.077576347f,0.11016519f,0.085852578f,-0.097510859f,-0.14318092f,-0.031265087f,-0.11564324f,
0.12087118f,0.13317592f,0.14646646f,0.075936586f,-0.12785146f,0.081228733f,0.099835612f,0.08077389f,
-0.077375054f,0.12233537f,-0.10545126f,-0.12125292f,0.15231542f,0.12554824f,0.097375974f,-0.13830027f,
-0.070392042f,-0.057675678f,0.062262006f,0.088749245f,0.06609872f,0.075690418f,-0.12081773f,0.094898328f,
0.11890838f,-0.049645863f,0.1076521f,0.11906362f,-0.085105173f,-0.11675466f,-0.0034601954f,-0.12094526f,
0.12805505f,0.093713246f,0.1043018f,0.10603438f,-0.11637685f,0.10841803f,0.061070371f,0.071006194f,
-0.11840366f,0.12534024f,-0.073997363f,-0.11249337f,0.071560241f,0.087773629f,0.078127563f,-0.048790175f,
0.0041702869f,-0.067410201f,0.062461082f,0.082171261f,0.061316647f,0.11295036f,-0.11913143f,0.085936122f,
0.051731214f,-0.086872928f,0.10507453f,0.11610156f,-0.11211117f,-0.11819727f,0.0086732041f,-0.077438168f,
0.10435645f,0.034274492f,0.01585329f,0.10002623f,-0.071193144f,0.055119026f,0.013941173f,0.048692603f,
-0.021234447f,0.073744908f,-0.087098569f,-0.025152866f,0.068513207f,0.069271214f,0.076320536f,-0.025789639f,
0.083017051f,-0.0748026f,0.1037991f,0.016104141f,0.028101185f,0.039205402f,-0.066746838f,0.087864175f,
0.101462f,-0.012958013f,0.04323639f,0.068154044f,-0.10535365f,-0.058634296f,0.17025325f,-0.070743807f,
0.12775314f,0.051530987f,0.068461128f,0.030606823f,-0.093545884f,0.03907137f,0.06759166f,0.11736589f,
-0.023568723f,0.046762679f,-0.078422181f,-0.072648004f,-0.061596259f,0.075450294f,0.035069741f,-0.044454049f,
0.01415399f,-0.019096334f,0.043579951f,0.054716643f,0.10111641f,0.0452324f,-0.094493933f,0.11317401f,
0.11725692f,-0.051824138f,0.064247422f,0.1054484f,-0.061563872f,-0.037910871f,0.14759442f,-0.035417203f,
0.11134215f,0.11907008f,0.088285841f,0.095780976f,-0.11090606f,0.09317559f,0.10843945f,0.1478648f,
-0.094535336f,0.095940493f,-0.088331401f,-0.089710809f,-0.01354317f,0.079601124f,0.098507904f,-0.077228658f,
0.083779976f,-0.11193885f,0.06599462f,0.1076693f,0.10208661f,0.10746124f,-0.074397348f,0.11985948f,
0.1376397f,-0.11370149f,0.11886071f,0.094704948f,-0.12141168f,-0.11127118f,-0.039339721f,-0.067044735f,
0.04532285f,0.027992947f,0.051581345f,0.12080676f,-0.055138033f,0.009395753f,0.11114573f,0.10306984f,
-0.075493194f,0.10102932f,-0.047319464f,-0.0171685f,0.06647674f,0.097496048f,0.089350797f,-0.040259659f,
0.084315568f,-0.090051517f,0.096932843f,0.07722076f,0.024375651f,0.084472157f,-0.097047992f,0.061887812f,
0.073935427f,-0.060044613f,0.062276855f,0.024608824f,-0.095773049f,-0.068438753f,0.1199704f,-0.086035825f,
0.099319622f,0.10147428f,0.095051333f,0.091314785f,-0.099561594f,0.10312827f,0.12006906f,0.10950102f,
-0.082052708f,0.10896353f,-0.064279154f,-0.0987451f,0.1107192f,0.13089386f,0.1015362f,-0.058973264f,
0.11958186f,-0.082882799f,0.12433453f,0.089601383f,0.098527566f,0.083018936f,-0.064100198f,0.10644496f,
0.076127708f,-0.094899803f,0.12944104f,0.12050012f,-0.064338349f,-0.099426977f,-0.072162859f,-0.08291623f,
0.066445269f,0.063935347f,0.06780006f,0.09488862f,-0.081489898f,0.066596426f,0.1105912f,0.077971265f,
-0.092295051f,0.056503646f,-0.07804013f,-0.092974871f,0.057496279f,0.085339606f,0.084156014f,-0.094161421f,
0.028763501f,-0.071541555f,0.017712992f,0.10104676f,0.086581953f,0.11765777f,-0.10205944f,0.086431786f,
0.1078154f,-0.056793727f,0.085874557f,0.051244855f,-0.060739554f,-0.087062828f,0.026868111f,-0.064086795f,
0.053647637f,0.075168051f,0.12514643f,0.06632898f,-0.071800962f,0.14288995f,0.066451497f,0.1525557f,
-0.070660025f,0.14270335f,-0.097206309f,-0.13838159f,-0.021087313f,0.11079617f,0.085765786f,-0.12625632f,
0.031890962f,-0.070851251f,0.098121591f,0.14554985f,0.075434633f,0.095887348f,-0.062500201f,0.13597709f,
0.15046771f,-0.1043274f,0.12695916f,0.087476306f,-0.080116354f,-0.068612427f,0.014760013f,-0.080730774f,
0.085624643f,-0.018627247f,0.055006415f,0.052700747f,-0.015856646f,0.033844545f,0.026770966f,0.041617084f,
-0.054931272f,0.033609163f,-0.044601642f,-0.028569879f,0.057556111f,0.079522818f,0.032496486f,-0.044717066f,
0.052982572f,-0.037723858f,0.079922229f,0.049809366f,-0.082951248f,0.074948266f,-0.043750338f,0.051481519f,
0.049965814f,-0.024633078f,0.058062501f,0.07860107f,-0.027645055f,-0.026825661f,0.20343868f,-0.037876319f,
0.13269316f,0.084451616f,0.13565797f,0.082059741f,-0.09810894f,0.069170333f,-0.039582022f,0.081559613f,
-0.073368721f,0.12566225f,-0.10401841f,-0.099677071f,0.082444392f,0.12415712f,0.11790897f,-0.088378601f,
0.11299989f,-0.11728978f,0.097824454f,0.082677707f,0.1003535f,0.087985754f,-0.1229096f,0.058241032f,
0.083148316f,-0.10890771f,0.098194093f,0.083151691f,-0.036307335f,-0.053134996f,-0.092208102f,-0.083166763f,
0.035198163f,0.066767395f,0.030241556f,0.096023008f,-0.061593503f,-0.028564759f,0.058264762f,0.025295213f,
-0.063910581f,0.12006256f,-0.06696254f,-0.026187124f,0.015126283f,0.040283762f,0.10514455f,-0.06708689f,
-0.036204368f,-6.2199237e-05f,0.0089131044f,0.094383396f,0.060872886f,0.10477696f,-0.023055751f,0.085013695f,
0.080058157f,-0.047877248f,0.10955773f,0.065314516f,-0.0065025659f,-0.0847155f,0.21506873f,-0.035762023f,
0.08813031f,0.034800179f,0.06674321f,0.095868692f,-0.035560068f,0.090980493f,0.075967506f,0.077106357f,
-0.04330945f,0.089934669f,-0.037775371f,-0.04180263f,0.12070391f,0.058796555f,0.060218975f,-0.10472605f,
0.14254953f,-0.047308575f,0.054212991f,0.064921312f,0.04742438f,0.061888952f,-0.077966705f,0.039523661f,
0.1094446f,-0.031772558f,0.048832037f,0.056876287f,-0.04433791f,-0.074519269f,0.044048682f,-0.091745518f,
0.052733339f,0.10574245f,0.05811087f,0.068813764f,-0.026985722f,0.059212543f,0.049670592f,0.075376056f,
-0.034361139f,0.058654502f,-0.04707915f,-0.059694242f,0.16549347f,0.026369963f,0.032582887f,-0.074095093f,
0.10671409f,-0.042953636f,0.035245001f,0.043553807f,0.061641183f,0.042727392f,-0.082027867f,0.058887921f,
0.056308545f,-0.080448389f,0.029453339f,0.05893226f,-0.026220059f,-0.061900496f,-0.029771103f,-0.05017928f,
0.064233594f,0.047454912f,0.12189929f,0.071868099f,-0.10025989f,0.082111023f,0.061975118f,0.095154896f,
-0.0078759044f,0.10156934f,-0.047831584f,-0.012739509f,0.011450294f,0.088293955f,0.081584923f,-0.064381458f,
0.039431568f,-0.054653984f,0.06942568f,0.069075458f,0.045292884f,0.030859997f,-0.044058491f,0.096069142f,
0.039330855f,0.0036748766f,0.048928451f,0.051476788f,-0.053557478f,-0.053247377f,0.069201544f,-0.094072551f,
0.050153438f,0.063876502f,0.052906919f,0.063479818f,-0.048782524f,0.074148476f,0.057394482f,0.036628794f,
-0.032162856f,0.04887981f,-0.021478772f,-0.030697796f,0.098514609f,0.068008438f,0.033769622f,-0.0070975721f,
0.13753475f,-0.048915584f,0.032699112f,0.041622858f,0.071363263f,0.050081197f,-0.043220896f,0.051853802f,
0.051395383f,-0.051977552f,0.066073246f,0.061783992f,-0.0036244069f,-0.048410986f,0.15805005f,-0.03625188f,
0.062427048f,0.052990776f,0.040471725f,0.0076681226f,-0.030462196f,-0.010932211f,0.029085876f,0.053399522f,
-0.0036640756f,0.0298288f,-0.024366165f,-0.035314389f,0.079342887f,0.014377576f,0.027830834f,0.002393293f,
0.33072183f,-0.004756371f,-0.034638397f,0.070775993f,0.016234994f,0.014674003f,-0.010893826f,0.068558581f,
0.037077591f,-0.058604758f,0.039351553f,0.074037969f,-0.01650482f,-0.060450472f,0.13119191f,-0.0056729158f,
0.0036713341f,0.015951268f,0.041417263f,0.050438233f,-0.049412902f,0.039385218f,0.017606912f,0.041680891f,
-0.030370776f,0.027037865f,-0.028432231f,-0.050986659f,-0.13966928f,0.048510473f,0.031080553f,-0.032856174f,
0.087187439f,-0.03870691f,0.030926798f,0.034848351f,0.055091515f,0.050380416f,-0.026353899f,0.047839355f,
0.039729733f,-0.026931165f,0.05986644f,0.037368421f,-0.020674588f,-0.028498961f,0.21213362f,-0.044736192f,
5.1932401e-40f,5.0091516e-40f,-5.5854496e-40f,-5.2584566e-40f,-4.9207857e-40f,-5.5968842e-40f,5.2471761e-40f,5.9868935e-40f,
5.0340947e-40f,5.9569058e-40f,6.0670899e-40f,5.0112675e-40f,5.2013817e-40f,-6.1842524e-40f,-5.911812e-40f,-5.1400328e-40f,
5.1600013e-40f,4.9162455e-40f,-6.1525831e-40f,5.2147501e-40f,5.625849e-40f,5.3081186e-40f,-5.0287137e-40f,-4.9226494e-40f,
-5.290266e-40f,-5.1950478e-40f,4.9598959e-40f,-5.0845134e-40f,5.0425445e-40f,-5.0225199e-40f,5.2668784e-40f,-5.862192e-40f,
0.068114035f,0.067140147f,0.048790328f,0.073887989f,-0.035382532f,0.070626244f,0.071201175f,0.069125213f,
-0.012165844f,0.072824769f,-0.048594739f,-0.044422705f,0.072664775f,0.014400236f,0.03722911f,-0.042551465f,
0.15304817f,-0.015012912f,0.025193194f,0.033615783f,0.079528272f,0.037567355f,0.0018458684f,0.03011078f,
0.072288059f,-0.0077966042f,0.070145875f,0.046211883f,-0.04500683f,-0.0048309905f,0.14907417f,-0.0058597852f,
-5.0144345e-40f,-5.1420647e-40f,5.2323924e-40f,5.2296599e-40f,5.1152158e-40f,-5.1894566e-40f,5.0178116e-40f,4.9261386e-40f,
-4.9733484e-40f,5.0273544e-40f,-5.4529428e-40f,-5.2128163e-40f,-5.03118e-40f,-6.2082987e-40f,-4.9861002e-40f,-5.4060273e-40f,
5.7469212e-40f,5.0633958e-40f,-5.4911562e-40f,5.2394409e-40f,5.8746075e-40f,4.950311e-40f,5.1507247e-40f,-5.5108024e-40f,
-5.0343609e-40f,-5.0396718e-40f,5.7861155e-40f,4.9452523e-40f,5.0471408e-40f,-5.3256208e-40f,-5.0283634e-40f,-5.5825629e-40f,
0.068378225f,0.055522665f,0.016147997f,0.029993474f,-0.024475085f,0.057523455f,0.093294531f,0.067374662f,
-0.0234592f,0.036032226f,-0.035515685f,-0.025613224f,0.16945159f,0.061500724f,0.045364451f,-0.058957644f,
0.13019165f,-0.03813266f,0.019009044f,0.057417177f,0.065239862f,0.043138355f,-0.039750196f,0.038721848f,
0.02274202f,-0.035162419f,0.042507723f,0.061651222f,-0.042133022f,-0.009423729f,0.14619941f,-0.029930949f,
4.9241068e-40f,5.2450321e-40f,-5.1131559e-40f,5.4493274e-40f,-5.8100777e-40f,5.1800539e-40f,5.5830393e-40f,-4.9629648e-40f,
-5.9979218e-40f,5.0211186e-40f,-4.9573456e-40f,-5.0468605e-40f,5.0444643e-40f,6.1093951e-40f,5.7071663e-40f,-5.5486375e-40f,
-5.3285635e-40f,6.1278081e-40f,4.9161754e-40f,-5.0730788e-40f,-6.2847535e-40f,-5.6629274e-40f,4.9853715e-40f,-5.4108478e-40f,
5.3624609e-40f,-5.9833623e-40f,-5.0822293e-40f,-5.2833576e-40f,5.0638723e-40f,5.059304e-40f,-5.0542173e-40f,-5.6018448e-40f,
0.038890943f,0.079371162f,0.077587716f,0.057531029f,-0.051338889f,0.047824297f,0.072871909f,0.037311874f,
-0.047703598f,0.06107555f,-0.016490411f,-0.068395495f,0.02981494f,0.068195432f,0.050370649f,-0.029880036f,
0.21388565f,-0.064057484f,0.051542021f,0.026947245f,0.070856139f,0.082068212f,-0.059495233f,0.085671566f,
0.079941139f,-0.035915203f,0.085906439f,0.071763553f,-0.015663853f,-0.041095067f,0.093589313f,-0.054381181f,
-5.3458696e-40f,-5.5685919e-40f,5.0104408e-40f,5.9551822e-40f,-5.5021284e-40f,5.54924e-40f,-5.8198868e-40f,-5.4732616e-40f,
5.2886405e-40f,4.94486e-40f,-5.3998896e-40f,-5.4759521e-40f,5.2714606e-40f,-4.9861422e-40f,-4.9624603e-40f,-4.9083562e-40f,
5.5680735e-40f,5.002033e-40f,-4.9886365e-40f,-5.2026569e-40f,5.1622855e-40f,5.0688329e-40f,5.1660269e-40f,5.24485e-40f,
-5.261035e-40f,-6.0270127e-40f,5.9786679e-40f,5.9993091e-40f,-5.6907431e-40f,-5.5461011e-40f,5.3659782e-40f,6.2012922e-40f,
0.10666763f,0.10354462f,0.12545046f,0.1000521f,-0.070254542f,0.077569582f,0.02077831f,0.043461952f,
-0.089095294f,0.072723255f,-0.10493471f,-0.086494818f,0.042943414f,0.12026826f,0.096224122f,-0.091399975f,
0.1484267f,-0.099267967f,0.060560044f,0.093498923f,0.066156551f,0.051380359f,-0.10120782f,0.047281109f,
0.082473278f,-0.06011346f,0.085528702f,0.059260655f,-0.10989119f,-0.093739003f,-0.0012589727f,-0.050845023f,
5.163995e-40f,-5.0430209e-40f,5.8663679e-40f,-5.4474357e-40f,-5.1969255e-40f,4.9967781e-40f,4.9382879e-40f,5.0499013e-40f,
5.7536194e-40f,5.0985264e-40f,5.8472261e-40f,-5.0232907e-40f,5.1795074e-40f,5.0527179e-40f,-5.0969849e-40f,-4.9919436e-40f,
-5.0017667e-40f,5.7634985e-40f,-6.1253278e-40f,5.0369954e-40f,-6.1586087e-40f,-5.107789e-40f,-5.5594695e-40f,-5.11324e-40f,
5.0541753e-40f,-4.9722554e-40f,5.2555279e-40f,-5.3984323e-40f,-5.694933e-40f,-5.1007825e-40f,-5.0103847e-40f,5.017181e-40f,
0.080823779f,0.0027943235f,0.10974032f,0.02005546f,-0.072854862f,0.10824756f,0.13493484f,0.12289716f,
-0.04607461f,0.085234009f,-0.10138702f,-0.053507008f,0.1327392f,0.099038526f,0.095333286f,-0.068793714f,
0.17041658f,-0.041458398f,0.10955675f,0.10641787f,0.11382722f,0.075908251f,-0.081234276f,0.049171388f,
0.081661738f,-0.08435037f,0.019545708f,0.09388677f,-0.087464146f,-0.071411826f,-0.06081143f,-0.033039983f,
-5.083014e-40f,5.0163542e-40f,-4.9068848e-40f,-5.6713071e-40f,5.2336956e-40f,-5.5116712e-40f,5.3763058e-40f,-4.9763752e-40f,
5.2618757e-40f,-5.1000117e-40f,5.4865599e-40f,5.1001379e-40f,5.3611577e-40f,-5.3676177e-40f,5.2045766e-40f,-5.1188312e-40f,
-5.3845314e-40f,5.5031373e-40f,5.3330337e-40f,5.6667669e-40f,-5.2704797e-40f,-4.9443135e-40f,5.9403844e-40f,-6.0039333e-40f,
-5.4951639e-40f,-5.6220795e-40f,5.3515588e-40f,-5.1395284e-40f,-5.1410978e-40f,-5.2550234e-40f,5.3014624e-40f,-5.1148375e-40f,
0.14128159f,0.0427767f,0.10033782f,0.0005499805f,-0.11748152f,0.12147576f,0.03934215f,0.11532546f,
-0.069272503f,0.10282033f,-0.12286622f,-0.077823795f,0.062139321f,0.10145088f,0.11923603f,-0.050277464f,
0.035560802f,-0.056301687f,0.066310182f,0.13987151f,0.12910318f,0.098299652f,-0.081445351f,0.12919998f,
0.14534281f,-0.067909986f,0.10650795f,0.12793531f,-0.078529641f,-0.1131436f,0.032104339f,-0.10616159f,
-4.996722e-40f,5.4055228e-40f,-6.090996e-40f,-5.2474564e-40f,5.2002747e-40f,5.1552229e-40f,5.013972e-40f,5.3330197e-40f,
6.1208437e-40f,4.9625444e-40f,-5.2446257e-40f,-5.0983022e-40f,6.2318685e-40f,-5.2280204e-40f,-4.9896595e-40f,5.431545e-40f,
5.7204507e-40f,-5.1528827e-40f,-6.1090447e-40f,5.3142002e-40f,5.9039647e-40f,5.351713e-40f,-4.9948583e-40f,5.1508929e-40f,
5.0227021e-40f,4.9593354e-40f,5.211429e-40f,5.421834e-40f,5.9773227e-40f,5.2164456e-40f,6.1267431e-40f,5.5537382e-40f,
0.10301235f,0.024948295f,0.091083772f,0.087194547f,-0.047157589f,0.086864583f,0.048855733f,0.11769929f,
-0.14021626f,0.073052064f,-0.12071171f,-0.05985821f,0.0098843742f,0.089585893f,0.10532583f,-0.11501563f,
0.18278284f,-0.081310287f,0.029753326f,0.10393915f,0.13218047f,0.13677514f,-0.12685607f,0.063695848f,
0.1162076f,-0.095895216f,0.1022759f,0.065626681f,-0.10596194f,-0.11080562f,-0.072320186f,-0.066591799f,
-5.1934223e-40f,-5.0749145e-40f,-5.3230564e-40f,-5.6267038e-40f,6.1173124e-40f,-5.7310585e-40f,-5.2801066e-40f,-5.7286202e-40f,
-4.9475084e-40f,5.1295371e-40f,5.2201311e-40f,5.0908052e-40f,6.2333539e-40f,5.0507281e-40f,5.3225379e-40f,-5.1615007e-40f,
5.2959693e-40f,-4.9118174e-40f,-5.1181305e-40f,-5.6065251e-40f,5.0952333e-40f,6.0556132e-40f,-5.1236096e-40f,-5.3348974e-40f,
-5.671223e-40f,5.1046641e-40f,5.3421281e-40f,-5.1214376e-40f,-5.8505472e-40f,-4.9586207e-40f,4.9153346e-40f,-5.8258703e-40f,
0.099074274f,0.10475289f,0.087666087f,0.067727037f,-0.029424543f,0.042881906f,0.0346255f,0.050418656f,
-0.047219358f,0.10893568f,-0.081189141f,-0.034411144f,0.035430118f,0.11372406f,0.060711578f,-0.04804413f,
0.082171179f,-0.059619233f,0.065774031f,0.12168643f,0.11025946f,0.062686235f,-0.061716586f,0.089197315f,
0.086881369f,-0.058398999f,0.12275684f,0.064191133f,-0.037904818f,-0.084573008f,0.061066829f,-0.052116022f,
5.2798824e-40f,-4.9381197e-40f,-6.1112448e-40f,-5.5453864e-40f,-6.0095806e-40f,4.9558882e-40f,-6.258269e-40f,5.1922732e-40f,
-5.3951672e-40f,-5.5939554e-40f,-5.2174546e-40f,5.076526e-40f,5.677613e-40f,-4.9520486e-40f,4.9909767e-40f,-5.3016726e-40f,
-5.1892044e-40f,5.1292148e-40f,6.1436428e-40f,-5.0575944e-40f,5.1982568e-40f,-5.0471408e-40f,-5.3505359e-40f,-5.4872466e-40f,
5.2102939e-40f,-6.0010887e-40f,5.1603376e-40f,5.8591932e-40f,-5.2350128e-40f,-5.1254733e-40f,5.4008425e-40f,-5.0303952e-40f,
0.071928367f,-0.14197075f,0.061384637f,0.1475499f,-0.086212367f,0.089619674f,0.11206286f,-0.0013202896f,
-0.086499572f,0.13241796f,-0.058550768f,-0.10004649f,0.031113124f,0.099948086f,0.057878125f,-0.046187479f,
0.23223348f,-0.094989374f,0.054484185f,0.098789327f,0.085372746f,0.021674065f,-0.067342132f,0.089678094f,
0.13929528f,-0.083293594f,0.13649635f,0.094842747f,-0.061997037f,-0.093117528f,-0.051940821f,-0.070522673f,
6.0516335e-40f,4.9879919e-40f,-6.0798977e-40f,4.9844186e-40f,5.2634872e-40f,5.1972619e-40f,-6.2472128e-40f,6.1068447e-40f,
4.9335235e-40f,-4.9389465e-40f,5.2120456e-40f,-5.3918742e-40f,5.1222644e-40f,-5.4399107e-40f,5.1811609e-40f,5.8668723e-40f,
-5.087358e-40f,-5.0086191e-40f,-5.1136884e-40f,-6.2922785e-40f,-6.0719524e-40f,-4.9213742e-40f,5.5365022e-40f,5.4418165e-40f,
-5.140257e-40f,-5.1722767e-40f,4.9984737e-40f,4.983746e-40f,-5.6941062e-40f,4.9149983e-40f,-5.4332405e-40f,-5.0007578e-40f,
0.11105478f,0.088766657f,0.10056804f,0.021183599f,-0.062894769f,0.12280834f,-0.041763898f,0.10621571f,
-0.039050117f,0.11977722f,-0.062264249f,-0.10232853f,0.076793589f,0.10898802f,0.10949273f,-0.087649897f,
0.09895841f,-0.09729033f,0.11448615f,0.065623015f,0.03454854f,0.11169536f,-0.11085883f,0.096801281f,
0.11031417f,-0.093318194f,0.10642301f,0.044511963f,-0.069257759f,-0.10899507f,-0.031351026f,-0.11554044f,
-6.012229e-40f,-5.5559382e-40f,5.236232e-40f,-5.6972311e-40f,-5.4469172e-40f,5.5439992e-40f,5.1891483e-40f,5.3487002e-40f,
-5.1356187e-40f,-5.3229443e-40f,-5.0839809e-40f,5.0481777e-40f,-5.1039914e-40f,5.6157456e-40f,5.0547778e-40f,5.6704383e-40f,
5.1241141e-40f,-6.2656398e-40f,5.1921051e-40f,5.5073272e-40f,5.0925148e-40f,4.977258e-40f,5.7912723e-40f,5.047365e-40f,
-6.029423e-40f,5.2537202e-40f,5.0527319e-40f,-5.4718043e-40f,5.0823554e-40f,-5.031194e-40f,-5.1265523e-40f,-5.9867814e-40f,
0.13908909f,0.12471647f,0.097855322f,0.13966627f,-0.053908147f,0.043107022f,0.022745041f,0.097468629f,
-0.065326907f,0.14063849f,-0.037977178f,-0.054530121f,0.023312194f,0.10975645f,0.059463862f,-0.027533008f,
0.12111088f,-0.040592298f,0.039218351f,0.122639f,0.075080492f,0.1153674f,-0.039532229f,0.11360713f,
0.099454254f,-0.05313981f,0.097530201f,0.091307566f,-0.049714755f,-0.056082778f,0.0058817412f,-0.053627107f,
-5.6521514e-40f,-5.220047e-40f,5.8258423e-40f,-4.9059459e-40f,-4.9848811e-40f,-5.1500101e-40f,4.9668604e-40f,4.9136811e-40f,
-6.0136864e-40f,-5.0345571e-40f,-5.3832422e-40f,-5.0316844e-40f,-5.21035e-40f,-5.3795007e-40f,-5.0284614e-40f,-5.4794413e-40f,
-5.1651161e-40f,-5.1912923e-40f,-5.1782182e-40f,-5.1493515e-40f,-4.989127e-40f,-5.1059112e-40f,5.4234034e-40f,5.0342768e-40f,
4.9565748e-40f,-4.9210099e-40f,5.2674109e-40f,5.3034382e-40f,5.2444996e-40f,4.9413147e-40f,5.1819597e-40f,5.9250542e-40f,
0.13799812f,0.075409628f,0.07953307f,0.13275787f,-0.023352601f,0.043261584f,0.090382315f,0.098332807f,
-0.049266901f,0.11785087f,-0.074926145f,-0.043051399f,0.13579263f,0.098539814f,0.11443546f,-0.047252532f,
0.10947566f,-0.015248478f,0.10696205f,0.11546426f,0.084202029f,0.11698712f,-0.031294234f,0.12342282f,
0.078861229f,-0.043851785f,0.11631924f,0.09875191f,0.012628349f,-0.021880304f,0.0010204612f,-0.062193248f,
-5.0928511e-40f,-6.2154173e-40f,-5.1887139e-40f,-5.9027736e-40f,-5.5420093e-40f,5.2706058e-40f,5.3233087e-40f,-5.1426953e-40f,
5.5689142e-40f,-5.248171e-40f,-4.909281e-40f,6.1998208e-40f,-5.2685179e-40f,5.9330276e-40f,5.0385228e-40f,-5.1872426e-40f,
5.0412973e-40f,5.9996874e-40f,-5.1313448e-40f,5.1400468e-40f,-5.5884203e-40f,-6.2428968e-40f,4.9359898e-40f,5.2703536e-40f,
5.0362527e-40f,-5.21688e-40f,5.2990942e-40f,5.9987065e-40f,5.0624429e-40f,-5.5072431e-40f,-5.3156716e-40f,4.937335e-40f,
0.044888854f,0.0085160425f,0.064291134f,0.062372282f,-0.016933832f,0.10366081f,0.054252535f,0.10466565f,
-0.065039761f,0.1027393f,-0.036880624f,-0.082373239f,0.076086618f,0.059895899f,0.082647428f,-0.078101128f,
0.1242249f,-0.022925314f,0.049998615f,0.076087654f,0.085353866f,0.090667851f,-0.017934242f,0.066648662f,
0.1010112f,-0.080911689f,0.065941073f,0.086328059f,-0.041206285f,-0.054621756f,0.010589004f,-0.067647867f,
6.1031733e-40f,5.0059005e-40f,5.319315e-40f,5.9193229e-40f,5.1314569e-40f,5.7498499e-40f,-5.6351536e-40f,5.3667069e-40f,
-5.0210206e-40f,-4.9184035e-40f,-5.5939975e-40f,-6.1626584e-40f,5.0831962e-40f,-4.9710362e-40f,-5.1088539e-40f,-5.3797109e-40f,
5.418597e-40f,6.1504251e-40f,-5.0524797e-40f,5.4581136e-40f,-6.2994532e-40f,-5.0727145e-40f,4.9642259e-40f,5.2338638e-40f,
-5.2880099e-40f,5.7526245e-40f,-5.6975955e-40f,-4.9544869e-40f,5.6437716e-40f,-6.252846e-40f,4.9723955e-40f,5.1906617e-40f,
0.10086621f,0.096109748f,0.069574088f,0.053047772f,-0.089059271f,0.091951855f,0.046558615f,0.13431014f,
-0.07032948f,0.10727368f,-0.038761031f,-0.033987891f,0.046456367f,0.082845889f,0.068031847f,-0.088549964f,
-0.002476359f,-0.011280536f,0.043805253f,0.11341708f,0.043387163f,0.047454685f,-0.07648015f,0.065008439f,
0.059486553f,-0.089507096f,0.10307115f,0.060183942f,0.0076725469f,-0.11130732f,0.041831363f,-0.048209503f,
4.9322903e-40f,-5.1878872e-40f,-5.9909573e-40f,5.2413327e-40f,5.0627652e-40f,5.2131246e-40f,4.9985017e-40f,-5.6570279e-40f,
-5.126188e-40f,-5.1864999e-40f,5.1480202e-40f,-5.909682e-40f,-5.6749505e-40f,6.184883e-40f,5.0622748e-40f,-4.9517544e-40f,
5.1464788e-40f,4.9421975e-40f,-5.0709068e-40f,6.0848863e-40f,5.1081253e-40f,-4.9246813e-40f,5.2797283e-40f,-5.3673655e-40f,
4.9537863e-40f,5.0639143e-40f,-5.0762317e-40f,-5.7339311e-40f,-5.2496844e-40f,-5.8569792e-40f,5.1280798e-40f,-5.4961868e-40f,
0.1235702f,0.13118267f,0.099796101f,0.128313f,-0.12345446f,0.12600107f,0.071403585f,0.081389591f,
-0.11809195f,0.12352144f,-0.10349518f,-0.065413773f,0.062455215f,0.093939483f,0.10394489f,-0.10122146f,
0.044557635f,-0.1217576f,0.085886858f,0.087469153f,0.086600982f,0.11017652f,-0.084197864f,0.11476744f,
0.10322795f,-0.072185047f,0.11612552f,0.1177034f,-0.091147318f,-0.084192351f,-0.099393092f,-0.12431664f,
0.20496379f,0.17463252f,0.15876646f,0.1820046f,-0.22060822f,0.20229323f,0.20402457f,0.20705791f,
-0.21722093f,0.17110601f,-0.16736983f,-0.24911419f,0.22313811f,0.22502297f,0.15802856f,-0.20818545f,
0.18481001f,-0.1966124f,0.19915347f,0.18299723f,0.17884026f,0.20022002f,-0.25983432f,0.16505353f,
0.18824011f,-0.2173043f,0.2166722f,0.17893173f,-0.22064762f,-0.19535375f,0.1941497f,-0.19038136f,
0.18380111f,0.16415194f,0.1550137f,0.18639474f,-0.20235278f,0.18321712f,0.19071482f,0.19531889f,
-0.22935814f,0.15566443f,-0.15413755f,-0.20784308f,0.19686969f,0.19557953f,0.13645709f,-0.17660472f,
0.25179863f,-0.23237011f,0.17021048f,0.17216258f,0.16130541f,0.16008256f,-0.2484666f,0.15944788f,
0.17267364f,-0.2510047f,0.19762416f,0.16113147f,-0.2044753f,-0.20424373f,0.1371104f,-0.17791107f,
0.15285075f,0.12408768f,0.15166426f,0.16333821f,-0.19530667f,0.16836764f,0.13727778f,0.16494127f,
-0.19634038f,0.13218628f,-0.15189177f,-0.19849327f,0.16982043f,0.17618522f,0.13952343f,-0.21535853f,
0.4442063f,-0.14550485f,0.13293828f,0.17634033f,0.15446104f,0.17573968f,-0.23115842f,0.12124903f,
0.17622122f,-0.17853457f,0.2017068f,0.1407942f,-0.19000919f,-0.18220432f,0.15193047f,-0.20321427f,
0.18546189f,0.18640693f,0.16840819f,0.096737243f,-0.23142728f,0.20516315f,0.1700325f,0.15443613f,
-0.15107338f,0.16604026f,-0.20657641f,-0.14159472f,0.24621616f,0.1202019f,0.16505463f,-0.19044144f,
0.23687248f,-0.16715564f,0.16837394f,0.16788347f,0.10123952f,0.11560906f,-0.18511473f,0.15314466f,
0.17008621f,-0.17564926f,0.20714511f,0.14048111f,-0.16166322f,-0.21001263f,0.24391963f,-0.19457085f,
0.12501058f,0.13955978f,0.17470887f,0.14042994f,-0.15568033f,0.17672189f,0.18825555f,0.16991009f,
-0.14698291f,0.16148674f,-0.20617601f,-0.12639938f,0.27390736f,0.12281249f,0.10926379f,-0.15820536f,
0.18870041f,-0.16100928f,0.14076993f,0.20776017f,0.15419811f,0.15916692f,-0.14177679f,0.14518808f,
0.18232119f,-0.13430771f,0.15536508f,0.18316594f,-0.20301417f,-0.21620741f,0.2449806f,-0.20610483f,
0.16119628f,0.18896651f,0.15441611f,0.16884032f,-0.22228169f,0.20006223f,0.16521795f,0.20796311f,
-0.31375992f,0.17494449f,-0.19675346f,-0.1574993f,0.22203091f,0.16726975f,0.13373567f,-0.18224068f,
0.25168186f,-0.20558219f,0.17223223f,0.16368896f,0.14691977f,0.15469274f,-0.17705673f,0.15459768f,
0.1967314f,-0.1595474f,0.17459679f,0.16951278f,-0.20326534f,-0.18255761f,0.20705228f,-0.21007545f,
0.22847307f,0.21372271f,0.16752575f,0.18440309f,-0.27154079f,0.23978697f,0.21732694f,0.25806275f,
-0.25202715f,0.18974951f,-0.19492732f,-0.24678029f,0.19703881f,0.25244534f,0.15820058f,-0.24961473f,
0.0057453392f,-0.25665531f,0.22185223f,0.17534967f,0.20928536f,0.23774475f,-0.32195947f,0.19768061f,
0.18356293f,-0.26022002f,0.27032074f,0.18093964f,-0.24323122f,-0.22783095f,0.27521956f,-0.25775111f,
0.1683656f,0.18703613f,0.20336716f,0.21876733f,-0.22639349f,0.2009422f,0.18990581f,0.19941773f,
-0.16651924f,0.17660889f,-0.17583154f,-0.1665206f,0.28381798f,0.16385929f,0.19185582f,-0.22023489f,
0.32853037f,-0.17927003f,0.15475896f,0.21758729f,0.16525173f,0.14873965f,-0.15901227f,0.19761118f,
0.21488222f,-0.16783476f,0.20991257f,0.19761838f,-0.19633482f,-0.18831488f,0.14290893f,-0.15101328f,
0.16892698f,0.17097025f,0.1714866f,0.1743533f,-0.21923524f,0.19067898f,0.13973059f,0.20560431f,
-0.13576338f,0.19275695f,-0.18842869f,-0.22297092f,0.18746965f,0.20596357f,0.19080012f,-0.20402239f,
0.2060871f,-0.21019818f,0.1684576f,0.17162734f,0.17300127f,0.16663794f,-0.21432771f,0.18193659f,
0.20562315f,-0.19324416f,0.22008686f,0.16661976f,-0.18890062f,-0.23480096f,0.17121711f,-0.19370866f,
0.10661691f,0.14206365f,0.1315843f,0.10062836f,-0.1241834f,0.14582172f,0.10286665f,0.13700403f,
-0.14131387f,0.12796757f,-0.14473413f,-0.1647954f,0.22420475f,0.099282995f,0.079510845f,-0.12670554f,
0.29951021f,-0.10421045f,0.13622802f,0.17328188f,0.13948578f,0.12115643f,-0.18250303f,0.059864227f,
0.13578098f,-0.16491799f,0.13572231f,0.097540975f,-0.17151603f,-0.16931434f,0.3197917f,-0.090750039f,
0.16172643f,0.14727284f,0.1717284f,0.12844846f,-0.21948376f,0.13324818f,0.19342642f,0.17802459f,
-0.13696976f,0.19607265f,-0.14479715f,-0.15218693f,0.37382397f,0.12856127f,0.14537688f,-0.20864551f,
0.12872633f,-0.13731432f,0.14967002f,0.2165097f,0.13827316f,0.16772428f,-0.14571127f,0.13056682f,
0.21689747f,-0.15546393f,0.16739364f,0.14323713f,-0.1885816f,-0.17825714f,0.1747912f,-0.22423236f,
0.16554493f,0.15459105f,0.19688597f,0.14629303f,-0.21451244f,0.14244451f,0.15081786f,0.18721165f,
-0.17468971f,0.15795399f,-0.16092777f,-0.23492579f,0.26134881f,0.14563604f,0.16196312f,-0.15216708f,
0.21365884f,-0.17671479f,0.16730094f,0.16309348f,0.1942936f,0.17270926f,-0.13869512f,0.15752602f,
0.1749202f,-0.15844338f,0.14799593f,0.13173234f,-0.1583986f,-0.19801195f,0.27846172f,-0.18758108f,
0.14903611f,0.18438168f,0.16264771f,0.20049983f,-0.15566905f,0.18577942f,0.14531818f,0.2053663f,
-0.19552651f,0.17893729f,-0.21574306f,-0.1435605f,0.27774617f,0.1973536f,0.18156418f,-0.22560422f,
0.18238927f,-0.17367131f,0.17824537f,0.22095691f,0.14011505f,0.17117321f,-0.20081779f,0.16914523f,
0.18655883f,-0.13287896f,0.19347763f,0.20160978f,-0.16994201f,-0.19628583f,0.26707065f,-0.18616301f,
0.15534583f,0.094042227f,0.14539771f,0.078793988f,-0.18514131f,0.17583279f,0.16558214f,0.09370739f,
-0.12622729f,0.14546071f,-0.18661126f,-0.13058251f,0.23846f,0.1280926f,0.18026221f,-0.1218216f,
0.25580409f,-0.16613267f,0.12446037f,0.16424571f,0.1554807f,0.15378469f,-0.17880523f,0.16894916f,
0.13546145f,-0.11611687f,0.18563557f,0.18040013f,-0.19293292f,-0.16635698f,0.29224768f,-0.18069007f,
0.15624377f,0.14143479f,0.12971759f,0.10642193f,-0.15884019f,0.16281702f,0.1359535f,0.14262439f,
-0.16779107f,0.14032985f,-0.14225054f,-0.12920499f,0.22521527f,0.1442938f,0.10954567f,-0.12624945f,
0.19940527f,-0.15479857f,0.12472557f,0.13191806f,0.074367084f,0.079209484f,-0.14211506f,0.15241784f,
0.16892563f,-0.11773225f,0.15770516f,0.11551583f,-0.16688903f,-0.12632912f,0.35335398f,-0.13960627f,
0.14570187f,0.14546178f,0.12186363f,0.10342484f,-0.17840682f,0.17037599f,0.15738879f,0.15499502f,
-0.11312413f,0.17171542f,-0.16179937f,-0.19662936f,0.38819447f,0.1671948f,0.12150701f,-0.17018539f,
0.20720026f,-0.19184993f,0.13123725f,0.18024632f,0.1803337f,0.14657709f,-0.14243676f,0.12431694f,
0.13039459f,-0.097651012f,0.15803412f,0.14935975f,-0.15095691f,-0.20950009f,0.24055843f,-0.16387017f,
0.16578206f,0.11599241f,0.15936913f,0.18655305f,-0.14918299f,0.18441653f,0.13592084f,0.13831663f,
-0.11357147f,0.17484726f,-0.18471324f,-0.11657134f,0.32244781f,0.14175104f,0.16555247f,-0.14485529f,
0.09142404f,-0.1809403f,0.11585984f,0.19847429f,0.13131022f,0.16329128f,-0.14221087f,0.19500116f,
0.22150406f,-0.15089902f,0.15348008f,0.15409307f,-0.20309561f,-0.18390779f,0.30452505f,-0.13358486f,
0.15089098f,0.090634726f,0.12724273f,0.17284493f,-0.18024488f,0.16562892f,0.16739625f,0.13176844f,
-0.15923437f,0.20165631f,-0.15220018f,-0.15024123f,0.27315366f,0.15965042f,0.13057615f,-0.10703198f,
0.23510171f,-0.19471501f,0.1134227f,0.13490228f,0.1567215f,0.16811f,-0.1855997f,0.15870708f,
0.13744311f,-0.12872714f,0.16166216f,0.14183752f,-0.183091f,-0.14778696f,0.24051178f,-0.16122007f,
0.167083f,0.1742648f,0.20018816f,0.14487794f,-0.1556094f,0.11699764f,0.13640192f,0.17599933f,
-0.12957975f,0.14692581f,-0.14803649f,-0.16812743f,0.27374122f,0.16069466f,0.12465738f,-0.1126373f,
0.10672197f,-0.17111705f,0.097372852f,0.2274069f,0.13024646f,0.099951066f,-0.1770574f,0.1182567f,
0.20703073f,-0.080935255f,0.17686655f,0.12823622f,-0.19664289f,-0.20938641f,0.29002336f,-0.16858451f,
0.173051f,0.17064306f,0.1112041f,0.1629899f,-0.13351151f,0.1300558f,0.14964639f,0.18091796f,
-0.10070363f,0.15391578f,-0.16832136f,-0.11866951f,0.27946773f,0.10452461f,0.16583225f,-0.11793015f,
0.34859166f,-0.12322517f,0.11006934f,0.18974862f,0.11592004f,0.10669639f,-0.13712735f,0.11474817f,
0.14328608f,-0.12325995f,0.18946481f,0.16207144f,-0.18265106f,-0.19394922f,0.19810531f,-0.1259471f,
0.21289957f,0.12355631f,0.19909614f,0.20750125f,-0.17389286f,0.13885395f,0.20314687f,0.1370492f,
-0.15407428f,0.18905328f,-0.15901519f,-0.15948018f,0.24652721f,0.16073842f,0.15713142f,-0.18519019f,
-0.098879129f,-0.12456336f,0.16127719f,0.15958886f,0.1554869f,0.13421637f,-0.15081792f,0.13037004f,
0.21823856f,-0.12394518f,0.18336327f,0.15941107f,-0.18441537f,-0.14771f,0.23016514f,-0.18393946f,
0.19672246f,0.17919962f,0.21568337f,0.18626629f,-0.14991473f,0.16705538f,0.13842593f,0.18668474f,
-0.13207334f,0.2137998f,-0.16592051f,-0.16393293f,0.28616375f,0.1964654f,0.18475638f,-0.14218473f,
0.019226981f,-0.18914202f,0.15738304f,0.20203203f,0.14297192f,0.13823943f,-0.15070796f,0.15728961f,
0.15206508f,-0.15737958f,0.19708237f,0.14222606f,-0.12928787f,-0.20708212f,0.17491101f,-0.128306f,
0.20241162f,0.16510284f,0.17802654f,0.16130206f,-0.18860479f,0.11803682f,0.15165357f,0.18202981f,
-0.12985449f,0.20594704f,-0.15248013f,-0.12590337f,0.25535017f,0.16961807f,0.19479963f,-0.10609551f,
0.046148282f,-0.18824695f,0.087845653f,0.18761778f,0.17037541f,0.12493325f,-0.14451881f,0.13401699f,
0.14881088f,-0.092133395f,0.1968711f,0.17102164f,-0.18884884f,-0.20708515f,0.25482842f,-0.11424027f,
0.14926945f,0.17086194f,0.15747644f,0.16832012f,-0.12147966f,0.14427248f,0.1663532f,0.15679593f,
-0.15877883f,0.17315099f,-0.14513196f,-0.16982053f,0.25770706f,0.12838395f,0.15893248f,-0.14092241f,
0.20439564f,-0.10023477f,0.16855639f,0.1952083f,0.18182857f,0.1419602f,-0.13376181f,0.10913384f,
0.1542448f,-0.099161133f,0.15109998f,0.14296608f,-0.11684239f,-0.19493651f,0.23232573f,-0.17423706f,
0.13837735f,0.19457547f,0.23586451f,0.18352523f,-0.15303759f,0.16567168f,0.056253016f,0.16898121f,
-0.14914085f,0.16967413f,-0.20387383f,-0.10917011f,0.2954587f,0.14164093f,0.20168179f,-0.12717916f,
0.0048364801f,-0.17599194f,0.1882723f,0.19747964f,0.20476905f,0.18049896f,-0.1426678f,0.15012333f,
0.15553786f,-0.099021755f,0.16938511f,0.18875523f,-0.20613532f,-0.18730994f,0.22665513f,-0.16754496f,
0.15486445f,0.13776627f,0.13653545f,0.18077202f,-0.13979103f,0.18616225f,0.19640878f,0.1911709f,
-0.14756173f,0.17479101f,-0.15660985f,-0.10755532f,0.33577973f,0.18360569f,0.13142173f,-0.16765261f,
0.042883296f,-0.14321692f,0.18998033f,0.17846212f,0.14386077f,0.13857725f,-0.15824379f,0.1791057f,
0.19766475f,-0.16858672f,0.18516758f,0.15885837f,-0.15323322f,-0.14152189f,0.19956885f,-0.14621925f,
0.18896981f,0.14379455f,0.15370083f,0.12227434f,-0.17910004f,0.17538941f,0.15648381f,0.15567018f,
-0.095944971f,0.18355523f,-0.13283481f,-0.10713439f,0.24684641f,0.16781771f,0.17147706f,-0.11113043f,
0.1256635f,-0.10577297f,0.15113212f,0.16958009f,0.1255082f,0.14460358f,-0.10142301f,0.15122536f,
0.18047552f,-0.16740526f,0.15075728f,0.16467415f,-0.14733978f,-0.19668661f,0.25564519f,-0.10555926f,
0.17756993f,0.18404563f,0.15809172f,0.19890271f,-0.13083354f,0.21772736f,0.16864274f,0.16171199f,
-0.15998958f,0.1818217f,-0.19871968f,-0.12457935f,0.25774795f,0.16740535f,0.17187405f,-0.15816568f,
0.02234683f,-0.099250436f,0.14962596f,0.22986509f,0.13074408f,0.1494039f,-0.15549746f,0.13364021f,
0.15862599f,-0.1313027f,0.20812395f,0.20735072f,-0.12315805f,-0.15513147f,0.18137777f,-0.15351714f,
0.145239f,0.11405424f,0.16911522f,0.19440059f,-0.11670499f,0.18936026f,0.1645066f,0.15263835f,
-0.12339849f,0.19926007f,-0.14735132f,-0.18165819f,0.29467461f,0.10230824f,0.19132087f,-0.19840313f,
0.043299362f,-0.11264379f,0.16135161f,0.19072819f,0.13207997f,0.10371229f,-0.19195229f,0.10664714f,
0.14613624f,-0.10852335f,0.17889431f,0.12037332f,-0.19763626f,-0.17056157f,0.18758886f,-0.1625271f,
0.1231736f,0.1432184f,0.15724917f,0.1279493f,-0.15317543f,0.13774134f,0.18211332f,0.17203543f,
-0.15101755f,0.16663797f,-0.15764068f,-0.15470485f,0.1961351f,0.11684676f,0.15812805f,-0.15252666f,
0.14057671f,-0.11704093f,0.11651944f,0.16496341f,0.1483904f,0.15146284f,-0.11082264f,0.14719458f,
0.13975827f,-0.086743891f,0.1535605f,0.12319178f,-0.15768661f,-0.14075312f,0.28238767f,-0.10881309f,
0.010541741f,0.010956187f,-0.01230454f,0.0094677238f,0.072375149f,0.012756866f,-0.0066242563f,0.017769463f,
0.068742186f,0.016602091f,0.046251286f,0.067603983f,0.02911949f,-0.011374789f,-0.011537238f,0.068580337f,
0.044572435f,0.068990506f,-0.01012115f,-0.0048173349f,-0.0088574002f,0.005462131f,0.084316961f,-0.014898383f,
-0.0082551716f,0.071179062f,0.0058034277f,-0.01398159f,0.061526135f,0.054059058f,0.043978129f,0.065068074f,
-0.011448473f,0.026357189f,-0.0022345684f,0.0059989118f,0.074515693f,0.0092357984f,0.012704401f,0.010564948f,
0.076524161f,0.0041036024f,0.050858136f,0.065576971f,0.062430758f,-0.0093317404f,-0.017417353f,0.063214399f,
0.03555648f,0.06885504f,0.015693998f,-0.011369259f,-0.0024235419f,0.022772726f,0.067353569f,-0.0002814155f,
-0.0074942471f,0.070451729f,0.0044130362f,-0.01077464f,0.064465709f,0.054771461f,0.014745292f,0.070641741f,
-0.0087648006f,0.0038801588f,0.01548453f,0.016640382f,0.12101465f,0.017405186f,0.011817029f,0.019380897f,
0.13196714f,0.022552529f,0.094202928f,0.11147284f,0.10647678f,0.002805925f,-0.022726988f,0.11273377f,
0.072468355f,0.13130522f,0.030593287f,-0.021158153f,-0.0075178077f,0.019012865f,0.13442768f,-0.011088318f,
-0.0075252242f,0.13002376f,0.004020547f,-0.02393139f,0.12411283f,0.10237825f,0.022230403f,0.11268854f,
0.02494859f,0.041628983f,-0.0089872908f,0.021291474f,0.076874144f,0.037966993f,0.032100249f,0.036368378f,
0.057106998f,0.023993151f,0.068837672f,0.091984116f,-0.0044636377f,0.027496465f,0.0044586011f,0.05934022f,
0.002249883f,0.068985321f,0.031923346f,0.012866017f,0.0259482f,0.038877949f,0.1096266f,0.0017561531f,
0.0055901199f,0.057896756f,0.030762924f,0.0010098602f,0.092116997f,0.064920202f,0.097255148f,0.057861619f,
0.00048753116f,0.022824375f,0.0049588461f,0.017429268f,0.11754841f,0.010402887f,0.018274287f,0.017372252f,
0.094828986f,0.011880252f,0.074152328f,0.10733293f,0.084782362f,0.0098907938f,-0.011456623f,0.090374552f,
0.062292658f,0.090981752f,-0.0063155759f,-0.0011762979f,0.002111692f,0.0090397596f,0.10282912f,-0.00722596f,
-0.004761443f,0.092846125f,0.0049270694f,-0.007834807f,0.10484907f,0.080883637f,0.012710712f,0.099266671f,
0.023648296f,0.03697693f,0.022506217f,0.0184393f,0.058846608f,0.059403718f,0.016508689f,0.030278221f,
0.063289277f,0.03188733f,0.046468567f,0.066831708f,0.063184671f,0.028183725f,0.013756511f,0.058652166f,
0.088507749f,0.071369961f,0.021506723f,0.021217696f,0.026292361f,0.039598186f,0.0715909f,0.014468954f,
0.017275669f,0.071632281f,0.036888849f,0.005464545f,0.055318303f,0.057178821f,0.077106342f,0.067023426f,
0.021499591f,0.053186961f,0.02314977f,0.020229552f,0.061991155f,0.024966037f,0.017171938f,0.039622713f,
0.066219211f,0.030941933f,0.053422607f,0.06249059f,0.10512457f,0.018442165f,0.019113354f,0.072779164f,
0.071158521f,0.064669937f,0.028611083f,0.01538726f,0.024716664f,0.035197891f,0.059932511f,0.0050973035f,
0.0077152154f,0.065838702f,0.029294737f,0.0098660849f,0.062600337f,0.063327506f,0.12751547f,0.068000779f,
0.028871838f,0.041020449f,0.039007384f,0.029979859f,0.067286208f,0.051274441f,0.040689781f,0.065453134f,
0.058547992f,0.048937328f,0.053264115f,0.079673678f,0.083453648f,0.043920331f,0.024349019f,0.063652888f,
0.078518443f,0.081133761f,0.04852156f,0.025438663f,0.039685629f,0.056417745f,0.073896103f,0.026850514f,
0.019552901f,0.073197305f,0.051784903f,0.021941174f,0.069966778f,0.058887117f,0.032815121f,0.052358784f,
0.015361317f,0.042478628f,0.031446289f,0.028796708f,0.11379228f,0.023763513f,0.056493919f,0.033939399f,
0.11613864f,0.033111457f,0.092688277f,0.09195523f,0.061533313f,0.024851697f,-0.002993824f,0.091560736f,
0.13420929f,0.12199546f,0.016259002f,0.0064841118f,0.0099079898f,0.038862992f,0.11614453f,0.0095247626f,
0.0032922924f,0.10513663f,0.032852355f,-0.011119692f,0.11696307f,0.11723422f,0.17462786f,0.10855479f,
0.0084692556f,0.034631371f,0.0152181f,0.031141236f,0.10863433f,0.014133076f,0.0077782171f,0.030626262f,
0.092202917f,0.033549473f,0.097020656f,0.10719836f,0.097750396f,0.021529775f,-0.0016795907f,0.11310529f,
0.1270114f,0.13118646f,0.028770277f,0.0046206443f,0.012739129f,0.021659151f,0.1145186f,0.0034528421f,
0.0012507475f,0.12456422f,0.02527854f,-0.004730517f,0.13342102f,0.11063599f,0.046798948f,0.095799439f,
0.019988235f,0.0003434979f,0.018348966f,-0.016055968f,0.080485135f,0.048380721f,-0.011928092f,0.00077852921f,
0.081914499f,0.03205058f,0.065656096f,0.097538896f,0.063038677f,0.00628035f,0.0062587978f,0.070295162f,
0.11567158f,0.098377034f,0.017785035f,0.020986868f,0.015835145f,0.023765523f,0.074259534f,0.027273485f,
0.0086984877f,0.07618124f,0.025460402f,-0.0068104016f,0.09331996f,0.084123582f,0.075289346f,0.095758028f,
0.016159123f,0.030254597f,0.011926792f,0.022011599f,0.098353364f,0.029854102f,0.038846225f,0.029330967f,
0.10432017f,0.019493807f,0.080150798f,0.096508771f,0.09838628f,0.01438309f,0.0082330564f,0.092013344f,
0.14389578f,0.10334647f,0.024359467f,0.0012446662f,0.02256925f,0.02467292f,0.087806284f,-0.011884524f,
0.0015816841f,0.094303846f,0.025045563f,2.4073977e-06f,0.094802096f,0.093228154f,0.17001255f,0.079722695f,
0.0093748262f,0.040802311f,0.012280077f,0.025308769f,0.10580947f,0.0077623758f,0.012998822f,0.025062749f,
0.11233164f,0.012548924f,0.095656186f,0.088660203f,0.065354735f,0.028719785f,0.0080513218f,0.09811303f,
0.14453776f,0.12035408f,0.022368709f,-0.0067230593f,0.019363452f,0.04464509f,0.10328424f,0.012744109f,
-0.0043332926f,0.11516623f,0.023591477f,-0.0059167487f,0.096715622f,0.11287592f,0.15343776f,0.085781239f,
0.0069940179f,0.047959622f,0.03557108f,0.0057791444f,0.12805767f,-0.01011633f,0.0073522986f,0.035723343f,
0.12970389f,0.032707222f,0.12038606f,0.13809544f,0.18757454f,0.015487837f,0.0058538262f,0.10630421f,
0.1093028f,0.14689527f,-0.0083488822f,-0.0035550571f,0.031371508f,0.037818339f,0.12345822f,-0.0085629895f,
0.0068240832f,0.12546647f,0.033008467f,0.0018729988f,0.12503825f,0.11961821f,0.15048452f,0.12361895f,
-0.027295034f,-0.011320948f,-0.011020799f,0.010965313f,0.13869086f,0.006904427f,0.01478755f,0.0092550153f,
0.12589516f,0.0053995601f,0.13334319f,0.12707752f,0.1490975f,-0.0028528236f,-0.0013292077f,0.14473917f,
0.042850949f,0.13831729f,0.010752506f,-0.0081308419f,-0.0057097976f,-0.0039370293f,0.11696945f,-0.027945817f,
-0.01142657f,0.12194815f,0.0050754994f,-0.024731869f,0.14612328f,0.11961558f,0.2002515f,0.14934976f,
0.0096179005f,-0.039946299f,0.007497875f,-0.090474211f,0.10285112f,0.017400688f,-0.0080295708f,-0.0071937735f,
0.10191639f,0.02136929f,0.079660982f,0.10704002f,0.032433383f,0.0061761537f,-0.035067078f,0.10453361f,
0.11483295f,0.084290013f,-0.05314244f,0.0020824177f,-0.043502446f,0.029670179f,0.11629145f,-0.0092586363f,
-0.006543559f,0.074871704f,-0.05975144f,-0.012562211f,0.078683831f,0.12456657f,0.14065857f,0.1169611f,
-0.02054506f,0.012445982f,-0.011856344f,0.0046120742f,0.14234202f,-0.0092005199f,-0.028589616f,-0.012794135f,
0.16304278f,-0.0016039438f,0.12006479f,0.11746706f,0.1401196f,-0.0031502384f,-0.016131965f,0.14107205f,
0.15844832f,0.16143997f,-0.020256408f,-0.023653287f,-0.01255454f,-0.020310747f,0.15080518f,-0.035457686f,
-0.027337963f,0.12855005f,-0.0079204217f,-0.030036578f,0.13203256f,0.1282285f,0.21957603f,0.1226221f,
-0.00066006527f,0.00036476608f,-0.0077307574f,-0.056628868f,0.12147856f,-0.081356212f,-0.069485255f,0.0019856323f,
0.14106677f,0.025974065f,0.11417655f,0.1140558f,0.049302302f,0.0085920878f,-0.017192543f,0.12225226f,
0.1397135f,0.12805927f,-0.034882985f,0.00010401545f,0.010653285f,-0.026786363f,0.1087448f,-0.019908192f,
-0.014002494f,0.10628381f,0.013414958f,-0.012950533f,0.11099102f,0.14387923f,0.20452479f,0.12358424f,
-0.0045686951f,0.017374884f,-0.0057712607f,0.019390609f,0.13771178f,-0.01495318f,-0.042124577f,-0.030289698f,
0.15374941f,0.0086462563f,0.16604839f,0.12707818f,-0.018639255f,0.00095976441f,-0.007297846f,0.16847537f,
0.20336352f,0.17824423f,-0.059332911f,-0.022047047f,0.025937904f,-0.037047386f,0.16012731f,-0.029304108f,
-0.022416769f,0.13037992f,0.01981128f,-0.01835428f,0.15330541f,0.17575277f,0.25047633f,0.1539672f,
0.00023973515f,0.020604467f,0.014618254f,0.015340348f,0.14039727f,0.015745569f,0.010102379f,0.034735672f,
0.12178464f,0.021984564f,0.10743254f,0.10496762f,0.05412652f,-0.014672654f,-0.019042928f,0.15786138f,
0.12509675f,0.11842521f,0.023641635f,0.00104797f,0.0062431106f,-0.025684731f,0.096194617f,0.0020092314f,
-0.0029905648f,0.11923087f,0.01970673f,-0.012593271f,0.15556327f,0.15967917f,0.15927604f,0.11181641f,
0.0097440546f,0.030809021f,0.0036512131f,0.023074217f,0.12176431f,0.015559925f,-0.020763943f,0.026929017f,
0.12499923f,0.014801889f,0.098156653f,0.10570118f,-0.017831804f,0.0055917669f,-0.017851287f,0.13438605f,
0.072932139f,0.11618099f,0.014766286f,-0.0019472699f,-0.013383027f,0.018238885f,0.14803119f,-0.018698277f,
-0.0097634979f,0.11834003f,0.0095181121f,-0.0250527f,0.14326392f,0.14567006f,0.18605369f,0.12087336f,
-0.020450328f,0.019047486f,-0.0031733026f,-0.034937385f,0.13262184f,0.00043510916f,-0.022887001f,0.022227153f,
0.14368564f,0.01223705f,0.11848658f,0.12921156f,0.033363108f,-0.032416087f,-0.017492967f,0.14864299f,
0.15837982f,0.11399575f,-0.025363335f,-0.013317827f,-0.0099952845f,-0.018398935f,0.13199888f,-0.03405866f,
-0.0074991668f,0.13674878f,-0.0060832505f,-0.017658278f,0.16052139f,0.16403204f,0.19306143f,0.16616762f,
-0.0045343866f,-0.017968927f,0.003498906f,-0.0023520438f,0.097635299f,-0.005084306f,-0.036736891f,-0.0020735185f,
0.1177997f,0.012556362f,0.081486262f,0.10098403f,0.090478674f,0.0039914288f,-0.0088374512f,0.092528082f,
-0.0277193f,0.11773904f,-0.022907352f,0.0039874096f,-0.018895712f,-0.014271856f,0.15043297f,-0.018158888f,
0.0022804174f,0.10456025f,0.010182953f,-0.020543387f,0.12689057f,0.13354102f,0.22852959f,0.098640367f,
0.047258694f,-0.072020538f,0.014851232f,0.024174191f,0.1010393f,0.01373937f,-0.029407348f,0.035367094f,
0.11114312f,0.055027638f,0.068072066f,0.07033246f,0.010237579f,0.040654119f,0.021675548f,0.10878972f,
0.10735167f,0.12547545f,-0.0026074839f,0.0093696127f,0.02054501f,0.017889852f,0.11812959f,-0.010993825f,
0.031501111f,0.072687306f,0.041015036f,0.010926728f,0.10351617f,0.10072317f,0.090664558f,0.11846648f,
0.028791638f,0.0060350937f,0.031856872f,0.031668968f,0.067597687f,-0.0051634312f,0.040774267f,0.0543922f,
0.13028865f,0.027174901f,0.12599318f,0.11869235f,0.019337721f,0.022415332f,0.011926988f,0.07149411f,
0.01823142f,0.10405929f,0.022645202f,0.021182831f,0.023931328f,0.023508813f,0.072436169f,-0.0027756817f,
-0.0025351159f,0.08901155f,0.044203725f,0.006120055f,0.0863159f,0.096616566f,0.089584284f,0.061190952f,
-0.0074385004f,0.030144727f,0.012506842f,0.024678757f,0.15539542f,-0.0050496254f,0.022229524f,0.029069301f,
0.15308096f,0.0060217916f,0.13275054f,0.15114923f,-0.029604791f,-0.0066128406f,-0.0098588383f,0.15416321f,
0.1215865f,0.17292872f,0.0041959072f,-0.008448014f,-0.038377292f,0.0019453014f,0.17866191f,-0.017977526f,
-0.015873305f,0.16551451f,0.0067264698f,-0.016528318f,0.12231466f,0.11450282f,0.18272284f,0.12539101f,
-0.008429761f,0.018050812f,0.0023655067f,0.027796801f,0.17662558f,0.0062765335f,0.010202966f,0.03053903f,
0.16851787f,0.010826337f,0.12074186f,0.12207618f,0.059872501f,-0.023575814f,-0.026815588f,0.1260341f,
0.19087447f,0.18665472f,0.00050765765f,-0.00312318f,-0.0069289561f,-0.025467269f,0.11931958f,-0.0066120634f,
-0.014428672f,0.17753416f,0.009532976f,-0.01784566f,0.13417505f,0.17413647f,0.13904874f,0.1608931f,
0.010273406f,0.013097016f,0.0063208323f,0.012527053f,0.12358891f,0.031127088f,0.023329576f,0.041324031f,
0.15210259f,0.029495871f,0.1166062f,0.13573825f,0.077759318f,0.01134802f,-0.011513962f,0.12541835f,
0.063659437f,0.10440299f,0.026357036f,0.013891718f,0.010083161f,0.014368553f,0.093004875f,0.0014246778f,
0.0021489337f,0.16551289f,0.027201675f,-0.0041378061f,0.12741266f,0.1162374f,0.1278162f,0.10999007f,
0.052826855f,0.013088185f,0.023065386f,0.055498157f,0.038882673f,0.036134824f,-0.035202816f,0.071761295f,
0.049286801f,0.0323852f,0.057245284f,0.072958142f,-0.021376917f,0.02707722f,0.0043847547f,0.093463056f,
0.025578385f,0.10604602f,0.045667443f,0.027441589f,0.032774996f,0.032777809f,0.090131424f,0.010513409f,
0.02482664f,0.085137345f,0.036118824f,0.015048779f,0.099029236f,0.065687254f,0.039172262f,0.030150305f,
0.015813176f,0.040917963f,0.046984434f,0.064606786f,0.035241012f,0.012498471f,-0.016829623f,0.073417529f,
0.030717243f,0.054118153f,0.01341926f,0.020362478f,0.018964438f,0.0096592633f,0.023196418f,0.051417813f,
0.0025793947f,0.032750919f,0.031010577f,0.032089405f,0.020622727f,0.043389484f,0.017270457f,0.023850339f,
0.002370609f,0.039924838f,0.011161009f,0.03051587f,0.026179211f,0.03700899f,-0.040676858f,0.017495051f,
-5.7328942e-40f,4.9464014e-40f,5.0732049e-40f,5.6176094e-40f,-5.4225766e-40f,-5.0437216e-40f,5.7048262e-40f,5.0341787e-40f,
-5.1187191e-40f,-5.1007825e-40f,-5.1864158e-40f,5.2879259e-40f,-4.9541786e-40f,5.3516149e-40f,5.0747603e-40f,5.0429088e-40f,
4.9153907e-40f,5.1390519e-40f,-5.8483612e-40f,-5.1404392e-40f,-5.7389758e-40f,-4.9901219e-40f,-4.9758007e-40f,-5.0629194e-40f,
-4.9147881e-40f,5.6406467e-40f,-5.1138426e-40f,-5.5044685e-40f,-5.1897509e-40f,5.1000958e-40f,-5.8269914e-40f,-5.4573148e-40f,
5.561095e-40f,-5.5227835e-40f,-5.1568484e-40f,5.1281218e-40f,5.2204814e-40f,-5.0202358e-40f,5.2367785e-40f,5.8007871e-40f,
5.4029865e-40f,5.0509523e-40f,-6.0015792e-40f,5.9360685e-40f,5.9645849e-40f,-5.5105081e-40f,5.0860969e-40f,-5.3267839e-40f,
5.7865639e-40f,6.2369272e-40f,-5.5423877e-40f,-4.9774962e-40f,5.1460444e-40f,-5.9138999e-40f,5.775886e-40f,-5.2759588e-40f,
5.3530022e-40f,-5.2197527e-40f,-5.7030886e-40f,-5.124072e-40f,6.1671706e-40f,-5.9684384e-40f,5.0137618e-40f,-5.1573529e-40f,
-5.0238091e-40f,-6.0158304e-40f,5.3476212e-40f,-4.9446498e-40f,-5.2415009e-40f,5.0857185e-40f,6.0144991e-40f,5.3832002e-40f,
-5.8385521e-40f,-5.42622e-40f,-5.8992704e-40f,-5.3134015e-40f,-4.9873894e-40f,-5.6307115e-40f,-5.1957064e-40f,-5.51034e-40f,
-5.1740704e-40f,-5.3720318e-40f,-5.9305333e-40f,-5.0082687e-40f,5.7370981e-40f,-5.1774335e-40f,5.2949324e-40f,4.954543e-40f,
-5.204983e-40f,-4.9927844e-40f,5.0222257e-40f,5.7981106e-40f,-5.1982147e-40f,-4.9270915e-40f,5.4149536e-40f,-5.6786359e-40f,
5.7165971e-40f,5.0687628e-40f,5.0842471e-40f,-5.0123045e-40f,4.9710643e-40f,5.6255127e-40f,5.1074106e-40f,4.9937933e-40f,
5.4964671e-40f,-4.9963717e-40f,-5.0488503e-40f,-5.1014271e-40f,5.3817008e-40f,-6.015494e-40f,5.1538076e-40f,5.3758293e-40f,
-5.0220996e-40f,-6.0721065e-40f,5.8949684e-40f,5.0037285e-40f,-5.8307889e-40f,5.64855e-40f,-5.0899644e-40f,-5.3109352e-40f,
-4.9314776e-40f,6.2019368e-40f,-5.1721366e-40f,-5.5115171e-40f,-5.1457221e-40f,-5.0125147e-40f,-5.1219701e-40f,-4.9350789e-40f,
-6.2143523e-40f,-5.4273551e-40f,5.2149322e-40f,5.5392768e-40f,-5.0782776e-40f,4.9748758e-40f,-5.8628366e-40f,5.174785e-40f,
-5.1584599e-40f,-5.0824535e-40f,-5.1916006e-40f,4.9365082e-40f,4.9171283e-40f,-5.5823527e-40f,5.0826076e-40f,4.952441e-40f,
6.0005422e-40f,-5.1451336e-40f,-5.1206108e-40f,5.4514154e-40f,5.3825976e-40f,-4.9269514e-40f,-5.14994e-40f,5.2920037e-40f,
-5.1253192e-40f,-5.0861249e-40f,-5.143466e-40f,-5.7415262e-40f,5.3081886e-40f,5.3751987e-40f,5.3548939e-40f,-5.8268372e-40f,
0.01268059f,0.023834588f,-0.018324109f,0.0079711229f,0.092869595f,-0.017431198f,0.036802746f,-0.00079368748f,
0.084643036f,0.001048503f,0.045434818f,0.089300759f,-0.094841875f,-0.024740513f,-0.025763458f,0.092033759f,
-0.014528264f,0.058050003f,-0.00063194486f,-0.0050596921f,-0.027521249f,-0.019919487f,0.039234515f,-0.035179142f,
-0.027040202f,0.04068796f,0.029407376f,0.00719197f,0.045176562f,0.071208246f,0.031383421f,0.093874969f,
0.00626481f,-0.031239023f,-0.042722732f,0.0036262993f,0.07973852f,0.020291455f,-0.080060914f,0.0091799144f,
0.074789606f,-0.003814074f,0.046558425f,0.013281962f,0.015958851f,-0.023355819f,-0.0042040213f,0.047120702f,
0.037288185f,0.039550208f,0.03006546f,-0.028563526f,0.0040517165f,-0.012067902f,0.037086122f,0.037626922f,
0.022640489f,-0.019122176f,0.013413819f,0.016395312f,0.063052185f,0.07917244f,-0.081674866f,0.077121727f,
0.0086887069f,0.01130858f,-0.022536851f,0.034796111f,0.057479855f,-0.037672665f,0.031215465f,0.038725372f,
0.0093709948f,0.040737979f,0.0097727161f,0.055207074f,-0.054212622f,0.027913429f,-0.02291194f,0.02344656f,
-0.15185259f,0.031390827f,0.018263439f,0.029350884f,-0.035832185f,0.018686697f,0.086716823f,-0.017003702f,
0.023949504f,0.054090235f,-0.0029481754f,0.024644468f,0.046137858f,0.017197877f,-0.018701991f,0.011920089f,
-0.018279616f,-0.0077535468f,-0.0063862945f,0.025021967f,0.061563231f,0.019200556f,-0.042958524f,0.039090086f,
0.048341136f,0.020711426f,0.065177687f,0.069885671f,-0.017238751f,0.043467607f,-0.010642976f,0.0047712293f,
-0.0072212596f,0.017128231f,-0.031922419f,-0.0065877065f,0.030841308f,0.011645512f,0.016591165f,0.0055159042f,
-0.0015500272f,-0.03213967f,0.048469406f,0.034519281f,0.069384508f,0.072050877f,-0.10562958f,0.0003325275f,
0.059764907f,0.076027647f,0.021064477f,0.06527783f,0.049534459f,0.065965079f,-0.031754624f,0.066736601f,
0.026979996f,0.050946191f,0.056821972f,-0.030371109f,0.054999772f,0.058818512f,0.012214586f,0.015728133f,
-0.21127522f,0.051745143f,0.037511073f,-0.005842268f,0.054604404f,0.019428281f,0.075348258f,0.03972014f,
0.0034892554f,-0.029331736f,0.060993709f,0.034138829f,0.035788395f,0.067408048f,-0.11451302f,0.030055616f,
0.037861366f,-0.0020604096f,-0.0059490385f,0.011103083f,0.061581012f,-0.0039394861f,-0.015192705f,-0.0010156248f,
0.085059769f,0.0048358832f,0.11987554f,0.050837301f,-0.15186265f,0.025537679f,-0.010390058f,0.083416611f,
0.041675624f,0.068425603f,-0.0043274178f,-0.0083938595f,0.028873058f,0.027474284f,0.12121141f,0.01397147f,
-0.02879582f,0.048176639f,0.010902323f,-0.017581932f,0.063718572f,0.093606003f,0.029353961f,0.087568037f,
0.019080885f,-0.043809865f,-0.000381591f,0.020779217f,0.061430331f,-0.003404862f,-0.041997887f,-0.01476881f,
0.080538288f,0.023095854f,0.038293969f,0.088499479f,0.16303377f,0.018567596f,-0.027586279f,0.043551575f,
-0.063425854f,0.072920404f,0.0007728762f,-0.013148095f,0.028420746f,0.0012173426f,0.077488467f,-0.024324009f,
-0.030461209f,0.0037794472f,0.025282046f,-0.017519347f,0.077318966f,0.072213724f,-0.078559481f,0.083815187f,
-0.0089930883f,0.030856304f,-0.0024060761f,-0.062540546f,0.078494966f,0.038362298f,0.062141445f,-0.011309551f,
0.076171674f,0.0072227502f,0.074075937f,0.031942934f,-0.12319003f,0.0449594f,0.013676487f,0.04289249f,
0.006917337f,0.066832602f,-0.013804618f,0.0056887507f,-0.013567858f,0.019436825f,0.042640351f,-0.000221601f,
0.0127679f,0.012575666f,-0.015119707f,0.0030039661f,0.046712667f,0.064932957f,-0.070109256f,0.011753306f,
0.0037511308f,-0.0043933303f,-0.0094730062f,-0.026692413f,0.04648833f,0.0016177755f,-0.060316864f,0.029248822f,
0.075445414f,0.031432901f,0.080659926f,0.047950462f,-0.055671226f,0.030518267f,-0.027867056f,0.085684143f,
-0.089122176f,0.076152332f,-0.0021091269f,0.0085744932f,-0.0096624251f,0.0027128381f,0.012036003f,-0.020845223f,
0.011477773f,-0.0072047957f,0.036012303f,-0.010084243f,0.083983973f,0.093415223f,-0.045451622f,0.083086796f,
0.022873098f,0.063957229f,0.06008368f,0.033973891f,0.0073188907f,0.024821023f,0.068393901f,0.02278363f,
-0.01728572f,0.045894329f,0.014122452f,0.016821358f,-0.027505282f,0.071748249f,0.024393052f,0.046061229f,
0.010237252f,0.042443421f,0.014018961f,-0.00012292863f,0.058238059f,0.070034869f,0.084880024f,0.051330127f,
0.045301173f,0.033935301f,0.050202422f,0.065049738f,0.055005711f,0.058246233f,-0.20840637f,0.064376064f,
0.018014314f,0.027814718f,0.010290327f,-0.0055753351f,0.030670907f,0.038170468f,0.017720407f,-0.010780247f,
0.046718195f,0.020479267f,0.076341182f,0.079052053f,-0.21552235f,0.010107765f,0.0060658208f,0.037164185f,
-0.10178459f,0.02104071f,0.0086019328f,-0.005968289f,0.013907553f,0.01488857f,0.11194297f,-0.0063968268f,
-0.018121034f,0.032021523f,0.01371681f,0.017365355f,0.059202686f,0.048451561f,-0.0025380605f,0.06340123f,
-0.0024783285f,-0.023394998f,-0.01711558f,0.040733892f,0.082277961f,0.014847106f,-0.0465247f,-0.00032596564f,
0.084185831f,0.028538393f,0.087133631f,0.039168473f,-0.0025720946f,0.020857243f,-0.015620995f,0.071017824f,
-0.083552599f,0.026445983f,0.011924071f,-0.00067653356f,0.030694999f,0.014207025f,0.057151519f,-0.002825473f,
-0.013643819f,0.057123795f,0.020852489f,-0.0089665856f,0.097357221f,0.058332257f,-0.016150301f,0.067887157f,
0.01007074f,0.0042861239f,-0.016900318f,-0.008260251f,0.09371049f,-0.0020300723f,0.019902125f,-0.015141792f,
0.028754015f,-0.019997181f,0.093684971f,0.062569529f,-0.086117931f,-0.012155143f,0.01072472f,0.085774057f,
-0.066603623f,0.010318716f,0.0076806899f,0.0038849362f,-0.024621811f,-0.014951195f,0.087208055f,-0.0025942209f,
0.0016498318f,0.014104436f,-0.0046962616f,-0.0046912716f,0.061294176f,0.018260375f,-0.060182497f,0.061516684f,
-0.037816305f,-0.024900652f,-0.011245667f,0.0065255538f,0.1046212f,-0.015939672f,-0.067747094f,-0.010278433f,
0.079634577f,-0.0093590245f,0.03886912f,0.092381924f,0.050009683f,-0.011922966f,-0.004953871f,0.017017374f,
-0.12175912f,0.027280267f,-0.0025952146f,-0.026720766f,-0.0041445503f,0.027728654f,0.027660495f,0.0042131678f,
-0.033916898f,0.057933941f,0.0069691786f,-0.0066501037f,0.10162368f,0.072862044f,0.00049857271f,0.036601085f,
0.015627988f,0.029572304f,-0.0042527053f,0.030862868f,0.056594517f,0.031237952f,0.02949954f,0.013284057f,
0.027065564f,-0.00032265027f,0.09757296f,0.042037468f,-0.011128316f,0.027879596f,-0.002086235f,0.076872632f,
-0.048017759f,0.015307277f,0.022147557f,-0.01716554f,0.0067896433f,0.021341728f,0.026070476f,0.0041799909f,
0.0033260742f,0.067348726f,0.041221436f,0.013984631f,0.047192972f,0.010644349f,-0.11515962f,0.013089962f,
-0.0060026245f,-0.09103626f,0.006666576f,-0.017595904f,0.12895197f,-0.0039506434f,0.058517087f,-0.014912142f,
0.11167636f,-0.006891666f,0.091406576f,0.065542854f,0.052081838f,-0.0086727571f,-0.015426173f,0.073499799f,
-0.110637f,0.096567571f,-0.024452761f,-0.017777627f,-0.0041806307f,0.0050892089f,0.14299242f,-0.016868394f,
-0.028831258f,0.078701705f,-0.011904362f,-0.017888697f,0.065370716f,0.11394912f,-0.026174467f,0.12449836f,
-0.032133803f,-0.047550369f,-0.040881112f,-0.017105978f,0.069333717f,-0.0047766934f,0.013504193f,-0.024805686f,
0.12045538f,-0.021153361f,0.11669469f,0.11679338f,-0.023016538f,-0.05670112f,-0.051159162f,0.071002498f,
-0.056227505f,0.13895673f,-0.022863626f,-0.040969715f,-0.050032217f,-0.036132708f,0.064246356f,-0.026156688f,
-0.050265133f,0.091503762f,-0.036893107f,-0.024600029f,0.064807154f,0.1098444f,-0.0028254983f,0.13383229f,
-0.044769477f,-0.043315403f,-0.10380313f,-0.041857932f,0.048185881f,-0.015399523f,0.0066975779f,-0.057227362f,
0.089025907f,-0.057921395f,0.047861531f,0.062555775f,-0.019656256f,-0.050723575f,-0.035794642f,0.054733872f,
-0.078374162f,0.046671957f,-0.022684133f,-0.023967059f,-0.0086353458f,-0.081240654f,0.076323286f,-0.044170357f,
-0.025513267f,0.072002783f,-0.0052667502f,-0.04607524f,0.060248863f,0.11535299f,-0.0042139958f,0.073438019f,
-0.022253226f,0.0059235464f,0.0023955721f,-0.0079469457f,0.025142228f,0.0070119626f,-0.048768014f,0.0099303294f,
0.088592298f,-0.014413912f,0.031595364f,0.052518819f,-0.1052191f,-0.02796042f,-0.0080481414f,0.043141f,
-0.075970747f,0.078862838f,-0.022038173f,-0.012094184f,-0.026674559f,0.0087138321f,0.044068623f,-0.0041454779f,
-0.019092301f,0.054387804f,-0.0089356937f,-0.0056458283f,0.091739945f,0.055368561f,-0.021169418f,0.020940747f,
0.0028432156f,-0.0074420758f,-0.0011724406f,0.020264082f,0.08953204f,0.040509172f,0.011147721f,0.0079724686f,
0.048861243f,0.01369442f,0.029548202f,0.074066192f,0.091070108f,0.016119905f,0.014340904f,0.035787471f,
0.026850732f,0.037706729f,0.014258091f,-8.7587374e-05f,-0.0095324228f,0.016178356f,0.021728609f,0.024927679f,
0.019736148f,0.05758607f,0.015177426f,-0.0062236446f,0.082445793f,0.059074435f,-0.28315902f,0.053663675f,
5.0924587e-40f,-4.9173525e-40f,5.0448006e-40f,-5.428336e-40f,-6.0286382e-40f,5.1955243e-40f,-5.3354439e-40f,5.2370167e-40f,
-6.2933715e-40f,4.9810135e-40f,5.3401523e-40f,-5.8165097e-40f,5.1412379e-40f,-5.3267418e-40f,-5.1699926e-40f,5.1310225e-40f,
-5.0395878e-40f,-5.0110153e-40f,5.2781308e-40f,-5.3655578e-40f,-4.9670706e-40f,4.9850492e-40f,5.5067106e-40f,5.0203059e-40f,
5.0512466e-40f,5.238432e-40f,5.1501642e-40f,5.3522034e-40f,-5.502787e-40f,-5.2587649e-40f,5.866508e-40f,5.3446785e-40f,
5.4652602e-40f,5.8053553e-40f,5.5475024e-40f,5.778016e-40f,4.9764733e-40f,-5.8315876e-40f,-5.3937519e-40f,5.1759481e-40f,
-5.4926276e-40f,-5.7749331e-40f,5.4580575e-40f,5.2581062e-40f,5.3804396e-40f,-5.4259398e-40f,-5.18231e-40f,-5.3649833e-40f,
-5.4171957e-40f,-5.4697443e-40f,4.9380357e-40f,-5.0844994e-40f,-5.0238372e-40f,5.7755357e-40f,-5.4320774e-40f,-5.0028317e-40f,
5.2209158e-40f,5.3357382e-40f,5.0672634e-40f,5.3781835e-40f,5.529832e-40f,5.4541479e-40f,5.1119228e-40f,5.4838834e-40f,
4.9981934e-40f,-5.8567269e-40f,5.1215357e-40f,4.9240367e-40f,-5.0831261e-40f,-6.2966506e-40f,5.5682416e-40f,5.3029198e-40f,
-4.9755484e-40f,-5.5099476e-40f,6.0506807e-40f,5.4554231e-40f,-5.6302771e-40f,-5.6267318e-40f,-5.2754823e-40f,-5.2702135e-40f,
5.2388524e-40f,-5.466101e-40f,-5.8426719e-40f,-5.3767682e-40f,-5.4644895e-40f,-5.3513206e-40f,-6.060756e-40f,-5.0126688e-40f,
5.1860094e-40f,5.3657119e-40f,-5.6907571e-40f,4.9409504e-40f,-4.9980112e-40f,5.0694634e-40f,-5.5793819e-40f,4.9995947e-40f,
5.2856137e-40f,-4.9055536e-40f,-5.2326306e-40f,-5.7195678e-40f,-5.3557067e-40f,5.2821245e-40f,5.0416617e-40f,-5.2314676e-40f,
-4.9810695e-40f,-5.7983909e-40f,4.9908786e-40f,5.9113495e-40f,5.2023486e-40f,5.6785799e-40f,-5.0707246e-40f,-5.1350162e-40f,
4.9252138e-40f,4.9197207e-40f,6.2597684e-40f,-6.0404091e-40f,5.1158744e-40f,4.9428561e-40f,-5.1414341e-40f,6.1086243e-40f,
4.9792338e-40f,5.1482585e-40f,5.0374438e-40f,5.1864158e-40f,5.5491139e-40f,-5.0166485e-40f,5.0470146e-40f,4.9821065e-40f,
-5.1757379e-40f,-5.3413434e-40f,5.1124132e-40f,-5.1040615e-40f,-5.2374511e-40f,-5.1583198e-40f,4.9108505e-40f,-5.1733137e-40f,
4.963259e-40f,-5.0271442e-40f,5.2069168e-40f,5.4449274e-40f,-4.9116072e-40f,5.0610977e-40f,5.6260172e-40f,5.0126688e-40f,
-5.1537095e-40f,5.0136777e-40f,-4.9710643e-40f,-5.1400749e-40f,-5.7142289e-40f,5.2746135e-40f,5.0134535e-40f,5.0469165e-40f,
-5.7856951e-40f,-5.2661777e-40f,4.9811957e-40f,-5.0545957e-40f,-4.9292355e-40f,5.4622754e-40f,-5.5368806e-40f,-5.0690711e-40f,
-0.088289075f,-0.033796687f,-0.053156544f,-0.06368316f,0.12263368f,-0.12371369f,-0.085470565f,-0.097280487f,
0.096368469f,-0.10528966f,0.10004716f,0.086843684f,-0.16831547f,-0.11950172f,-0.089896791f,0.062520735f,
-0.075997934f,0.072874546f,-0.031586535f,-0.068797417f,-0.04088179f,-0.069372557f,0.11080118f,-0.057180703f,
-0.092951782f,0.060769763f,-0.093184076f,-0.082700394f,0.078864932f,0.1202338f,-0.22239166f,0.11211219f,
-0.05956855f,-0.040266234f,-0.083990775f,-0.041702375f,0.11990064f,-0.028120765f,-0.054091129f,-0.10317951f,
0.11728658f,-0.076215297f,0.10157678f,0.080603987f,-0.045158077f,-0.081210926f,-0.073173866f,0.076282986f,
-0.1374588f,0.088084079f,-0.036129437f,-0.091580607f,-0.047422092f,-0.059488241f,0.077899545f,-0.071622699f,
-0.054096818f,0.10265019f,-0.025484996f,-0.062470909f,0.091198929f,0.13699321f,-0.19696727f,0.13328347f,
-0.050612599f,-0.033166684f,-0.11010016f,-0.075988255f,0.076296389f,-0.048343737f,0.005510116f,-0.017508894f,
0.11363561f,-0.067516595f,0.099207088f,0.1306764f,-0.14243267f,-0.072402917f,-0.083648622f,0.079660609f,
-0.17153652f,0.1111053f,-0.036169831f,-0.04867937f,-0.069265336f,-0.026080202f,0.13552745f,-0.072479554f,
-0.049105503f,0.081771925f,-0.066510543f,-0.077928402f,0.092746027f,0.13865392f,-0.15630873f,0.095771439f,
-0.051493142f,-0.059191417f,-0.023322893f,-0.05393121f,0.047729257f,-0.020805368f,-0.10318391f,-0.025945678f,
0.071307525f,-0.030762095f,0.065317333f,0.093042895f,-0.066345878f,-0.0036218071f,-0.048604473f,0.053273272f,
-0.17222491f,0.11749168f,-0.073002286f,-0.066949852f,-0.066483296f,-0.018074624f,0.11346408f,-0.063126266f,
-0.070784166f,0.090718247f,-0.053829528f,-0.045410894f,0.10806461f,0.13709484f,-0.21560372f,0.081198879f,
-0.055529326f,-0.03445603f,-0.026532466f,-0.085230462f,0.089432321f,-0.013261349f,-0.05775683f,-0.062291134f,
0.019107727f,-0.036000639f,0.12729602f,0.063002735f,-0.08158505f,-0.048812028f,-0.041638233f,0.086682111f,
-0.24230433f,0.088054933f,-0.011897193f,-0.073250219f,-0.0014442912f,-0.071892709f,0.044250973f,-0.022933381f,
-0.095739506f,0.050666042f,-0.073341556f,-0.072113357f,0.083447091f,0.082675055f,-0.24406178f,0.037665054f,
-0.08103513f,-0.072861403f,-0.079375386f,-0.16536629f,0.14335749f,-0.093031503f,-0.082419589f,-0.12329108f,
0.12170968f,-0.067717232f,0.11088871f,0.11511125f,-0.094629139f,-0.066011652f,-0.086225301f,0.093493268f,
-0.018398125f,0.13270371f,-0.06481117f,-0.091764502f,-0.075771354f,-0.11402115f,0.14298956f,-0.078777775f,
-0.097698078f,0.10371786f,-0.064561263f,-0.078389242f,0.12116835f,0.13133354f,-0.12879202f,0.13272043f,
-0.10079035f,-0.063556805f,-0.090498023f,-0.099024028f,0.15683705f,-0.083406277f,-0.060028356f,-0.094065666f,
0.11857153f,-0.093331151f,0.1304848f,0.13699664f,-0.13663168f,-0.083519742f,-0.092785016f,0.1146654f,
-0.058825213f,0.14066471f,-0.05232339f,-0.10824908f,-0.081869073f,-0.088383116f,0.13859867f,-0.061932977f,
-0.076273635f,0.11509482f,-0.083076f,-0.07062459f,0.1605096f,0.12462422f,-0.051437106f,0.15287666f,
-0.078840308f,-0.068513572f,-0.091508567f,-0.087155923f,0.10075485f,-0.03555309f,-0.10798942f,-0.079104029f,
0.11317968f,-0.070484512f,0.08319293f,0.13524874f,-0.1857809f,-0.070237651f,-0.064015903f,0.11873223f,
0.049387962f,0.094439678f,-0.03383328f,-0.088251077f,-0.023783932f,-0.077823833f,0.14057979f,-0.072365642f,
-0.078734323f,0.092285059f,-0.096810192f,-0.076458916f,0.10099053f,0.1422081f,-0.16128734f,0.12207966f,
-0.016963625f,-0.021706808f,-0.032355659f,-0.026507756f,0.11153167f,-0.047356825f,-0.021956183f,0.00015153336f,
0.060690206f,-0.062015526f,0.094385706f,0.086173482f,-0.11056519f,-0.037875477f,-0.070003077f,0.058846779f,
-0.30248696f,0.12150358f,-0.05746495f,-0.043133739f,-0.012335808f,-0.038839776f,0.078609683f,-0.058501374f,
-0.094099127f,0.040922303f,-0.010827433f,-0.039390076f,0.065152533f,0.13545108f,-0.16467856f,0.111656f,
-0.06460505f,-0.0087976456f,-0.11537661f,-0.11058346f,0.081928343f,-0.045687784f,-0.080368377f,-0.017066807f,
0.10569861f,-0.063673533f,0.036567878f,0.068479218f,-0.071854196f,-0.047635864f,-0.041609451f,0.069048688f,
-0.15147738f,0.035069093f,-0.022655847f,-0.059411224f,-0.051994879f,-0.029985182f,0.10933479f,-0.024434717f,
-0.03536734f,0.052414194f,-0.047554422f,-0.070276953f,0.076302461f,0.096395403f,-0.22854072f,0.11021392f,
-0.094593674f,-0.10178811f,-0.11597996f,-0.15968934f,0.15947428f,-0.081774317f,-0.038007114f,-0.12121397f,
0.14494607f,-0.10488219f,0.17641576f,0.16594121f,-0.034325149f,-0.12494826f,-0.11402481f,0.15173912f,
-0.092853479f,0.15418142f,-0.098933794f,-0.12725328f,-0.10426642f,-0.12884925f,0.15797471f,-0.11849965f,
-0.12905048f,0.17507347f,-0.1346516f,-0.11386559f,0.20096833f,0.16997719f,0.016839748f,0.15001895f,
-0.028066603f,-0.13167162f,-0.073067605f,-0.080742769f,0.079129711f,-0.072501168f,-0.036868807f,-0.11004834f,
0.07400436f,-0.044904083f,0.11396145f,0.10809127f,-0.0038627528f,-0.069702521f,-0.069349401f,0.11105708f,
-0.11087903f,0.11554859f,-0.065488048f,-0.081351116f,-0.050901406f,-0.062371865f,0.073010728f,-0.079450183f,
-0.062216613f,0.044556811f,-0.044620618f,-0.07478676f,0.10689548f,0.10312606f,-0.20832138f,0.088789821f,
-0.0835611f,-0.063123591f,-0.09370055f,-0.049849134f,0.13340321f,-0.10739893f,-0.067397885f,-0.086662635f,
0.11694597f,-0.096254118f,0.099251449f,0.077998959f,-0.15401959f,-0.068623744f,-0.060694877f,0.1458696f,
-0.24161583f,0.1601039f,-0.070763327f,-0.095366701f,-0.06563323f,-0.11553221f,0.13254502f,-0.10702821f,
-0.078815386f,0.11083838f,-0.065178506f,-0.083109796f,0.086942218f,0.099030904f,-0.034990612f,0.086129256f,
-0.059595708f,-0.029577252f,-0.073677316f,-0.037207939f,0.12001397f,-0.053014513f,-0.050424635f,-0.084569819f,
0.089254409f,-0.087411918f,0.1184761f,0.10930673f,-0.11335173f,-0.052976519f,-0.042313494f,0.056800708f,
0.058273643f,0.11384225f,-0.048939295f,-0.067110568f,-0.02436915f,-0.088694796f,0.1135145f,-0.034585539f,
-0.085173607f,0.095052503f,-0.048802342f,-0.08198119f,0.1297151f,0.074193321f,-0.27478775f,0.12875293f,
-0.062233415f,-0.032425143f,-0.083803184f,-0.065540224f,0.07118956f,-0.049952276f,-0.055219781f,-0.035568517f,
0.11709495f,-0.061820246f,0.080946937f,0.041672792f,-0.13441223f,-0.071290702f,-0.068644725f,0.10159683f,
-0.21084262f,0.09046451f,-0.058472402f,-0.083299063f,-0.051402368f,-0.054251127f,0.070965223f,-0.056851119f,
-0.072924659f,0.058337584f,-0.020238219f,-0.04845579f,0.065576516f,0.14958788f,-0.19184121f,0.091616318f,
-0.059454158f,-0.044301484f,-0.082031429f,-0.044842489f,0.10956103f,-0.028508324f,-0.10264839f,-0.076319538f,
0.077702597f,-0.070383333f,0.066852801f,0.075948805f,-0.1004563f,-0.083592221f,-0.048887838f,0.069884382f,
-0.3188203f,0.084230974f,-0.057506084f,-0.081651978f,-0.089834109f,-0.064649686f,0.12426309f,-0.10922617f,
-0.067007557f,0.084961019f,-0.072661683f,-0.056981519f,0.11701004f,0.11491366f,-0.14172387f,0.057699151f,
-0.10513394f,-0.053593181f,-0.12284324f,-0.10338088f,0.10886767f,-0.068401836f,-0.069398485f,-0.083249137f,
0.089405581f,-0.080073036f,0.098607898f,0.14446092f,-0.20745766f,-0.096841849f,-0.079385407f,0.15165621f,
-0.29028773f,0.13344781f,-0.065571167f,-0.08985126f,-0.068686016f,-0.076328047f,0.13736312f,-0.073653683f,
-0.070669681f,0.079476677f,-0.073474847f,-0.089927331f,0.14355904f,0.1718062f,-0.012217398f,0.14476107f,
-0.063864276f,-0.05009434f,-0.079511471f,-0.075213261f,0.15978161f,-0.05258755f,-0.026151871f,-0.065714046f,
0.14501058f,-0.077905834f,0.14134571f,0.10047861f,-0.16974707f,-0.071284622f,-0.058569096f,0.15451017f,
0.066505864f,0.10486356f,-0.058871474f,-0.0812819f,-0.047497738f,-0.048200164f,0.14659967f,-0.054525565f,
-0.07462503f,0.1057168f,-0.079308264f,-0.074426048f,0.13283518f,0.15639466f,-0.19016983f,0.098157398f,
-0.076152273f,-0.039354671f,-0.090556741f,-0.088055439f,0.14568354f,-0.083218433f,-0.14134006f,-0.060357559f,
0.12396415f,-0.076635204f,0.092505075f,0.14315864f,-0.13861485f,-0.07119339f,-0.082033955f,0.075428709f,
-0.32156464f,0.15304275f,-0.052167501f,-0.091885604f,-0.099993095f,-0.051891539f,0.084784836f,-0.093701012f,
-0.080830127f,0.05820059f,-0.082429089f,-0.070832588f,0.15002808f,0.12625642f,0.0040467028f,0.11299407f,
-0.04329592f,-0.038283516f,-0.06594374f,-0.040410344f,0.093776263f,-0.020205928f,-0.064564407f,-0.033683456f,
0.10971873f,-0.05342447f,0.12389211f,0.056586571f,-0.04046065f,-0.041898549f,-0.032356564f,0.10013237f,
-0.19169332f,0.12706472f,-0.024522053f,-0.057544839f,-0.026496107f,-0.034885053f,0.098864801f,-0.02431944f,
-0.054642297f,0.11932556f,-0.041150004f,-0.073287658f,0.10302281f,0.13286406f,-0.20873472f,0.10734847f,
-0.095884725f,-0.13305086f,-0.1161876f,-0.11821301f,0.18669701f,-0.083640583f,-0.13978586f,-0.14367601f,
0.15252097f,-0.10207181f,0.17423318f,0.20199895f,-0.077755742f,-0.10288652f,-0.09096612f,0.19386376f,
0.032877151f,0.15551244f,-0.12611522f,-0.11223356f,-0.099887945f,-0.16595264f,0.182687f,-0.13337378f,
-0.10947116f,0.19602257f,-0.09606415f,-0.11617564f,0.13156566f,0.16373616f,-0.038499773f,0.19078869f,
-0.081652157f,-0.081893846f,-0.091588289f,-0.087795965f,0.17306387f,-0.049149752f,-0.10035164f,-0.097803906f,
0.14123563f,-0.096638456f,0.17736819f,0.1696731f,-0.23384024f,-0.098914541f,-0.076319337f,0.19061595f,
